sequential/dense/kernel:0
(784, 128)
[[ 8.82928818e-03  6.00064024e-02  3.86624783e-03 -1.52419284e-02
  -2.45935619e-02  2.42071822e-02 -7.68141076e-02  7.69741833e-04
  -2.76256688e-02  6.48947284e-02  6.79494813e-02 -3.90512198e-02
  -3.16498354e-02  1.14707053e-02  2.92064399e-02  6.22587726e-02
  -1.25205517e-03  4.36397195e-02  1.03132501e-02 -4.06994037e-02
   7.69947693e-02 -6.43015280e-02  4.79576662e-02  7.27717653e-02
   5.02320006e-02 -6.01111352e-02  1.17530674e-02 -1.84897557e-02
  -4.88201380e-02 -1.40686929e-02  5.67688569e-02  2.92091072e-02
  -2.25272812e-02 -1.42602548e-02 -5.48924431e-02  4.34189290e-03
  -1.72648057e-02 -4.48524952e-03 -7.66476840e-02  5.02771959e-02
  -5.89825660e-02  3.13106403e-02 -6.03118241e-02  4.12495211e-02
  -7.18651414e-02  3.84123996e-02 -7.87049532e-04  1.74906850e-03
  -6.01791665e-02 -1.82653740e-02 -2.01607570e-02 -4.50961217e-02
  -5.26835620e-02  3.73209268e-02  4.10940424e-02 -1.03859082e-02
  -2.42444128e-03 -1.43159330e-02 -6.30165935e-02  4.71092388e-02
   6.82325289e-02 -4.86958027e-03  2.38605067e-02  3.21630761e-02
   1.49100423e-02  6.52998313e-02 -3.44949216e-03 -6.71963170e-02
  -1.14978403e-02 -7.81510770e-03 -6.48850799e-02 -2.81987227e-02
  -9.37730074e-04 -3.24115120e-02 -6.17087670e-02  1.17725804e-02
  -7.86343217e-02 -7.51463100e-02  7.34336600e-02 -2.16677152e-02
   6.11854568e-02  3.18147168e-02  2.34391019e-02  7.52393827e-02
   2.68994570e-02  7.98723176e-02 -4.06435952e-02  4.05777469e-02
  -6.17615208e-02 -7.65862837e-02  6.56339750e-02  7.75504336e-02
   7.84187391e-02 -5.15621342e-02  5.81611767e-02  3.17811221e-02
   7.84676597e-02  7.81041384e-03 -3.38259339e-02  7.78768435e-02
  -6.45221770e-02  6.38344064e-02  4.56519499e-02  6.15799427e-03
  -1.44317672e-02 -1.71028301e-02  7.55094215e-02  3.49060446e-03
   7.74267986e-02 -4.80959378e-02 -5.90458624e-02 -8.07801187e-02
   2.96841562e-02 -5.87894022e-03  3.91286314e-02  1.28299370e-02
   4.15098146e-02  4.91252542e-03 -7.72768334e-02  1.43619552e-02
  -1.67612806e-02 -1.24259442e-02 -4.17979956e-02 -4.76686396e-02
   3.00543085e-02  2.72642970e-02  7.34448358e-02  1.86393559e-02]
 [ 4.94105294e-02  6.71482086e-03 -1.30549967e-02 -6.22113869e-02
  -7.62713552e-02 -3.21422480e-02  2.53872201e-02  1.06881037e-02
   6.97008744e-02 -1.77892074e-02 -3.48692760e-02 -4.58169952e-02
   5.88338450e-02 -4.31126356e-03 -3.38958241e-02  6.45673200e-02
   7.11205378e-02  7.44646117e-02  2.82596797e-02 -3.01085934e-02
  -6.78686500e-02 -4.71046157e-02  2.57964581e-02 -7.48393536e-02
  -1.22036114e-02 -5.96334785e-03  5.30935898e-02  7.23765045e-03
  -4.62483764e-02 -4.81733307e-02 -3.50610912e-03  3.07525769e-02
   4.63156924e-02 -5.03707007e-02 -5.12526855e-02 -3.40324305e-02
  -6.31031692e-02 -6.86215535e-02 -7.80073777e-02  5.69577739e-02
   7.86946341e-02 -1.13371760e-02  5.89255020e-02  5.23968562e-02
  -4.36289646e-02 -3.73195931e-02 -3.14054191e-02  2.20817849e-02
   5.76135889e-02  7.13688210e-02  1.05884373e-02  2.52598524e-03
   5.09350523e-02 -6.46241903e-02 -4.78661992e-02  4.45270762e-02
   5.19309118e-02  4.31544632e-02  7.45955780e-02 -6.70969412e-02
  -3.73480022e-02 -3.77265364e-03  5.32613173e-02  2.60672197e-02
  -6.61805272e-03  5.84493503e-02 -6.21286593e-02  4.77471948e-03
   5.53413257e-02  3.67999524e-02 -8.47251713e-03 -9.40369070e-03
  -8.50146264e-03  4.65754643e-02  1.75851658e-02 -5.25886714e-02
   7.42151588e-03  4.17204127e-02 -6.89156353e-04 -3.32048871e-02
  -4.41017672e-02 -5.20043224e-02 -6.49633631e-02  5.05129024e-02
   3.33066210e-02 -8.60552490e-03  7.76633099e-02  7.78640136e-02
   1.28206909e-02 -8.04995000e-02  6.18608966e-02 -5.22161573e-02
  -3.74651700e-02  3.19979861e-02  6.50498196e-02  5.98822609e-02
  -7.82665610e-03 -2.88090371e-02  6.07283190e-02  6.33183196e-02
  -3.57248969e-02 -4.99597043e-02  6.41326830e-02 -6.93308413e-02
  -1.41509175e-02 -6.31554052e-02 -6.49306029e-02  2.83408985e-02
  -5.43357283e-02 -3.60595100e-02  7.07364455e-02  6.16284683e-02
  -3.94998491e-03 -7.71853253e-02 -5.47009930e-02  5.01359254e-03
  -3.76224518e-04 -6.50737435e-03 -6.08010292e-02  7.73736462e-02
   5.39025888e-02 -1.00785494e-03  1.33285150e-02  1.98453516e-02
   4.37680259e-02  2.20483914e-02  8.01700428e-02  7.26751611e-02]
 [ 6.90468624e-02 -6.50420934e-02  2.35236138e-02 -5.02002165e-02
  -7.46939927e-02 -1.60018653e-02  2.07450092e-02  5.65867200e-02
  -7.24068508e-02 -5.58192506e-02 -7.36204460e-02 -5.93533218e-02
   4.84967753e-02 -1.06016546e-03  6.19012862e-03  2.91712582e-03
  -7.49324337e-02  1.53400451e-02 -8.04732740e-03  4.56791744e-02
   7.31158331e-02 -5.06842732e-02 -7.73209259e-02  8.38559121e-03
   5.00301346e-02 -9.63056833e-03  6.54782131e-02 -1.74667686e-03
   7.99051598e-02 -3.03543806e-02 -8.11069980e-02  4.98213395e-02
   5.77032641e-02 -5.96184880e-02 -4.96094301e-02 -6.04606532e-02
  -2.50717252e-03  7.95673355e-02  1.80934370e-02 -3.22426111e-02
   7.67803937e-03 -4.02551666e-02 -3.95654254e-02  6.36823103e-02
  -7.95231760e-03  4.35835421e-02 -1.06984526e-02  4.12717015e-02
   3.03940028e-02  8.10503736e-02  5.14201596e-02  1.13704205e-02
   1.85136795e-02  6.54510036e-02  1.02538243e-02 -7.31384531e-02
   1.54381916e-02  3.62456962e-02 -7.56430924e-02 -1.94802992e-02
   6.28707558e-03 -6.27118051e-02 -6.66491836e-02 -5.28049320e-02
  -5.06160408e-03  7.39298537e-02  7.82305971e-02 -4.83043641e-02
   5.28506711e-02 -3.28705832e-02  8.10867473e-02 -3.26800048e-02
  -6.44100159e-02  3.16620767e-02 -3.81709598e-02 -2.54585817e-02
  -6.75865039e-02  7.49443993e-02  1.28515363e-02  7.78598115e-02
  -8.11348110e-03  3.86062264e-02 -6.10020086e-02  5.02165630e-02
  -5.09312004e-02  2.95572951e-02 -5.59783056e-02 -2.83365846e-02
   6.15062565e-03  7.51505867e-02 -1.95850953e-02  6.01157174e-02
   7.30455890e-02  5.46047837e-03 -5.41501194e-02 -3.08443159e-02
   3.50223556e-02  5.32028303e-02 -2.35465281e-02 -1.08877122e-02
  -2.83172466e-02  1.44262761e-02 -5.74992225e-02  3.54744270e-02
  -4.75062542e-02  7.33175129e-03 -5.08178622e-02  6.76878020e-02
  -2.72634439e-02  3.47728580e-02 -6.53904676e-02  3.55841368e-02
   6.79439977e-02 -3.90730910e-02  4.10884544e-02  2.88073346e-02
  -3.49266529e-02  3.68254781e-02 -5.32816947e-02  7.56867006e-02
   6.39358237e-02 -2.05003582e-02 -4.68177721e-02  3.46807837e-02
  -3.73972729e-02  7.30555728e-02  8.27644765e-03  7.34665468e-02]
 [-4.07120325e-02 -4.77323197e-02 -6.04851171e-02  4.12831679e-02
  -5.86769655e-02  2.01570615e-02  4.50521335e-02  7.87083432e-02
   2.89088264e-02 -4.28702831e-02 -4.83066291e-02 -6.27848804e-02
  -5.76741174e-02 -5.68811521e-02  6.91939518e-02  7.62758031e-02
   3.61461863e-02  8.62339139e-03  3.29225436e-02 -1.17936134e-02
   2.52258629e-02 -8.10300857e-02 -5.47195971e-02 -1.11193880e-02
   2.66220421e-03  7.28481635e-02  5.60602769e-02  2.83730775e-02
  -5.71767762e-02 -4.99021932e-02 -7.41940588e-02  6.86099604e-02
   8.04863945e-02 -7.44185150e-02 -4.53695096e-02 -6.01777732e-02
  -6.62657022e-02  7.06132576e-02 -1.74543038e-02 -1.72944367e-03
   5.89331463e-02 -4.20788638e-02 -4.90877777e-02 -6.49658963e-02
   1.25273690e-02 -1.48297846e-02  7.96826258e-02  2.34633684e-02
  -5.95127083e-02 -3.84273082e-02  2.50815973e-02 -5.08730337e-02
  -1.82479620e-04  4.09569740e-02  4.62706760e-02 -2.74587423e-02
   7.44827837e-03 -1.76953971e-02  8.06829408e-02 -9.19722021e-03
  -7.82057643e-04  4.08573970e-02 -1.80764943e-02 -6.39398247e-02
   7.34373927e-04 -1.83252022e-02  6.26780912e-02  1.21150017e-02
  -7.72873685e-02 -3.69862765e-02  4.49576452e-02 -7.78321102e-02
   1.23461485e-02 -5.38816676e-02  2.08053812e-02 -7.23027736e-02
   5.09205237e-02 -4.32741269e-02 -1.13784596e-02  6.79841563e-02
  -5.01694866e-02 -3.77194136e-02  1.71862170e-02  3.01645398e-02
  -6.08929247e-02 -2.98909843e-03  1.61127299e-02  1.21765733e-02
   7.32483491e-02  3.20520997e-03  2.65941471e-02  9.52821225e-03
  -3.10633034e-02 -8.96349549e-04 -3.88414599e-02 -5.07454388e-02
   6.28828928e-02 -6.15210906e-02 -2.14500800e-02 -4.95104194e-02
  -5.64659387e-03 -6.98063523e-02  7.24718049e-02 -3.37313116e-02
   6.15332946e-02 -6.25610799e-02  4.39562276e-02  5.54258898e-02
  -2.85931267e-02  4.48406413e-02 -4.47393097e-02 -2.24441662e-02
  -2.61826850e-02  3.74348685e-02 -8.61147791e-03 -5.77752963e-02
  -4.18978967e-02 -1.89040601e-02 -3.78002636e-02  2.81013325e-02
   5.23576885e-03 -5.71749210e-02  7.01894835e-02 -3.50730866e-03
   5.23439273e-02  4.35044095e-02  3.94766629e-02 -3.70806456e-03]
 [-6.15082085e-02  3.27569321e-02  4.15945351e-02 -2.09852867e-02
   6.82215318e-02 -5.47852665e-02 -6.85111880e-02  7.71292225e-02
   1.96689442e-02 -1.62618682e-02  2.64389366e-02  2.55915746e-02
  -1.62486359e-02 -6.72484338e-02  4.70140055e-02  1.65157765e-02
  -6.46858215e-02 -4.02146727e-02  5.43908104e-02  4.03527692e-02
   3.36463824e-02  1.23924464e-02 -6.40745908e-02 -4.45602201e-02
  -2.37665400e-02 -3.41098793e-02  3.87230888e-02 -5.74968755e-04
   7.36388564e-03  7.60375634e-02  7.91866854e-02  7.55010769e-02
  -5.45159653e-02  4.60064933e-02 -6.95503876e-02 -2.86427885e-02
  -2.31490098e-02 -2.94708535e-02 -5.24834692e-02  2.62822956e-02
  -5.82233816e-03  5.58304787e-03  1.72564536e-02  1.28410161e-02
   7.41070509e-03  9.82616097e-03 -2.13587843e-02  1.13747492e-02
  -3.77348438e-02  6.64199218e-02 -2.00417489e-02 -3.19635421e-02
   2.24734023e-02 -1.68899745e-02  3.88408229e-02  6.01335391e-02
  -6.42791912e-02 -8.06036368e-02 -2.53758319e-02  3.56639028e-02
  -5.27257994e-02  1.76861882e-02  1.01955384e-02  5.57455495e-02
  -5.82803935e-02  4.45076749e-02 -1.35434642e-02 -5.35597205e-02
   1.85878798e-02 -6.39021546e-02  5.31118438e-02  1.87875330e-03
   4.72746566e-02  7.22552761e-02 -2.00146958e-02 -5.13386615e-02
  -7.33807087e-02 -7.23886937e-02  2.99820006e-02  7.97958598e-02
  -1.52731985e-02 -5.41828051e-02 -2.22369581e-02  3.76770049e-02
  -6.29243106e-02  1.18406639e-02  3.06272656e-02 -8.87718797e-03
  -4.54421416e-02  5.22387102e-02 -2.89859250e-02 -3.46720815e-02
  -2.47542225e-02 -4.31850925e-02  5.02844080e-02  8.09654817e-02
  -4.89278696e-02  4.99431565e-02 -5.62684238e-03  6.05100021e-02
   7.68981054e-02 -3.14616933e-02 -1.48549825e-02  3.32640037e-02
   4.92903069e-02 -3.56941111e-02  1.12114772e-02 -1.70454755e-02
   2.36809701e-02  2.75872424e-02 -6.20547310e-02 -3.29936929e-02
   2.74457633e-02  2.04568356e-03 -1.48067400e-02 -6.54185489e-02
  -6.40822724e-02 -4.42926362e-02  5.60102090e-02  3.51098850e-02
  -3.48959230e-02  3.20117921e-02  1.40821710e-02  6.89408854e-02
  -7.20809773e-02  5.52906767e-02 -7.84998834e-02 -1.62553489e-02]
 [ 2.21648812e-02  3.94192860e-02 -5.61201908e-02 -6.89427629e-02
   1.70696676e-02 -7.70904720e-02  7.45291933e-02 -1.95182860e-04
  -1.29915774e-04  7.92652145e-02  5.08762822e-02 -2.40832232e-02
  -6.86584860e-02  6.30701333e-03  6.44639134e-04  7.61758611e-02
   3.01473066e-02 -7.89038241e-02 -3.42189856e-02 -4.87281457e-02
   4.89547923e-02  7.05656484e-02  5.69970906e-03 -5.60516939e-02
   6.92654029e-02  2.35000402e-02 -4.32247669e-03  5.64521179e-02
  -4.97315526e-02 -6.97376803e-02  2.82258317e-02 -2.35574730e-02
  -7.38494098e-02  2.06406340e-02 -5.85980266e-02 -2.12691315e-02
  -2.79532224e-02  9.89536941e-03  3.53984907e-02  4.94331643e-02
   5.95201030e-02 -4.26418036e-02  6.32325336e-02  4.52157632e-02
  -3.12327072e-02 -5.83364815e-03 -3.19375694e-02  4.87612113e-02
   2.60333195e-02 -2.89890915e-03  4.87373546e-02 -7.97142908e-02
   2.40684077e-02  7.05973431e-02  2.63080001e-02  6.43708035e-02
   4.99478355e-02  3.62058207e-02  2.37235650e-02 -6.49417266e-02
   5.76000735e-02  3.13126892e-02  5.42082861e-02 -5.92929870e-03
  -1.58617795e-02 -7.76881352e-02 -6.72756657e-02  2.33846828e-02
   2.06682160e-02 -7.36527368e-02  5.44927940e-02 -2.10257992e-02
  -2.30787136e-02  3.79404873e-02 -4.41362076e-02 -7.31190592e-02
  -6.10254705e-03  1.28137320e-03 -3.36997136e-02  7.07652643e-02
  -5.85710481e-02  5.96071258e-02 -5.24415225e-02 -6.85823113e-02
   4.09092233e-02 -5.80382608e-02  4.26769257e-03  3.79344895e-02
  -2.11719200e-02 -6.15910366e-02 -2.29406580e-02 -2.88226716e-02
  -4.71306071e-02  6.18403479e-02 -8.02625120e-02 -8.61088187e-03
   6.55731633e-02 -5.11167534e-02  5.69929853e-02 -5.56708872e-03
   2.29655430e-02 -1.51346400e-02  6.54578432e-02  2.94403210e-02
   2.85454839e-03 -5.94891533e-02 -1.91369504e-02  8.09393078e-03
   9.37294215e-03  5.98393306e-02 -4.22366261e-02 -5.63070178e-02
   3.95606905e-02  7.29595795e-02  5.65629229e-02  3.42842713e-02
  -7.52826631e-02 -6.74872026e-02 -3.92771885e-02 -5.86648583e-02
  -4.59500812e-02 -6.02352247e-02  4.60483655e-02  1.20574906e-02
  -2.73192152e-02 -6.16523176e-02  2.98937410e-03 -5.83055168e-02]
 [-2.63038017e-02 -7.78570771e-02  5.36473095e-03 -5.10077029e-02
  -4.71369885e-02  5.59989139e-02  2.43064091e-02 -7.76353255e-02
  -2.71797106e-02  6.59179613e-02  4.34935763e-02  4.27753478e-03
  -7.24722296e-02 -1.29594281e-02 -5.71211986e-02  6.49626926e-02
   3.45384553e-02 -5.16880825e-02 -6.81714937e-02 -5.04576080e-02
   2.01272964e-03  1.09621286e-02  5.19198552e-02  5.40887043e-02
   1.48885772e-02  1.22542903e-02 -4.96827401e-02  9.60850716e-03
   6.80084303e-02  2.20048428e-03  3.87900993e-02  4.91674915e-02
  -7.41587803e-02  5.93244061e-02 -1.63974315e-02 -7.53218681e-02
  -8.18207115e-03 -6.94084466e-02  6.91822246e-02  7.91798010e-02
   8.02916363e-02 -4.76631671e-02  5.23460135e-02  1.28160939e-02
  -4.02017906e-02 -5.29582240e-02 -3.83783467e-02  6.80863038e-02
  -5.11530787e-03 -5.39129563e-02  4.05289009e-02 -9.33937728e-03
  -7.31050223e-02 -5.22892177e-03 -1.72143579e-02 -6.59559369e-02
  -8.37220997e-03 -1.96278095e-03 -5.99523485e-02 -3.80117483e-02
  -2.92096324e-02 -2.07084566e-02 -1.95243545e-02 -9.39013809e-03
  -7.97358155e-02  7.74423778e-03  2.35897899e-02  2.10041776e-02
   7.69139305e-02  4.14779633e-02 -1.51818991e-03 -3.46695483e-02
   7.71748945e-02 -6.95912093e-02 -3.42475623e-03  3.58556286e-02
   6.70274571e-02  1.98212191e-02  7.14086816e-02 -4.01840992e-02
  -8.99132341e-03  4.28667814e-02  2.42070854e-03 -7.41139054e-04
  -4.95579503e-02  5.39732650e-02  6.71723485e-03 -5.12106195e-02
  -4.81369160e-02  3.69547382e-02  6.11706004e-02  6.39449134e-02
   1.51680112e-02  2.95017958e-02 -4.99544255e-02  3.90647352e-03
  -3.49821895e-03 -7.36387372e-02  1.07921436e-02  2.40930691e-02
   1.81997195e-02 -3.30236480e-02 -1.78354979e-02  2.64803618e-02
  -1.70754865e-02  6.48658797e-02 -6.35027885e-04  3.66679132e-02
  -4.96583357e-02  6.17909804e-02  4.25993353e-02  4.28391472e-02
   7.57805929e-02  3.03804874e-02 -4.40727584e-02 -1.81317478e-02
   1.82163268e-02  4.93688658e-02 -6.30954579e-02 -7.32314140e-02
   5.30002043e-02 -3.78127582e-02  2.80864462e-02 -6.63868561e-02
  -5.55701703e-02  6.68279082e-03  7.58415833e-02 -3.98187973e-02]
 [-6.73670918e-02 -7.16821253e-02 -4.66532037e-02 -5.54316342e-02
   1.38047040e-02 -3.93778086e-03  1.87388137e-02 -3.83203514e-02
  -2.49904580e-02 -2.00156234e-02 -5.59219532e-02  1.16669536e-02
  -8.12247396e-04 -1.52545571e-02  3.71382385e-03 -1.23334825e-02
  -7.01204985e-02 -4.20816094e-02 -2.21750550e-02 -7.60294348e-02
  -6.00252710e-02 -1.51869282e-02  5.34356311e-02  7.15425387e-02
   7.47163817e-02  4.84073982e-02  1.77349001e-02  2.74135917e-03
   6.35267273e-02  3.63399759e-02  5.68867549e-02 -7.68342540e-02
   5.25339767e-02 -6.27200827e-02  3.48818228e-02  6.41103759e-02
  -5.76167814e-02 -2.92740464e-02 -6.59838840e-02  4.40429226e-02
  -6.43192828e-02  7.56062791e-02 -5.26885130e-02 -4.81399707e-02
  -3.71300392e-02 -1.94020793e-02 -4.14353646e-02  6.85722157e-02
   7.65135661e-02 -1.43344775e-02  3.75499576e-03 -4.59579714e-02
  -6.19841814e-02  1.62959397e-02 -9.88802314e-03  2.48149261e-02
  -3.26692350e-02  3.38648260e-02  6.07470796e-02 -8.46868753e-03
  -7.32095391e-02 -1.00305676e-03 -4.62391712e-02 -4.43058610e-02
   6.21404573e-02 -3.78740579e-03  4.69916239e-02 -2.94906162e-02
  -7.16507807e-02 -2.33936571e-02 -7.69258589e-02  3.24063301e-02
  -4.98244315e-02 -1.98203251e-02 -1.62633136e-02  5.80155030e-02
  -5.00205234e-02 -3.79303172e-02  4.37026247e-02 -4.18098271e-03
  -7.71183968e-02  5.61052039e-02 -7.90786371e-02 -4.66470346e-02
   6.66876957e-02 -7.86111578e-02  5.08179441e-02 -3.92615236e-02
  -2.71762870e-02  6.64823502e-03 -2.79350840e-02  7.37365559e-02
  -5.64138591e-03 -5.01491241e-02  4.24209386e-02  7.84989521e-02
  -1.35540366e-02 -7.11975098e-02 -1.84583142e-02 -3.23133916e-02
  -3.96100208e-02 -8.06765407e-02  7.48404637e-02  1.04302838e-02
   3.19802687e-02 -2.72415131e-02  6.99133426e-03  4.81929705e-02
   7.11250529e-02 -2.74071284e-02  1.91975757e-02  3.90687585e-03
   6.79880455e-02 -5.73149882e-02 -7.67352805e-02  6.02604225e-02
   4.74251136e-02  3.05866525e-02 -7.73111954e-02 -7.89296404e-02
   5.10807261e-02  7.20775127e-03  5.65060601e-02  9.74704325e-03
  -3.80621441e-02 -7.39068985e-02  6.41278848e-02  7.12651983e-02]
 [ 4.79676351e-02 -3.31662297e-02  6.12111762e-02  5.40359095e-02
  -1.17976218e-02 -5.12438267e-02 -6.63623512e-02 -5.77650480e-02
   5.74669167e-02 -4.29794490e-02 -3.40559445e-02 -1.92769207e-02
   2.90955529e-02  6.07087389e-02 -1.00568831e-02  4.54825535e-02
   4.71102074e-02  8.05916265e-02  7.55018815e-02  3.23684439e-02
   1.04444772e-02 -4.08320650e-02  3.97761539e-02  5.06509915e-02
   6.18756786e-02  6.16242066e-02  4.31757122e-02  7.16914162e-02
   1.81067213e-02  7.13733956e-02 -1.30379200e-02 -5.20878658e-02
  -3.90894711e-02  4.49616686e-02  3.68324965e-02  4.93890122e-02
   4.41436544e-02  1.93156376e-02 -5.47621772e-02  7.23702833e-02
  -9.60444659e-03  5.08645102e-02  7.09637478e-02 -7.51034394e-02
  -7.69428015e-02  4.47698459e-02  1.29157007e-02 -4.02629972e-02
   6.30303845e-02 -2.46730037e-02 -5.71939498e-02 -3.74224521e-02
  -6.02109954e-02 -7.22262263e-02  3.25391814e-02 -3.05572152e-03
  -1.16198212e-02 -4.09867540e-02 -6.13478571e-02  7.53868297e-02
   4.91832122e-02 -2.95675658e-02 -7.63337836e-02 -6.35449961e-02
  -4.00115624e-02 -7.98404142e-02 -3.64238769e-03 -1.09943226e-02
   5.58586344e-02  2.33784169e-02 -2.97797248e-02 -3.34751606e-03
  -4.47289087e-02 -5.99021055e-02 -7.52917677e-03 -7.45528191e-03
   1.64628774e-03 -2.67313495e-02  1.60436556e-02 -4.79060151e-02
  -7.94824064e-02 -8.92557204e-04 -3.07788178e-02 -7.15463758e-02
   6.34320751e-02 -1.83542669e-02 -2.08604746e-02 -2.79473625e-02
  -5.53299896e-02 -2.90531479e-02 -8.47605616e-03  7.21344873e-02
  -3.91648933e-02  6.66059777e-02 -5.66202030e-02  5.41995838e-02
  -2.71996669e-02 -3.24458964e-02  6.03272393e-02  6.10868260e-02
   2.29179859e-05 -4.68258373e-02 -5.94789051e-02  4.79972586e-02
   4.97031584e-02 -7.84154311e-02 -2.64052674e-02  2.79487520e-02
  -2.71517672e-02 -1.29996464e-02  5.04743978e-02 -7.74404705e-02
   3.54634225e-02  5.55504039e-02 -2.66582929e-02 -5.42960688e-02
   7.41807446e-02 -3.11247222e-02  9.20077413e-03 -2.35520005e-02
   2.96634212e-02 -6.67162091e-02 -7.26385415e-03  1.02206618e-02
  -8.70875269e-03  4.73181829e-02 -3.19591127e-02  7.16243014e-02]
 [-2.72733457e-02  3.74912024e-02 -7.33455271e-02  1.97496414e-02
   5.36269471e-02 -5.18898815e-02  5.92072830e-02  6.71312883e-02
  -5.98948337e-02 -8.04051906e-02  3.35088819e-02 -7.22648501e-02
   4.77384105e-02  1.34241059e-02  5.32894507e-02  7.79026225e-02
  -2.00316571e-02  2.73626298e-02  4.06019613e-02  4.54659015e-03
  -3.34456861e-02  2.38545313e-02 -1.30947381e-02 -3.47627588e-02
  -6.88056126e-02 -2.41552182e-02  2.36808509e-02  2.75450125e-02
  -1.10618770e-03  2.85000503e-02  1.38828903e-02 -5.36454469e-02
  -4.11370508e-02  6.93200156e-02  6.53197095e-02  3.94550264e-02
   3.01457196e-03 -4.17952500e-02 -3.90927419e-02 -1.25070289e-02
  -5.09391725e-03  6.88107833e-02  2.63673663e-02  7.83373788e-02
  -5.79724535e-02  4.75868359e-02  4.30461094e-02 -8.82676989e-03
   4.38657030e-02  5.73575869e-02  3.76001298e-02 -4.73493449e-02
   7.39579424e-02 -7.33815357e-02 -5.53287342e-02 -4.72420566e-02
   7.10775778e-02  1.18623450e-02 -1.92611404e-02 -5.13517335e-02
  -8.36247951e-03  5.28976396e-02 -3.18460204e-02 -1.88258365e-02
  -1.63861141e-02  2.98981369e-02  7.51874521e-02  5.39580956e-02
   4.20730636e-02  4.23712432e-02 -6.19205609e-02 -6.20012581e-02
   2.11253911e-02 -6.82853311e-02  3.65525037e-02 -6.04893118e-02
   7.31731281e-02 -4.85867448e-02  3.86601463e-02 -1.64500698e-02
   7.53378943e-02  2.44325846e-02  6.43217936e-02 -9.35219228e-04
  -3.52890715e-02 -6.10592887e-02  5.09411618e-02 -3.84121686e-02
   6.08194694e-02  1.34506002e-02  2.44461074e-02 -3.04630809e-02
   3.57928127e-02  3.28426808e-02  2.36294121e-02 -5.12722135e-03
   3.14161330e-02 -2.81807370e-02  5.76082990e-02  6.26191497e-03
   2.96937451e-02 -2.99410261e-02 -4.91677225e-02 -1.97095759e-02
  -5.56789301e-02  4.08213511e-02  2.31215879e-02 -8.06706250e-02
  -1.06139258e-02  1.66294649e-02 -5.28591350e-02  3.41032296e-02
   5.83049729e-02  2.19127908e-02 -7.35523328e-02  5.26620448e-03
   4.67887446e-02  7.44557381e-03  6.58262148e-02  3.87533158e-02
   8.74940306e-03 -5.15607223e-02 -5.87272830e-02  4.17265967e-02
   5.03222272e-02  1.41507015e-02  2.32249275e-02 -2.73477584e-02]
 [-2.69495063e-02  7.91252777e-02 -6.45288527e-02  6.48867711e-02
  -4.38106470e-02  1.73381194e-02  7.23939165e-02  1.23690292e-02
   1.62455812e-02  2.15343386e-03 -5.46493605e-02  1.49819031e-02
  -7.31851906e-03 -5.93773574e-02  7.85854235e-02 -6.33153170e-02
   4.61846218e-02  3.06533724e-02  5.77489212e-02  1.55563504e-02
   1.58628970e-02 -4.37830314e-02 -1.85979158e-02  3.74953225e-02
  -4.98141646e-02  1.68445706e-02  1.08498335e-02 -1.07185617e-02
   6.33739904e-02 -5.46693802e-03 -7.41243213e-02  1.53178275e-02
   2.60274187e-02 -6.02327697e-02  2.28937045e-02 -4.02368717e-02
   2.07727775e-02 -3.97793651e-02 -1.20001659e-02 -3.18190455e-03
   3.19699198e-02  4.37146351e-02  1.51645318e-02 -7.26031363e-02
   6.75783977e-02  1.64296478e-02 -3.42974626e-02  5.45954630e-02
  -6.28473312e-02 -1.27913207e-02  4.29993272e-02 -4.11651284e-02
  -2.35624984e-02  4.54184934e-02  2.29098871e-02 -5.45427874e-02
  -5.79549707e-02 -1.66529045e-02 -6.07544594e-02 -2.25087963e-02
  -6.41980693e-02 -7.44717568e-03 -4.96529788e-02 -4.64062542e-02
   4.31298241e-02  7.94374570e-02 -4.26789299e-02 -1.87601037e-02
   4.89236042e-02 -2.25292370e-02 -2.35515535e-02 -3.66006047e-03
   7.88900927e-02 -4.28409874e-02  5.78794107e-02 -2.55699120e-02
  -2.12063603e-02  1.96051076e-02 -7.75669068e-02  5.84166721e-02
   3.72638032e-02  3.02778184e-02 -5.31882718e-02 -4.50083651e-02
   6.64471313e-02 -7.56450295e-02 -2.26037465e-02 -6.47232383e-02
  -2.20319107e-02 -4.37454954e-02 -6.34513199e-02 -4.05182615e-02
  -4.55601253e-02 -7.01802745e-02  6.53964803e-02 -4.79047596e-02
   7.21371695e-02  2.86736488e-02  6.91992417e-02 -2.85305828e-03
  -4.82114628e-02  9.19611752e-03  6.00103363e-02 -4.17311043e-02
   6.41083941e-02  5.42405024e-02 -8.10635835e-02  2.15020031e-02
   1.59550607e-02  2.37236470e-02 -7.92025179e-02  4.01779860e-02
   2.57150829e-03 -2.27325372e-02 -2.32920162e-02  1.23703256e-02
   5.50520346e-02  5.82790375e-03 -7.94007555e-02 -7.86501616e-02
  -2.45223194e-03 -5.49284481e-02 -7.04817027e-02 -7.22768903e-03
  -6.73150942e-02 -6.35785908e-02 -5.88554218e-02  5.97545579e-02]
 [-5.52878901e-02  3.97407487e-02 -3.38927694e-02 -2.09955722e-02
   5.01908585e-02 -7.89121389e-02  4.62097153e-02  2.61500478e-03
  -2.90248543e-02  3.56451869e-02  4.39885631e-02 -7.65273795e-02
  -4.05878238e-02 -1.39482543e-02  7.77739659e-02 -1.75241902e-02
   7.46266469e-02  3.43625993e-03  5.14574349e-04 -5.12117222e-02
  -6.45895749e-02 -5.97700998e-02  4.38264310e-02  6.36309311e-02
   4.07376587e-02  7.41935894e-02 -2.88062543e-02 -4.28366922e-02
  -4.21968102e-02  1.48561820e-02  5.60990348e-02 -7.00268894e-03
   3.17027271e-02  6.97566643e-02 -5.41771725e-02  5.45579419e-02
   1.80079415e-02  3.87836397e-02  3.16420421e-02 -1.35967955e-02
  -1.24689490e-02 -9.10418481e-03 -3.28521170e-02 -1.48117542e-03
   6.44510016e-02 -6.60787225e-02  5.56202009e-02 -3.49913761e-02
  -3.92146297e-02  6.24763593e-02 -3.30936164e-03 -1.61037967e-02
  -3.75945643e-02 -1.41728446e-02 -1.93477385e-02 -7.77359977e-02
   6.59879968e-02 -3.47219370e-02 -5.19973040e-02  5.15926257e-02
  -4.44474593e-02  6.26850054e-02 -5.44881821e-03 -6.01593405e-02
  -7.58263841e-02  2.46942937e-02  4.70020398e-02  5.28586581e-02
   7.83607438e-02 -5.12278713e-02 -4.86039147e-02 -8.26870650e-03
   1.28789991e-02 -6.77336156e-02 -7.27153718e-02  6.41222373e-02
   5.32782897e-02 -2.91704126e-02 -6.90923035e-02 -5.46476766e-02
   3.17088962e-02 -1.85813382e-02  7.38599077e-02 -5.81245497e-02
   1.36077404e-02  3.87008712e-02  5.90420589e-02  5.68101183e-02
   1.91790685e-02  7.03842565e-02 -2.95930132e-02 -4.38869186e-02
   3.85957658e-02  2.06009522e-02  1.54483989e-02 -2.46002115e-02
  -6.32650182e-02  3.50178108e-02 -7.54578710e-02 -2.82293148e-02
   7.61148259e-02  7.52263889e-02  7.92236701e-02 -6.19660839e-02
  -7.20154494e-03  6.27196953e-02  4.59025428e-02  4.02824506e-02
  -3.64044830e-02  6.98243752e-02  3.56593430e-02 -6.59783185e-02
  -6.43712431e-02 -5.65869957e-02  1.91047713e-02  1.69841498e-02
   3.31805572e-02  6.10238239e-02  1.37953237e-02 -3.21441814e-02
  -1.90627277e-02  6.14716783e-02 -7.25375190e-02 -2.41762958e-02
  -8.09364915e-02  4.22238261e-02  6.25972673e-02  5.63023910e-02]
 [-7.81550258e-02  7.55650029e-02  3.35564315e-02  1.83454484e-01
  -4.78091501e-02  1.95833668e-01  7.56188110e-02 -3.38422740e-03
  -5.90214655e-02  1.91216931e-01 -5.85224926e-02  7.99444616e-02
   8.48606974e-03 -4.87444587e-02  1.42676085e-01  5.08154556e-02
  -3.71064320e-02  8.03036764e-02  5.13395742e-02  2.87638791e-03
   4.66141365e-02  5.29064722e-02 -4.27463241e-02 -5.20347618e-02
  -6.64034262e-02  1.25411510e-01 -1.97175257e-02 -2.23266296e-02
  -2.82717217e-02  6.89170659e-02 -4.28663538e-04  1.34911746e-01
  -1.44473061e-01  2.76626274e-02 -7.82696158e-02  1.01197876e-01
   7.90615194e-03 -3.90507989e-02 -1.00312471e-01  1.38344020e-01
   6.56161532e-02  1.16769865e-01  5.08382991e-02  3.81044596e-02
   8.54600519e-02  5.83355464e-02  5.19817919e-02 -3.41594132e-04
  -8.25431347e-02 -1.84042901e-01 -6.80830181e-02  1.52368367e-01
  -3.79829481e-02  4.58091274e-02  5.80358207e-02 -2.73432359e-02
   5.79454154e-02  5.56728765e-02 -1.30209342e-01  9.71677750e-02
   8.74911174e-02  6.57094494e-02 -1.25521570e-01  7.97394812e-02
   7.90453777e-02 -4.04938385e-02  2.15019792e-01  3.60971666e-03
   4.36307862e-02  5.63053414e-02  8.39305297e-02 -5.45092523e-02
  -3.77376489e-02  4.61880527e-02 -7.40892142e-02 -9.48188752e-02
   3.54598835e-02 -1.17195189e-01 -4.23228042e-03  4.06279899e-02
   4.93248552e-03 -3.83396596e-02 -9.73451138e-03  3.67793888e-02
  -6.63144365e-02  1.10992670e-01  4.94905449e-02  1.06495051e-02
   1.38337789e-02 -7.46644884e-02  2.10777782e-02 -1.52307853e-01
  -8.66289735e-02  2.69348323e-02  5.91887534e-03  1.25057930e-02
  -3.02972924e-03  4.22446243e-02  2.89737582e-02 -9.78939757e-02
   3.02582216e-02 -9.78918672e-02  5.92775643e-02  1.47072934e-02
   1.25878423e-01  5.23222126e-02  2.94701941e-02  3.45642604e-02
  -1.98207736e-01 -1.27046481e-01  9.46970209e-02  1.91043392e-01
   3.50944102e-02  1.00705072e-01 -1.87073220e-02  1.27515644e-01
   7.89937079e-02 -4.69045043e-02 -8.78351275e-03 -3.06258351e-03
   7.90017098e-02 -4.32989486e-02  1.48980170e-02 -1.53559223e-02
   2.30140798e-03  1.33065179e-01  2.24169740e-03  1.43707827e-01]
 [-4.16261554e-02 -6.86848983e-02  5.88815697e-02  1.85618669e-01
   4.11551408e-02  1.56702146e-01 -3.36742513e-02  1.28923804e-01
  -9.57834199e-02  2.34774277e-01 -1.23108976e-01  9.78640001e-03
   7.06540421e-02 -1.38826028e-01  1.51664168e-01  1.57298874e-02
   2.65627280e-02  1.93822742e-01  1.98620930e-02 -1.23374853e-02
   1.19548133e-02 -2.57189050e-02 -1.73747674e-01 -1.10105351e-02
  -2.49958932e-02  3.66210677e-02 -4.48600799e-02 -7.96994343e-02
   6.89167455e-02 -3.35296988e-02  3.94477881e-02  1.90621205e-02
  -1.25923783e-01 -4.38553132e-02 -2.24273633e-02  1.82511017e-01
  -1.74032971e-02 -6.64983913e-02 -7.77586550e-02  1.76991105e-01
   5.31827882e-02 -5.16404621e-02 -1.16612101e-02  3.76664624e-02
   1.93873346e-01  2.82819588e-02  5.40384166e-02  1.41952038e-02
  -1.16557935e-02 -2.52177507e-01  7.30297044e-02  1.93081677e-01
   4.35341969e-02  5.08359671e-02  2.91808713e-02 -4.03477214e-02
   8.68123323e-02  4.62549552e-02 -6.38182312e-02  7.33370930e-02
   6.07625023e-02  7.89111629e-02 -1.19760390e-02  4.36330885e-02
   1.01112798e-02  3.94410789e-02  2.27599412e-01  1.53442081e-02
  -1.42346062e-02  3.45213488e-02  1.82914332e-01  4.72972915e-02
   9.80143622e-02 -2.48984266e-02 -6.09502010e-02 -7.39345923e-02
  -7.08480179e-03 -9.74816829e-03  5.62642440e-02  3.43173034e-02
  -2.36793794e-02  9.69841406e-02  3.79755870e-02  2.24926814e-01
  -4.57980037e-02  1.84972718e-01  9.60557163e-02  1.81106865e-01
  -8.94940551e-03 -7.55594522e-02  3.65923457e-02 -6.15088418e-02
  -8.35590810e-02 -6.28624111e-03 -3.73884737e-02  6.04313165e-02
  -5.07717654e-02 -4.39403811e-03 -3.91443297e-02 -1.02097519e-01
  -2.50234939e-02 -1.48322005e-02  1.43039390e-01 -1.09750055e-01
   2.70549562e-02  1.62661552e-01  1.01199351e-01 -3.07196938e-02
  -1.36626497e-01 -1.30248263e-01  1.07550181e-01  1.67343959e-01
  -2.21000612e-02  2.06807613e-01 -1.28610432e-02  1.77062124e-01
   5.79269081e-02  3.34140100e-02 -8.92724693e-02 -4.90433797e-02
   1.54268116e-01 -2.72350777e-02 -3.02516371e-02 -3.09991576e-02
  -2.52604280e-02  3.02470364e-02 -4.63320687e-03  1.55868724e-01]
 [-6.36657327e-03  6.44698143e-02  1.61343262e-01  4.52945307e-02
   9.51152593e-02 -6.83553219e-02 -5.11279367e-02 -5.47677279e-02
  -4.01840396e-02  6.86784461e-03  1.08980738e-01  7.36183524e-02
   1.39590055e-02  1.11147501e-01 -1.17335916e-02 -2.25711782e-02
   1.20082619e-02  1.98562872e-02 -5.77684194e-02  5.63761368e-02
  -4.05370782e-04  1.44810043e-02 -2.85156332e-02  6.28551021e-02
  -6.22449592e-02 -3.38165611e-02  3.88154313e-02 -5.15802950e-03
   1.98807698e-02  6.98023289e-02 -4.14500870e-02 -3.11114211e-02
   9.60559212e-03 -4.03874787e-04  1.07512614e-02 -5.04268669e-02
  -5.21505699e-02  2.64156070e-02 -1.35997338e-02  1.34342149e-01
  -1.84276663e-02  4.59092064e-03  6.86752945e-02 -8.97318125e-04
   2.87519284e-02  4.19384725e-02  3.77247925e-03  5.41714728e-02
   5.72268702e-02 -1.16978399e-01 -1.79216117e-02  6.49517775e-03
   5.09278178e-02  2.56857127e-02  1.10702127e-01 -3.09159420e-03
   1.31287605e-01 -6.27075285e-02 -1.52232163e-02 -6.06125742e-02
   1.74906962e-02  5.17452434e-02  4.53583635e-02  6.41617626e-02
  -6.38437569e-02 -1.96567252e-02 -1.01852164e-01  3.36365476e-02
   4.85433935e-04  9.04931948e-02  8.42396356e-03  6.68584183e-02
   1.59710303e-01 -3.25374231e-02  3.04884696e-03  2.95256134e-02
   4.21834663e-02  1.53018415e-01 -2.68414114e-02  1.34156831e-02
   3.83463576e-02  2.87102479e-02  9.23547149e-03  7.63061866e-02
  -1.36260856e-02 -1.32857487e-02 -6.17085211e-02  2.29192153e-02
  -4.39424962e-02  5.78897297e-02 -9.84989181e-02  1.07791476e-01
  -1.12588987e-01 -3.98458689e-02  1.17796957e-02 -9.73441675e-02
  -6.37352690e-02  2.49330718e-02  4.28209826e-02 -2.06784019e-03
  -4.65281233e-02  6.76894467e-03 -1.30709812e-01 -2.28272043e-02
  -2.56753843e-02 -9.16788429e-02 -3.90304849e-02 -3.05771120e-02
   5.71008846e-02  2.83625000e-03 -4.60951217e-02 -1.05323918e-01
  -3.07821259e-02  1.42788165e-03  1.20697200e-01 -9.86346826e-02
  -1.11447498e-01 -5.24602551e-03 -9.16194618e-02  1.37261897e-02
   1.16732605e-01  8.41755569e-02 -6.05934300e-02  4.58114073e-02
  -4.70904186e-02 -3.27115953e-02  1.82649046e-02  5.02474420e-02]
 [ 1.12743825e-02 -6.77073821e-02 -5.69456369e-02  1.71422716e-02
  -5.96536063e-02 -3.00049204e-02 -2.00248566e-02 -2.58307159e-03
   8.24716389e-02 -3.00888717e-03 -3.36935259e-02  7.50728250e-02
  -6.57829568e-02  9.97663736e-02 -9.27230716e-03  5.49340099e-02
   3.00147440e-02 -6.57224208e-02 -5.93008194e-03  1.12985820e-03
  -8.15519318e-02 -4.11920100e-02 -2.62850896e-03  4.78094593e-02
  -6.38431162e-02  5.81768863e-02  2.02588961e-02  5.04267216e-03
   2.36487519e-02  7.34186405e-03 -1.87753525e-03  3.03523761e-04
   6.78575858e-02 -2.92952601e-02  5.85486507e-03 -3.94301675e-02
   1.89851550e-03 -2.83163246e-02  1.88774187e-02  2.86292415e-02
   1.87331680e-02 -5.85657954e-02  1.73419490e-02  7.03755543e-02
   9.87890828e-03 -6.21497743e-02 -1.65586770e-02 -3.23415287e-02
  -4.85331416e-02 -3.42294052e-02 -6.55769855e-02 -6.57632500e-02
   1.45300087e-02 -4.38811742e-02  1.96406506e-02  2.86797788e-02
   6.07109852e-02 -1.42312869e-02  9.03021470e-02 -2.86529213e-02
  -7.19738528e-02 -4.96075936e-02  1.97872855e-02  5.02681248e-02
  -5.47893494e-02 -2.92661786e-03 -3.95719847e-03 -4.69397753e-02
   5.67154884e-02 -5.38473018e-02 -4.65124808e-02 -5.86434156e-02
   7.37537071e-02  3.84294167e-02  7.11680353e-02 -4.15600352e-02
   4.49118838e-02  5.29683121e-02  4.62301485e-02  2.05738265e-02
   3.22048217e-02 -1.52051682e-02 -2.93988585e-02  7.75426254e-02
  -6.37888983e-02 -1.41645176e-02  4.46776040e-02 -1.97989549e-02
  -5.63909486e-02  8.37938935e-02 -1.04655370e-01  8.09656903e-02
   4.64616567e-02 -5.90848699e-02  3.70223224e-02 -4.65862565e-02
  -6.92384467e-02 -4.66837846e-02  4.99411710e-02 -1.33933648e-02
  -1.76608376e-02 -1.72974374e-02  5.43431751e-02  6.63524494e-02
  -4.44384143e-02 -1.91153884e-02 -5.85443191e-02  3.83644924e-02
   3.13701965e-02 -2.98833139e-02 -3.39706824e-03 -2.22384259e-02
   3.57953832e-02 -7.07087815e-02  5.26248887e-02 -6.75850511e-02
   2.17450093e-02  8.57304595e-03  7.25534977e-03 -1.88184269e-02
   6.31499961e-02  6.95119426e-02 -7.15029985e-02  7.67394230e-02
   6.60365969e-02 -5.90939671e-02  2.07805298e-02  7.93884620e-02]
 [-6.98005259e-02 -7.07886368e-03 -8.44923407e-03 -1.16568953e-02
   2.97694579e-02  4.46508899e-02  5.70568442e-03 -6.25815615e-02
  -6.73612356e-02  3.00390124e-02 -5.10018468e-02  7.74021372e-02
  -4.28359769e-02  7.68324956e-02 -4.95984852e-02 -1.65786445e-02
  -5.14383316e-02 -6.59352466e-02 -5.53391725e-02  1.39483288e-02
  -5.09093329e-02  5.63150868e-02 -3.47637832e-02 -5.09588569e-02
   2.26717591e-02 -7.60479048e-02  8.02058056e-02 -7.62515515e-02
  -5.96448667e-02  1.39992237e-02  1.37955174e-02  4.28095981e-02
  -2.15588212e-02 -5.89333922e-02 -6.90532774e-02 -7.95090348e-02
   6.97277486e-03 -1.09102428e-02  1.31936297e-02 -4.28850763e-02
  -9.54948366e-03  6.78597912e-02 -4.71161418e-02 -5.64729795e-02
  -3.69509459e-02 -5.62156253e-02 -7.34062940e-02  1.24518350e-02
  -2.60589197e-02 -7.69311637e-02 -1.45414770e-02  5.07287458e-02
   8.61308724e-03  2.98612565e-02  6.82847127e-02 -9.21463966e-03
  -3.53498012e-03  7.82056376e-02  2.09925771e-02 -2.32359134e-02
  -4.77824248e-02 -2.05380879e-02 -6.58393651e-03  4.91956696e-02
   6.87937215e-02 -4.01671752e-02  3.99353281e-02 -3.56616229e-02
  -4.66014445e-03  1.63644403e-02  2.13732570e-03 -2.70608366e-02
   6.61110356e-02 -3.77472974e-02 -6.28413334e-02 -3.09102610e-02
   4.49450538e-02  6.33847192e-02  4.80101779e-02 -5.59657812e-03
   1.79841518e-02  1.86694264e-02  4.29386422e-02 -7.00476319e-02
   4.32389677e-02 -7.33418167e-02 -2.50907466e-02 -6.27409071e-02
  -5.86697310e-02 -5.99267222e-02 -2.78117508e-03  5.41407838e-02
  -2.14298517e-02  4.07638028e-02 -1.50362626e-02 -1.71197951e-03
   1.31437778e-02  6.89405128e-02 -7.00973719e-02 -5.07911369e-02
   3.03552747e-02  6.69816211e-02  8.41630250e-03  7.12425634e-02
  -6.33460805e-02 -7.78480247e-02 -6.87032193e-02  4.40769568e-02
  -2.93121636e-02 -1.62970424e-02 -7.98251405e-02 -3.65873277e-02
  -4.64544445e-03  4.93693277e-02  2.66566053e-02  2.71378458e-03
   2.56352350e-02  8.92043114e-03 -1.65030956e-02  7.68444613e-02
   6.64131120e-02  5.38605824e-02  7.38058612e-02  4.11970988e-02
   7.11317435e-02 -2.69982964e-02  3.04049999e-03 -7.97897056e-02]
 [ 6.98809549e-02 -1.30645335e-02  6.11701384e-02 -6.86438456e-02
  -1.49587542e-03 -1.36266723e-02  1.31033808e-02 -7.94586539e-02
   7.11934045e-02 -3.51150259e-02 -6.22786656e-02  5.79757914e-02
   5.93791977e-02  4.15151939e-02  8.78749788e-03 -7.92443082e-02
  -2.80626193e-02 -3.17806378e-02  3.56112048e-02  7.64942840e-02
  -5.99152595e-03  7.44715557e-02 -1.57203749e-02  2.10295692e-02
  -6.85923100e-02  1.40223205e-02  1.18614957e-02  1.74879730e-02
  -3.65522504e-03 -4.14476246e-02  5.79847917e-02  7.64526352e-02
   5.41926399e-02 -8.00336227e-02  6.19151965e-02  4.75944355e-02
   4.04658169e-02 -7.11759925e-03 -4.94147316e-02  4.32743356e-02
  -1.18542612e-02 -7.27553219e-02  1.25438273e-02 -3.85596603e-02
  -4.80824187e-02 -5.86614013e-03  7.36202672e-02  7.10145906e-02
   6.98325112e-02  8.61621648e-03  3.21161002e-03 -1.13307759e-02
  -7.80023262e-02  7.15722069e-02 -1.59350857e-02 -3.75055708e-02
   3.87081802e-02  5.61564639e-02 -7.80805126e-02 -7.70425126e-02
   4.77699265e-02  7.04411417e-03  1.79032981e-02  6.68500289e-02
   3.09295431e-02 -7.10605383e-02  5.09006605e-02 -3.01168673e-02
   2.98736691e-02 -6.94128349e-02  6.32470846e-03 -7.07838088e-02
  -6.97428808e-02 -2.74605602e-02  2.36964375e-02 -6.25548512e-02
  -8.09998065e-02 -4.78385650e-02 -6.44599274e-02  3.41426954e-02
   3.09531316e-02 -5.00696227e-02  3.22934315e-02  9.87587869e-03
  -6.06139749e-03  5.66128120e-02 -6.79052025e-02 -8.05821568e-02
  -7.84667358e-02  5.93619868e-02  1.88402981e-02 -5.72539382e-02
  -4.64811511e-02  5.98366782e-02 -4.50736135e-02  7.74137303e-02
  -3.41819152e-02  6.45279959e-02 -9.27872956e-03 -1.95691809e-02
   6.46613762e-02  5.07724360e-02 -3.90513763e-02 -7.37698525e-02
  -7.44507462e-03  6.80121258e-02 -5.61906770e-02 -5.64482063e-02
   7.67382011e-02 -5.90636954e-02  1.05716884e-02  4.50053737e-02
   4.70472202e-02  6.96812645e-02  2.92070210e-02 -7.99756870e-02
   1.01651177e-02 -6.61332309e-02 -7.27122426e-02  2.04973593e-02
   4.55116853e-02  4.12291363e-02  6.24073818e-02 -8.06030184e-02
  -4.71149050e-02 -2.22546309e-02  2.84080803e-02  1.35801882e-02]
 [-6.56869859e-02  6.06753305e-02  1.75543204e-02  5.59243187e-02
   5.03834710e-02  6.29907474e-02  2.02779844e-02 -7.33632222e-02
  -5.72919957e-02 -3.65170725e-02  3.84168103e-02  1.97727978e-03
  -6.66318834e-03 -2.97465399e-02  2.12786272e-02  5.14706597e-02
  -1.85420066e-02  4.11979258e-02  5.14416918e-02 -7.72783235e-02
  -7.87835196e-02 -1.00075901e-02 -4.81810048e-02  3.86535302e-02
   2.64646932e-02 -3.66171487e-02  7.20016137e-02 -3.45990807e-02
   4.54115123e-03  3.90478149e-02  6.83227107e-02  2.05267966e-03
  -7.36046657e-02  7.37561658e-02 -6.95937872e-02 -3.64417322e-02
   1.93060264e-02  4.31095585e-02 -4.51193489e-02 -2.52576768e-02
   4.05997932e-02 -3.23317237e-02  3.06009650e-02  6.38862327e-02
   3.74568552e-02 -5.92710003e-02 -3.45397703e-02  4.88507524e-02
  -4.50344533e-02  3.77547219e-02  2.77158991e-02 -9.17877257e-03
  -1.94630027e-03  2.56679207e-03 -1.94155760e-02  2.59153694e-02
   4.08121124e-02  6.89249262e-02  8.04994479e-02  7.58258477e-02
  -1.96507499e-02  3.42315137e-02  5.34242317e-02  3.53008509e-02
   5.61726764e-02  8.08416232e-02 -4.30485643e-02  7.97410980e-02
   7.23376796e-02  5.37227839e-03 -2.23536231e-02 -4.19793315e-02
   4.71586511e-02 -4.06624675e-02 -7.44109526e-02 -3.79494578e-03
  -4.69058789e-02  1.80992931e-02  1.55536383e-02 -1.54470056e-02
  -2.70455405e-02 -5.50019518e-02 -7.89586678e-02 -4.50255387e-02
   4.69578579e-02  1.55666173e-02 -6.61408901e-02  4.00381908e-02
  -7.77731910e-02 -6.76298440e-02  2.63072252e-02  6.30060509e-02
  -3.95819023e-02 -2.20803544e-02  8.18766654e-04  7.96479657e-02
   2.48152539e-02  7.81215653e-02 -6.84985816e-02 -9.04092938e-03
   7.55324960e-03 -2.62406021e-02 -2.55429931e-02 -5.69578297e-02
  -4.54797372e-02  2.26960257e-02 -1.29593685e-02  5.86803332e-02
  -2.70792469e-02 -3.52455787e-02 -3.40118930e-02  4.33797687e-02
  -7.36925006e-02 -5.36691174e-02  7.00087622e-02 -2.73688398e-02
  -4.57742400e-02  6.85138926e-02 -3.15460078e-02 -5.43456115e-02
   4.44096848e-02 -2.96228714e-02  3.44860852e-02  2.64282450e-02
   7.42883906e-02 -3.88627313e-02 -5.67176938e-03  4.09338400e-02]
 [ 1.89004391e-02 -6.91797510e-02 -6.46440312e-02  1.39223933e-02
   8.64572823e-03  6.03930131e-02  3.51653248e-03  2.42623538e-02
  -7.08958730e-02 -1.44328326e-02 -6.59157932e-02  1.71354562e-02
   6.22955933e-02  1.59650818e-02 -6.77019581e-02  5.12240827e-03
   3.28656957e-02  2.21212134e-02 -6.94108456e-02  1.13803372e-02
   6.18643984e-02  2.57110447e-02 -3.45814824e-02 -3.07718553e-02
  -1.97425857e-02  5.86010516e-04 -3.39540131e-02  4.71747145e-02
  -9.68427211e-03 -5.08320741e-02 -4.71388064e-02  2.74446607e-02
  -5.41493483e-02  1.83634534e-02  1.60934329e-02 -5.63194156e-02
   1.94078982e-02  5.53902611e-02 -2.63835527e-02 -5.26725389e-02
  -4.76110727e-03  4.99792621e-02  4.13143039e-02  7.76798949e-02
  -1.81380659e-02  7.20276311e-02  3.51802185e-02 -2.16177627e-02
  -2.46918388e-02  5.34931645e-02  5.13651595e-02  4.54582348e-02
  -5.01444824e-02 -7.36231282e-02  7.66148493e-02  7.06241503e-02
   1.34480447e-02 -4.80134226e-02  3.13814580e-02  2.33651176e-02
   5.43004349e-02  2.09757686e-02  2.51577348e-02 -7.55997971e-02
   6.32072315e-02  7.05286860e-03  7.10864440e-02 -5.12586758e-02
   1.23721585e-02  7.03138486e-02  2.00250819e-02 -7.43815377e-02
  -4.94248830e-02  1.66126862e-02 -4.36645858e-02 -4.96402383e-03
   3.95212770e-02 -6.45759702e-03  1.59329250e-02 -3.28041948e-02
   2.81327590e-02  1.28043294e-02  3.57012674e-02  2.75436342e-02
   7.68287703e-02  3.98050249e-03 -5.24306558e-02  1.05770677e-03
  -6.82298541e-02 -4.18633223e-04 -2.19784044e-02  2.92384624e-02
  -7.69529343e-02  1.65495425e-02 -4.89364751e-02  6.13562018e-03
   2.59425491e-03  1.38916671e-02  5.60244694e-02  3.46990973e-02
  -3.37157398e-03  6.27737418e-02 -7.53155202e-02 -1.23295039e-02
   6.44606277e-02 -6.84227943e-02 -1.69300810e-02  1.97678059e-02
  -5.70755973e-02 -7.36562386e-02 -4.79083769e-02 -5.64224273e-02
  -6.58535436e-02  9.05857980e-03  4.52594385e-02  1.77371502e-02
   6.60191998e-02  2.48547792e-02 -5.59561849e-02 -1.08468533e-02
  -1.12360567e-02 -7.66297132e-02  2.24698484e-02 -6.57650903e-02
   3.86206359e-02 -5.75967655e-02 -6.56935200e-02  5.04042283e-02]
 [ 4.10655737e-02 -3.73872183e-02  6.92682043e-02 -6.49043992e-02
  -4.57502194e-02  7.21087083e-02  6.05238751e-02  6.99474439e-02
  -4.60813940e-03 -3.08192521e-03 -4.57205623e-03 -1.83693767e-02
   5.30800894e-02  3.57995257e-02 -7.55824074e-02  5.53291366e-02
  -6.03143573e-02  7.06699416e-02  4.21312302e-02 -1.74838528e-02
   2.42155790e-03  6.04638383e-02 -6.44752234e-02  4.93776053e-03
   1.37145072e-02 -4.88603599e-02 -3.12053263e-02  4.01456505e-02
   6.47661090e-03  2.02789158e-02 -2.84157768e-02  3.61773744e-02
   3.35548520e-02 -7.76778311e-02  1.07079297e-02 -2.25171447e-03
  -3.93720642e-02  1.33733228e-02  3.59823704e-02  4.70354185e-02
   3.71164605e-02 -7.03785717e-02  3.11472490e-02 -4.69522327e-02
  -6.19641095e-02  9.77177918e-03 -5.31795919e-02  7.95063376e-03
  -3.37131545e-02  2.19432041e-02  7.08359256e-02  4.00629267e-02
  -3.15653272e-02 -8.81410390e-03 -1.42784119e-02 -1.52486190e-02
   3.81355509e-02  9.71554220e-03 -5.03472984e-04  6.83780387e-02
   2.51480490e-02 -7.57259950e-02  6.84383139e-02 -1.63696408e-02
  -4.41460311e-02 -3.45174149e-02 -6.07944317e-02  2.33859047e-02
  -7.71928430e-02  1.05765834e-02 -1.22373179e-02 -3.37755978e-02
   6.14782795e-02 -4.53270972e-04 -6.25839829e-03 -8.08579400e-02
  -6.01570420e-02  4.37512770e-02 -2.96292529e-02 -7.53089264e-02
   1.55692622e-02  6.58382103e-02  7.15414211e-02 -2.40584873e-02
   1.36931613e-02  8.02054256e-03 -6.08910099e-02 -8.01672861e-02
  -3.43589373e-02  4.23515886e-02 -1.34947300e-02 -7.53457695e-02
   4.38771918e-02 -4.01905552e-02 -6.70084655e-02 -5.73358536e-02
   1.82476565e-02 -6.90936297e-03  5.88694736e-02 -1.28534138e-02
   5.62753007e-02  5.21953627e-02 -3.96695063e-02 -6.01331778e-02
  -6.36243969e-02 -7.53345937e-02 -3.02517936e-02 -2.01994926e-02
  -1.52144283e-02  5.70839867e-02  1.93395764e-02 -6.09750152e-02
  -3.74851674e-02  5.13563231e-02 -8.05304274e-02 -5.85965961e-02
  -6.55415803e-02 -7.97618404e-02 -6.97352439e-02  2.95335501e-02
  -3.56007665e-02  5.81267402e-02 -7.01353922e-02 -5.51466048e-02
   3.12712267e-02  8.92777741e-03 -1.61688477e-02 -2.99163684e-02]
 [-1.25948787e-02 -3.37036774e-02  1.18667334e-02  6.78856149e-02
   4.20566425e-02 -2.56199017e-02 -1.62430704e-02  7.08251446e-03
   4.18802053e-02  6.35512993e-02 -6.01397902e-02  7.84487277e-03
   6.69328496e-02  4.73150536e-02 -6.57100379e-02 -2.38527283e-02
  -7.54919052e-02 -5.54897822e-02  1.14011839e-02  1.28340945e-02
  -6.85718879e-02 -5.60677052e-02  6.59006014e-02  3.09203714e-02
  -7.64779747e-03  6.00823537e-02  4.27346677e-02  8.07784423e-02
  -4.79612835e-02  3.22557241e-03 -6.88014179e-02 -3.31173018e-02
  -7.96993077e-03 -2.55314671e-02 -2.40098909e-02  4.66833338e-02
  -4.31044511e-02 -6.11557886e-02 -5.33845276e-03  5.26870042e-03
  -2.80919150e-02 -2.92894617e-02 -7.75190443e-02  9.14999098e-03
  -7.42585212e-03 -6.24350458e-03  1.51155293e-02  7.55274072e-02
  -5.72403818e-02 -6.67670816e-02 -1.37253851e-03 -4.33617271e-02
   5.28552905e-02 -4.95715663e-02 -3.21523584e-02 -7.40761310e-03
   3.93303856e-02  9.07722116e-03 -5.37467636e-02 -3.22264060e-02
  -1.25057697e-02 -5.25958613e-02  2.11185813e-02 -5.64631559e-02
  -5.04422337e-02  2.76010334e-02 -6.74922317e-02 -5.38677648e-02
  -1.07090846e-02 -4.06171605e-02  7.32006505e-02  6.76777288e-02
   6.37790933e-02 -9.02547687e-03  4.14330810e-02  1.57196373e-02
  -2.66706087e-02 -5.96402064e-02 -6.40502274e-02  2.31320858e-02
  -2.39293873e-02 -1.28957480e-02 -1.05127841e-02  7.69734308e-02
  -2.64734551e-02  3.77894193e-02  7.83939734e-02  3.97244096e-02
  -4.79591377e-02 -4.03174162e-02  7.83616528e-02 -7.74456561e-02
  -2.81665027e-02 -5.01866005e-02 -4.91499528e-02 -6.39733002e-02
  -1.71223432e-02 -5.72680756e-02  4.67900410e-02  1.38702244e-02
  -5.43009602e-02 -7.25437477e-02  1.62422210e-02 -3.37183774e-02
   4.56364676e-02 -4.97178808e-02  8.02003518e-02  6.38579577e-03
  -1.20264292e-02 -6.41530901e-02 -4.97470237e-02 -6.77966177e-02
  -1.70796439e-02  4.57691774e-02  4.98128906e-02 -4.33053561e-02
  -6.08257018e-02 -7.87943080e-02 -5.00109717e-02 -4.95585315e-02
   6.64293244e-02 -2.40900107e-02 -7.80563429e-02 -1.67266279e-03
   1.38006061e-02  5.12243286e-02 -2.91116238e-02  4.24869955e-02]
 [-7.34522939e-02 -2.96237245e-02 -1.64861903e-02 -6.81097806e-02
   4.54983339e-02  5.66629320e-03 -6.63844571e-02  3.12432498e-02
   2.24195123e-02 -2.77333260e-02  6.86905757e-02 -6.80315495e-03
   7.73272142e-02  2.12882608e-02 -1.95675343e-02  7.37383291e-02
  -3.00047547e-03  4.14292291e-02  5.09883463e-03 -3.80157717e-02
   7.02455416e-02 -4.68011238e-02 -7.67359957e-02  4.31786925e-02
  -6.39386475e-02  2.67863497e-02  1.92192718e-02  3.07483822e-02
   5.90864494e-02 -1.33109987e-02  5.30436859e-02  7.18140975e-02
  -3.67544591e-04  7.89370015e-02 -3.49022858e-02 -5.07670604e-02
  -5.23700491e-02 -7.16994330e-02  7.19970837e-02 -4.40374091e-02
  -3.69997770e-02 -7.86482468e-02 -1.01236254e-03 -5.42655699e-02
   1.73094645e-02  4.50463668e-02  4.69947606e-03  6.86681196e-02
  -6.62460178e-02  7.27091655e-02 -6.60906136e-02 -2.31717117e-02
  -4.69462946e-02 -4.14661095e-02 -3.06849331e-02 -5.49152046e-02
  -4.12126258e-02  1.11226365e-02  1.76001713e-02  7.18442425e-02
   2.39407569e-02 -1.94705538e-02  2.08124220e-02 -2.91052423e-02
   6.93664625e-02  7.02182576e-02 -2.96253078e-02  5.65146878e-02
   6.43627718e-02 -6.12680092e-02 -6.99748844e-03  2.48050243e-02
  -1.38807446e-02  3.23406979e-02  4.23914269e-02  4.87577543e-02
   1.60579085e-02 -5.54204918e-02  3.11250538e-02  7.08577409e-02
   5.66749275e-03 -1.58461481e-02  1.15774497e-02  1.97679773e-02
  -3.06335837e-03  5.42878434e-02  5.15166670e-03 -3.05752456e-02
   1.89096481e-02 -3.32409702e-02  8.19164515e-03 -2.39093341e-02
   1.92623809e-02 -3.29615176e-03 -7.91085735e-02 -6.61698431e-02
   6.61680847e-03 -5.64372428e-02  1.55266225e-02 -2.99499407e-02
  -3.43882553e-02 -7.11064041e-02  6.96731135e-02  8.03473815e-02
  -3.77612002e-02  4.45667878e-02 -6.82611018e-02  6.62956908e-02
   6.16011247e-02 -7.88158700e-02  7.00866804e-02 -4.99149375e-02
  -4.02234495e-04  7.91506693e-02  3.90235484e-02 -5.14219888e-02
   1.17827505e-02 -6.79555014e-02 -5.77732287e-02  5.10501787e-02
   7.11633042e-02 -4.92677242e-02 -1.76438168e-02 -7.28356987e-02
   7.25329891e-02  5.59488907e-02  1.17878541e-02  5.57187125e-02]
 [ 5.85327670e-02  3.70919034e-02  6.43961504e-02 -5.07536381e-02
  -2.83282883e-02 -5.37098646e-02  3.62760425e-02  5.14049158e-02
   3.59228030e-02  2.75687128e-03 -4.44854945e-02 -2.33449452e-02
  -7.22342730e-02  8.01178291e-02  3.49458903e-02  1.32559612e-02
  -7.29030669e-02  5.31873107e-03  5.36674336e-02  2.72017568e-02
   3.80999669e-02  1.53159127e-02  3.50776613e-02  5.64215854e-02
   5.29157743e-02  1.11564025e-02  7.04301074e-02 -5.87973669e-02
  -1.38790235e-02 -3.18801366e-02  3.45252454e-02  6.23909757e-02
  -7.37291276e-02  7.06691071e-02  3.07893753e-02  5.74959740e-02
  -5.04771397e-02  4.07834277e-02  8.10310021e-02  4.45488840e-03
  -4.85804006e-02 -4.27214578e-02  6.25968650e-02  6.44442812e-02
  -7.14836270e-03  7.29600564e-02 -6.83106706e-02 -4.80396822e-02
   2.41780356e-02 -4.52808216e-02 -3.44033204e-02  7.26730600e-02
   1.53267607e-02  7.31612369e-02 -6.58449754e-02  5.22505566e-02
  -3.55797075e-02 -3.41153517e-02 -2.22928040e-02  4.75737229e-02
   2.87034363e-03 -3.79634611e-02  8.09885338e-02  2.88246647e-02
   7.72276297e-02  2.92349830e-02 -6.01271465e-02  7.57649541e-03
   3.10857743e-02 -7.98846781e-02 -2.68747061e-02 -7.55102411e-02
  -7.93468654e-02  6.59148917e-02  1.00619495e-02 -4.48843837e-03
  -4.82823774e-02  6.23589978e-02 -7.40363896e-02 -2.72930712e-02
  -5.44440225e-02  4.05660495e-02 -7.11802617e-02 -3.21150944e-02
   3.69169116e-02 -3.99635248e-02 -3.07390988e-02  4.09108326e-02
  -1.90062411e-02 -6.13701120e-02  2.92708725e-03 -2.66946480e-02
   8.03229883e-02 -7.73372054e-02  7.09396079e-02  7.59752914e-02
  -7.15713352e-02 -3.12277563e-02 -7.62991607e-04  3.86613980e-02
   6.78026751e-02 -6.28594309e-02  4.30226326e-02 -1.71918273e-02
  -7.69076645e-02 -2.63007469e-02 -2.59130113e-02  6.90860823e-02
  -4.78866771e-02  3.88303027e-02  2.40007043e-02 -3.51923220e-02
  -1.24927536e-02  2.76906863e-02 -6.82875812e-02  2.73184404e-02
   5.47876284e-02  5.06794229e-02 -2.73614898e-02 -2.41611376e-02
   4.18005437e-02 -1.10240877e-02  7.78642520e-02 -2.62007862e-02
  -3.41748744e-02 -5.02698123e-04  3.50066721e-02  7.60013983e-02]
 [-7.83480182e-02 -2.96178423e-02 -5.15270531e-02  1.83719844e-02
  -2.37216912e-02  1.90466940e-02 -6.35662079e-02  1.37128234e-02
  -4.61312830e-02 -3.49417180e-02 -4.15298119e-02  5.19331619e-02
  -3.15032713e-02 -5.12488149e-02  7.77814910e-02 -8.08595195e-02
  -6.17464781e-02 -6.13418967e-03  3.68115380e-02 -7.37265125e-02
   6.55077919e-02  6.96301386e-02 -4.47103046e-02  7.11942539e-02
   3.13467234e-02  1.35869533e-02 -4.51704115e-03 -5.71986102e-02
  -7.44210705e-02  3.32365632e-02  5.50242737e-02  6.43780306e-02
   5.74423298e-02 -5.78609109e-02 -1.47154778e-02 -3.18483636e-02
  -1.09473541e-02  6.53302297e-02  3.51790935e-02 -1.62333623e-02
  -6.24499470e-02  6.00617453e-02 -3.90160456e-02 -7.14987218e-02
  -3.98854353e-02  5.21242395e-02 -3.03995349e-02 -2.42413580e-03
  -7.34453946e-02  4.29192185e-03 -6.58207834e-02 -5.40571213e-02
  -6.66213483e-02  3.17025930e-02 -4.21617478e-02 -6.87646717e-02
   3.96770462e-02 -5.56819439e-02 -3.57866473e-02  4.30202335e-02
   2.49077678e-02 -4.82134558e-02 -2.38963217e-03  4.92219254e-02
   6.86180666e-02  7.45575204e-02 -2.86384746e-02  6.46098629e-02
  -4.60043848e-02  4.51227352e-02  7.25151226e-02  8.46105069e-03
   6.67859539e-02 -6.63128644e-02 -3.08825113e-02 -4.77940068e-02
  -1.06946975e-02  2.81157345e-03 -7.72591010e-02 -3.65542397e-02
   6.75784424e-02 -4.29425500e-02  5.05229756e-02  5.75636402e-02
   8.65947455e-03 -6.32907152e-02 -6.22935742e-02 -1.72607675e-02
   2.83740833e-02  1.37381628e-02 -5.27902320e-02 -6.02959692e-02
   4.78386357e-02 -7.98319057e-02  3.36298868e-02  7.29233772e-03
   5.12929186e-02 -1.35047436e-02  2.07043961e-02 -3.52378935e-03
  -6.06817864e-02 -4.42616642e-04  7.71320537e-02  4.33676466e-02
   4.10841405e-02  8.00545439e-02  6.59022257e-02  4.89835665e-02
   1.90647617e-02 -7.25589469e-02 -8.04072767e-02 -4.09137122e-02
  -7.55376071e-02 -1.04473457e-02  2.59727836e-02 -6.99570924e-02
   6.97591975e-02  7.05414340e-02 -7.71064460e-02 -7.13380426e-02
   2.05390379e-02 -7.65578523e-02  1.01728514e-02 -5.32951578e-02
  -7.47402683e-02  2.06661671e-02 -3.75261828e-02  7.26008639e-02]
 [-2.70626172e-02  7.98267350e-02  2.98592225e-02 -9.33788717e-03
   1.57777295e-02 -7.29953498e-02 -6.71738237e-02 -4.69774120e-02
   3.06487679e-02  6.71290979e-02 -6.47079200e-03 -7.69333094e-02
  -4.81091067e-02  6.35111853e-02 -7.67881423e-03 -1.33896619e-02
   3.96743789e-02  1.45289004e-02 -7.87597299e-02  5.45868203e-02
   5.17076775e-02 -2.70339586e-02 -1.57714263e-02 -2.72302777e-02
  -4.49466370e-02 -5.32189049e-02  4.19579595e-02  4.27456126e-02
   4.80050668e-02 -2.65274495e-02 -1.87869444e-02  3.61196697e-03
  -2.62513757e-02  3.00623477e-03 -3.72430719e-02 -7.38120675e-02
  -1.36707500e-02  5.68751618e-02  6.96323439e-02  4.16110903e-02
  -3.46588343e-02  4.59808484e-02  1.40011385e-02  5.32739535e-02
  -2.93531977e-02 -1.54244974e-02 -3.68907861e-02 -6.85131028e-02
   3.63712460e-02 -2.86715031e-02  7.09116831e-02  5.43306097e-02
   2.92429551e-02 -6.28859475e-02 -2.86123902e-03 -1.40237808e-03
  -8.00894126e-02 -1.12326145e-02  2.46137306e-02 -3.81626077e-02
   3.38178128e-02 -4.19609994e-03  4.57021818e-02  3.56188491e-02
  -2.56412886e-02  4.08912376e-02 -2.28080936e-02 -1.80636719e-02
  -5.92973977e-02  2.32120156e-02 -1.60972401e-02  3.71463820e-02
   4.98709828e-03  3.83774564e-02  3.46554741e-02 -5.50435111e-02
   6.89482763e-02 -5.54416850e-02 -4.39309143e-02 -6.79006353e-02
   2.10958421e-02 -4.67385240e-02  7.38978311e-02 -3.37198079e-02
   6.53195009e-02 -6.44582286e-02 -8.00855458e-02 -5.78421317e-02
  -4.67299372e-02 -2.11299546e-02  4.89216968e-02  5.67285344e-02
   4.00476083e-02  1.98045373e-03 -6.92186207e-02 -6.84775412e-02
   2.15511769e-03 -5.34445420e-02 -7.52937049e-03  1.74291059e-02
   3.74145210e-02 -2.32789218e-02 -4.22342084e-02  1.41296610e-02
  -7.13803694e-02  3.15527618e-03  6.54108152e-02  9.50676948e-03
   5.50439730e-02  5.18700555e-02  1.93917304e-02 -5.58864698e-02
  -6.32938892e-02  9.08809155e-03  2.19621807e-02  5.04024550e-02
  -3.18775438e-02  5.53324819e-04 -4.75817509e-02 -6.67079836e-02
  -8.96850228e-03  2.40123495e-02 -7.46594891e-02  7.62535259e-02
  -9.40589607e-03  5.88817373e-02  2.52090394e-04  6.56309351e-02]
 [-5.66351898e-02 -4.94923964e-02 -3.08718532e-03  3.07452455e-02
  -2.12282315e-02 -4.19297665e-02  2.66073123e-02  3.15189734e-02
  -4.84248996e-02 -3.81773226e-02 -5.04758954e-03  3.14804539e-02
  -6.95235282e-03  3.22349370e-04  6.31220117e-02 -7.43164495e-02
  -1.88681260e-02 -3.69900875e-02  1.30065754e-02  5.07792756e-02
   6.02644607e-02 -6.20061532e-02  2.06736475e-02  1.55043080e-02
  -4.95230071e-02 -6.60908073e-02  1.92180127e-02  4.88129780e-02
   4.41399440e-02  6.51006624e-02 -6.29820749e-02  7.77004585e-02
  -3.67825106e-02  1.33472383e-02  9.82053578e-04  2.00685710e-02
   2.47863457e-02  4.18836251e-02  5.17821833e-02  6.00331351e-02
   3.29967067e-02  7.41399899e-02  4.23283875e-02  1.20895728e-02
   2.53942832e-02  6.83268905e-03  2.77040675e-02 -2.97272205e-03
   5.29515743e-03 -2.79370956e-02  6.13640621e-02  7.83664361e-02
   6.72452375e-02 -5.09812124e-02 -4.25825268e-03 -6.76763505e-02
   3.23809758e-02 -4.74998727e-02  9.60036367e-03 -4.77662571e-02
  -2.21620388e-02  5.56404665e-02  6.90077618e-02  6.48479983e-02
  -8.98683816e-03 -5.97277135e-02  6.65434375e-02  5.36228791e-02
   6.53014109e-02  1.30476281e-02 -4.75144945e-02 -7.12659061e-02
   3.97070572e-02  6.37566969e-02  5.29631749e-02 -7.48592317e-02
   2.95917019e-02 -2.47155093e-02 -4.73529398e-02 -7.16129318e-02
   2.32538208e-02  3.58056128e-02  7.33863562e-03 -4.63993102e-02
   2.84878314e-02  1.10095665e-02  3.09824869e-02  5.28602228e-02
  -4.32271548e-02 -8.82118195e-03  1.83081701e-02  3.31784859e-02
  -4.74268310e-02 -5.39814718e-02  2.49997824e-02  4.59741428e-02
   4.01121378e-02 -1.92470849e-04 -6.54711500e-02  6.53149709e-02
  -2.66834311e-02 -1.53624415e-02 -5.17862849e-02 -5.11772037e-02
   2.13922560e-02  4.75372151e-02 -2.55909339e-02 -5.98542020e-02
  -6.22659214e-02  5.91628477e-02  1.70333683e-03  8.02807137e-02
  -7.81939924e-02  5.90412393e-02 -6.08432442e-02 -7.23836571e-03
  -6.89604729e-02 -1.91230066e-02 -3.96204442e-02  4.24369499e-02
   2.70509571e-02  3.96563783e-02 -2.58620940e-02  7.10818395e-02
  -2.18275264e-02  6.87574223e-02  1.43753588e-02  4.49467525e-02]
 [-3.93334255e-02  5.69671169e-02 -1.10817328e-02 -5.29747456e-03
  -2.55161524e-02 -5.92541769e-02  2.83466205e-02  2.85654366e-02
  -7.46847838e-02  5.24730980e-03 -1.39952824e-02 -4.40879203e-02
   6.96487725e-04 -3.31004784e-02  1.48830265e-02 -6.23591132e-02
   2.50665396e-02 -1.27947405e-02  6.49217516e-03 -5.70147634e-02
   5.53195998e-02  3.19149271e-02  1.76858455e-02  3.97768319e-02
   5.06560728e-02  7.88367018e-02  1.05896145e-02  6.25971928e-02
   2.45901570e-02  7.26677477e-03 -3.95969078e-02 -6.38460964e-02
   7.00852647e-02 -4.48927432e-02  8.80759209e-03 -7.10324943e-02
  -5.42471409e-02 -4.36615124e-02  3.33398506e-02  3.31055075e-02
  -6.28140271e-02  5.10865822e-02  6.73150048e-02  4.12121639e-02
  -2.41947472e-02 -4.76998501e-02  2.07286850e-02 -3.63086052e-02
   3.78691256e-02 -4.45327386e-02 -5.00969104e-02  5.38185239e-04
   7.07768276e-02 -6.57412484e-02  4.81516197e-02  4.55275923e-03
  -8.10124874e-02 -7.87621662e-02 -2.89347954e-02  6.50731847e-02
  -3.38268243e-02 -3.27310190e-02  4.25498486e-02  7.43580982e-02
   6.00503460e-02  3.31562683e-02 -7.66189247e-02 -1.77289546e-03
   5.13112545e-03 -3.88341099e-02 -3.93376797e-02 -7.78575838e-02
  -1.65615529e-02  7.10743293e-02  5.67060485e-02 -7.83047974e-02
   1.19520351e-02  5.57519495e-04  7.54466876e-02 -7.52612948e-02
  -6.81137294e-02 -1.69573873e-02 -6.63370192e-02 -5.71392998e-02
  -3.27901766e-02  2.37370878e-02  1.51677802e-02 -2.44772024e-02
  -5.58058843e-02 -7.51876831e-03 -6.34698272e-02  4.16445062e-02
  -3.95603590e-02  2.45709717e-02  4.45052460e-02 -6.09365478e-02
   7.35765621e-02  7.56775960e-02 -7.72617087e-02 -5.24700508e-02
   4.01485115e-02 -4.09297831e-02 -7.38745928e-03 -5.23464009e-02
   5.73951825e-02  7.14514181e-02 -7.37275407e-02 -7.52754360e-02
  -3.49216610e-02  4.52860445e-03 -1.80389732e-03 -6.07367083e-02
   7.40917698e-02 -8.69264454e-03 -4.71179225e-02 -6.96793720e-02
   8.04677233e-02  1.74821690e-02 -5.83885163e-02 -3.32991593e-02
  -4.12650518e-02  4.59974185e-02 -1.33845210e-02 -3.29670832e-02
  -5.09838238e-02 -5.96283525e-02  6.16088882e-02 -2.15637907e-02]
 [-4.17613499e-02  6.84119388e-02 -3.73815335e-02 -4.71635796e-02
   6.14421293e-02 -5.59386052e-02 -8.55550170e-05  5.57804033e-02
  -1.40787065e-02  7.55997822e-02  6.96699247e-02 -3.12359557e-02
   7.17297122e-02 -3.61873358e-02  5.85693344e-02  3.57473120e-02
   7.51161650e-02 -4.97885048e-04 -3.93358804e-02  4.94858250e-02
  -6.04269058e-02  3.24475020e-02 -3.25921513e-02 -8.00766870e-02
   1.99326426e-02  3.99989560e-02  2.97565758e-02  6.32992014e-02
  -2.99715623e-02  2.90954188e-02 -5.17456159e-02 -2.08921917e-02
   5.41720763e-02  7.18530342e-02 -1.69134736e-02  3.54561508e-02
   2.44650170e-02  7.51556084e-02  2.63427868e-02  6.52883425e-02
  -1.11393258e-02 -5.79816550e-02  2.81405896e-02  7.06098005e-02
   4.45266441e-02  4.33919132e-02 -5.71826957e-02  3.36404890e-03
  -3.38314064e-02  4.40933928e-02  2.61543319e-02 -2.65020952e-02
   3.06815654e-02 -4.32728492e-02 -4.69966531e-02  2.91262046e-02
  -4.82234359e-02  1.20260790e-02 -1.35552362e-02 -3.54748555e-02
   5.57716936e-03  4.20601666e-02  4.50873598e-02 -5.21531701e-02
  -4.69920672e-02 -3.38185690e-02 -6.46330267e-02 -3.68912891e-02
  -4.92396057e-02 -6.16329983e-02  6.69095665e-03  1.12451464e-02
  -2.66897343e-02 -2.81692520e-02 -1.31842569e-02  5.39517030e-02
   3.36982086e-02 -7.51890093e-02  7.09141865e-02 -4.27271239e-02
   1.22121722e-03  2.09593549e-02  4.48350385e-02  1.72234848e-02
  -3.85830402e-02 -5.28709702e-02 -5.95075637e-02  7.81138465e-02
  -4.44543362e-03  2.71037072e-02 -3.87025699e-02  8.10181573e-02
   4.95912954e-02  4.25094515e-02  1.50077045e-03  6.97619542e-02
  -3.60381790e-02 -7.65211284e-02  3.91584486e-02  6.33274987e-02
  -8.06651935e-02  9.94636118e-03 -5.66868037e-02 -4.10373993e-02
  -7.35863149e-02  1.33826658e-02 -4.89218533e-03 -6.40281066e-02
   5.85190877e-02 -3.95024605e-02  4.65494767e-02  7.54855201e-02
  -7.01416954e-02 -7.59876221e-02 -4.62791622e-02 -2.00189129e-02
  -1.23670548e-02  2.35916078e-02  4.48759124e-02  4.82867733e-02
  -2.49847546e-02 -4.52795848e-02  7.55232200e-02  7.31651559e-02
  -6.28231540e-02  2.04529613e-03  4.69992086e-02 -5.12418523e-02]
 [ 6.44188300e-02 -6.60212636e-02 -6.54304773e-02 -3.91852558e-02
   1.36532858e-02  9.30818170e-03  7.70818517e-02 -3.54974791e-02
  -5.56523390e-02  3.65986004e-02  1.67069212e-02  4.59113345e-02
   4.30686176e-02 -7.66837299e-02 -6.12550303e-02 -4.50305641e-02
   2.48604640e-02  7.26221278e-02 -7.92948976e-02 -6.63164631e-02
  -2.92023793e-02  5.50415441e-02 -4.36000526e-04  3.10573503e-02
  -4.50660139e-02 -2.38469988e-03 -5.11315688e-02 -2.79959030e-02
   2.77724862e-02  7.82804862e-02 -8.05622563e-02  1.95760280e-02
  -3.76888961e-02  9.96554643e-03  2.36033201e-02  7.28439763e-02
   6.69439882e-03  2.03656480e-02 -1.03140399e-02 -3.11043598e-02
   2.44580731e-02  5.15230075e-02  5.17964587e-02 -4.30465899e-02
   4.43868116e-02  3.13317031e-02 -4.85602692e-02 -2.62821615e-02
   9.27753747e-04  2.95572579e-02 -7.06995651e-02 -1.81927755e-02
  -2.67064050e-02 -4.36877459e-03 -7.45221972e-04  4.91460040e-02
   7.01136217e-02  4.57651094e-02 -1.50845125e-02  4.03266773e-02
  -4.18049358e-02 -1.51204243e-02  1.81012601e-03  1.03890896e-03
  -5.10626845e-02  4.90325168e-02 -5.98452091e-02  7.08512142e-02
  -4.79672588e-02  1.50243193e-03  4.92476746e-02  4.77987602e-02
   3.35684270e-02  7.78856948e-02 -3.28175798e-02 -1.65457353e-02
   4.28384319e-02  7.98033848e-02 -5.53565212e-02  3.14617306e-02
   6.90037385e-02  5.55267110e-02  7.60818347e-02 -6.64762408e-02
   5.31362072e-02  5.11835292e-02 -7.92798176e-02 -4.80481908e-02
   6.67244568e-02 -4.75294404e-02  5.90488538e-02 -7.79018253e-02
   7.02246204e-02  2.49147862e-02  5.69711849e-02 -6.21960312e-03
  -3.65389064e-02 -3.72960195e-02  6.83687627e-04  1.72956511e-02
  -2.04293281e-02  7.16013536e-02 -8.02088082e-02 -6.07839227e-03
  -1.53190643e-03 -7.48410821e-05 -3.53541262e-02 -2.62132026e-02
   1.28910094e-02 -7.40769207e-02 -7.93732405e-02  3.17645893e-02
  -3.21586840e-02  1.80272236e-02  4.69985232e-02 -5.26375547e-02
  -4.66946252e-02  5.68528846e-02  1.92965567e-03 -6.34589791e-02
  -3.83889824e-02  1.75696164e-02 -3.26641276e-02 -9.40003991e-03
   1.35418028e-03  3.38526219e-02 -6.78179860e-02  6.58702925e-02]
 [ 7.07524642e-02  2.82904431e-02 -4.29383367e-02  5.77900335e-02
   7.56690726e-02  1.47385523e-02 -2.60641202e-02 -7.42679313e-02
   4.15172577e-02 -4.98936474e-02 -7.96778202e-02  4.40082625e-02
  -4.17061150e-03  5.83034828e-02  7.77142271e-02  4.53748479e-02
  -1.72104090e-02 -5.79046458e-03  1.16900206e-02  4.84677330e-02
  -7.62626752e-02 -3.65335494e-03  5.16279861e-02 -7.96777010e-02
   5.99647984e-02  5.68361953e-02 -1.75772756e-02 -3.82347964e-02
   5.15416786e-02  3.95581126e-04  6.96269423e-03  5.86579219e-02
   7.57402107e-02  7.40473792e-02  5.67302629e-02 -6.01488203e-02
   6.21720776e-02  3.96934301e-02 -8.44269246e-03  7.30656907e-02
   4.24390957e-02  5.12712672e-02 -5.62258810e-03 -3.11377198e-02
   3.82968560e-02  4.63384911e-02  6.07214049e-02  2.68192440e-02
  -3.51736024e-02 -3.96940447e-02  5.66639379e-02 -7.25790188e-02
  -6.43672645e-02  3.95341143e-02  6.62043020e-02 -4.56558131e-02
  -5.07520139e-02  3.83511335e-02  1.80878267e-02 -4.97213416e-02
   6.83502853e-03 -3.49770673e-02 -7.54795223e-03  4.04610410e-02
   1.33346841e-02 -6.81815296e-02  6.44994602e-02  7.20927864e-03
   7.21335337e-02 -1.84867382e-02  6.05474412e-03  7.20214173e-02
   6.80822134e-03 -4.68022823e-02  4.15601879e-02 -6.94768876e-03
  -7.12896138e-02  2.37716436e-02  6.84133172e-03  4.07481194e-02
   6.05244711e-02 -7.07328096e-02  6.78973645e-03  6.58314452e-02
   8.02663192e-02  2.06045881e-02 -1.11569017e-02 -2.48079449e-02
   4.58078310e-02 -6.95163161e-02  3.38911638e-02  4.43274900e-02
  -5.86673617e-03  3.05176005e-02 -9.71034169e-04 -5.30970171e-02
   3.41828838e-02 -5.94866201e-02  8.40377063e-03 -2.51978636e-02
  -7.33082071e-02  8.05424079e-02  1.67363733e-02  7.76287913e-03
   7.14436099e-02 -7.65286684e-02  2.33957097e-02 -5.23465537e-02
  -6.76167533e-02  4.98336628e-02 -6.15287051e-02 -4.11481112e-02
   7.34090135e-02  7.80669600e-03  7.43917897e-02 -8.47340375e-03
  -1.05066374e-02  7.88549110e-02 -6.57054707e-02  4.99990061e-02
   1.68427527e-02  4.54140976e-02 -3.15934457e-02  4.22810093e-02
  -6.89853057e-02  7.42032155e-02  5.01881167e-02  1.88581496e-02]
 [-4.43375781e-02  6.29872605e-02  5.69372550e-02 -7.17369094e-02
   5.19608483e-02 -5.32686822e-02  1.48061737e-02  1.46377012e-02
   8.09912905e-02 -6.84175119e-02 -4.95441258e-03 -6.89911470e-02
  -6.36818334e-02  4.24856469e-02  3.58762220e-02  5.96192852e-02
   7.90583864e-02  2.70688236e-02 -6.71870708e-02 -5.62866740e-02
  -3.50287370e-02 -3.40939052e-02  2.05546394e-02  1.13954619e-02
  -2.77714245e-02  4.22437042e-02 -7.39133209e-02 -5.64864576e-02
  -5.42205311e-02 -7.98215419e-02 -4.09867540e-02 -2.45198831e-02
  -1.98229402e-03 -2.62143426e-02  5.60739264e-02 -1.85657740e-02
   5.37276343e-02 -1.75664648e-02 -3.47390324e-02  1.60605907e-02
  -1.64088979e-02  6.63593933e-02 -7.71621168e-02  8.08484629e-02
   6.17313311e-02  7.01843724e-02  2.54215896e-02 -6.30808026e-02
  -7.01061711e-02  1.36713833e-02 -2.63716392e-02  3.78726870e-02
  -5.44200838e-02  7.35027120e-02  2.21275613e-02  1.33891031e-02
  -5.13335355e-02 -5.71464151e-02 -3.42251360e-03  4.64044884e-02
  -6.48180395e-02 -4.47699055e-02 -7.60730430e-02  3.29713151e-02
  -7.57462606e-02 -4.43909317e-02  4.85852882e-02 -4.41720597e-02
   4.16832194e-02 -5.65278009e-02 -4.30376939e-02  5.84349409e-02
   4.04349342e-02  3.91860306e-02  3.10473293e-02  9.53105837e-03
  -7.82328844e-03  3.62976566e-02  1.98551565e-02 -7.50420988e-03
   6.98867217e-02  5.80333993e-02 -4.26908843e-02 -3.14192064e-02
  -4.35696356e-02  4.48421314e-02 -7.45468810e-02 -2.05111504e-03
   3.36404219e-02 -3.94187830e-02  6.82598278e-02  3.01831961e-02
   5.92408702e-02 -1.68234110e-05 -4.20509018e-02 -7.80723318e-02
   1.64360628e-02  6.25348017e-02 -1.02386996e-02  5.47573045e-02
  -4.59091812e-02 -7.42758960e-02  1.76958367e-02 -1.58982500e-02
   3.29378396e-02 -8.04384500e-02  5.84870055e-02 -6.02086559e-02
   6.57996312e-02  1.96379647e-02 -1.87051818e-02  6.57050386e-02
  -4.39349152e-02  3.77265364e-03  2.94856504e-02 -4.36512791e-02
  -4.61533070e-02  3.67668644e-02 -6.82841539e-02  2.32008770e-02
  -4.33381945e-02  4.19926122e-02  7.32104853e-02  7.84533694e-02
  -1.19963810e-02  4.25578132e-02 -1.94581971e-02 -4.60285582e-02]
 [ 2.24311724e-02  1.25280842e-02  2.68584993e-02 -2.39516217e-02
  -5.03086932e-02  6.35845587e-02 -1.41273811e-02  3.62633611e-03
  -1.33941695e-02 -1.73151493e-02 -1.84293296e-02  6.40662089e-02
  -3.08974013e-02 -3.85696106e-02  8.83661732e-02 -4.12913337e-02
  -6.86231107e-02  7.76481405e-02 -3.20021398e-02  5.81309013e-02
   2.49480028e-02 -3.19975172e-03 -2.18919162e-02 -6.06017858e-02
   4.76168916e-02 -3.98737527e-02 -9.34601203e-03 -2.29951926e-02
   4.46240231e-02 -3.14515010e-02  7.96271637e-02 -6.11423887e-02
  -3.01878210e-02 -3.90109383e-02  1.52177215e-02  1.51362102e-02
  -1.19685428e-02 -1.13973795e-02 -7.61367381e-02 -1.53707517e-02
   1.90077387e-02  3.12441699e-02 -4.52691428e-02 -7.97561631e-02
   9.02871341e-02  1.60021409e-02 -1.04076695e-02 -1.31113492e-02
   6.25521615e-02 -3.41107696e-02  5.18270507e-02  3.49121168e-02
  -6.63310215e-02  2.46738661e-02 -6.71781451e-02 -5.07822596e-02
   4.69744131e-02  2.34818831e-02 -9.17223841e-03  8.57128948e-02
   7.37717524e-02 -1.05518252e-02  4.29516882e-02 -1.34599218e-02
   1.21527836e-02 -5.46948612e-02 -2.20390446e-02  2.36863326e-02
   6.00699410e-02  6.50858432e-02  7.48181343e-03  4.66550961e-02
   4.02507037e-02  5.05725220e-02 -3.93781550e-02 -5.43728098e-02
  -1.76307559e-03 -4.86812405e-02  4.19267640e-02  1.36393979e-02
   3.67551595e-02 -4.89402562e-02  4.59677093e-02 -5.45930443e-03
   7.58947209e-02 -4.19999398e-02  5.36026247e-02 -2.77253073e-02
   5.08865826e-02 -7.40014538e-02 -5.96456863e-02 -2.76814755e-02
   6.73219040e-02  3.38822901e-02 -3.44050787e-02 -2.37556882e-02
   7.40528628e-02  6.96526095e-02 -2.54482944e-02 -6.29922077e-02
  -6.05999082e-02 -8.88179839e-02 -2.82100718e-02  6.27629533e-02
  -1.04705337e-02 -5.15110493e-02  2.72103995e-02  3.20796072e-02
   5.95676340e-02 -9.33066756e-02 -6.71018735e-02  7.15329722e-02
   2.12184489e-02  5.02043217e-02 -7.24393353e-02  2.73893718e-02
   3.50748375e-02  3.01129594e-02  3.76238935e-02 -1.30571863e-02
   7.64987469e-02 -8.38878006e-02 -6.49296790e-02 -5.88718355e-02
   4.99931574e-02  6.42978624e-02 -1.05922418e-02 -4.61395495e-02]
 [-7.68026561e-02  5.81559911e-02  8.27163681e-02 -3.21150757e-02
   3.16018313e-02  4.05922644e-02  1.38605312e-02  4.81067114e-02
  -3.00486609e-02  4.36149985e-02  6.03940301e-02 -4.54037860e-02
   5.29279560e-03  2.31272564e-03  2.51357593e-02  6.79164082e-02
  -6.85754493e-02 -1.04014864e-02 -8.41850787e-02  4.19119820e-02
   9.04552341e-02 -4.96122539e-02  4.03252840e-02 -6.91474006e-02
  -4.83055450e-02  2.39112247e-02 -1.75556000e-02  7.24056140e-02
  -6.15328625e-02  3.32793444e-02 -5.08444123e-02 -1.88445970e-02
   4.71892133e-02 -2.83535831e-02 -8.09250306e-03  8.53055194e-02
  -6.66606650e-02  7.38773122e-02 -5.08273058e-02 -1.33240269e-02
   7.98181966e-02  3.15767992e-03  6.46887943e-02 -5.59114525e-03
   1.07478864e-01  1.10841787e-03 -4.44050021e-02  3.11092790e-02
   2.35020518e-02 -1.10308357e-01  3.20804417e-02  2.48474218e-02
  -2.07029544e-02 -4.91694286e-02  9.53033194e-02 -7.26559609e-02
  -7.32885599e-02 -4.07156348e-02 -1.38419645e-03  1.07433937e-01
   3.33922133e-02 -6.82711601e-03  1.32274197e-03 -6.25585541e-02
   4.59518358e-02 -7.75569826e-02  8.41167048e-02 -8.50977451e-02
  -3.98205966e-02 -7.54189193e-02  6.07280359e-02  4.42921296e-02
  -5.01168221e-02 -6.83730096e-02  2.10168809e-02 -1.05414674e-01
   3.14120874e-02 -8.58228803e-02 -1.43947648e-02  7.07572773e-02
   3.06607559e-02 -5.15908785e-02 -4.49416228e-02  7.58499652e-02
   7.67472312e-02  2.73666140e-02  8.68683755e-02  2.85568200e-02
   2.39571985e-02 -2.67873332e-02 -3.16726975e-02 -1.26558200e-01
   1.07648941e-02 -7.25303814e-02  1.35123748e-02 -8.10325816e-02
  -7.73189962e-02 -1.17151588e-02 -9.68771428e-02  6.32147714e-02
  -3.74365784e-02 -4.99649532e-02  5.81567660e-02  4.97706011e-02
   4.83155902e-03 -4.79848497e-02  3.81382033e-02 -6.43315613e-02
  -1.18730061e-01 -1.27903996e-02  2.12174002e-03 -2.98175239e-03
   7.66140893e-02 -1.84646752e-02 -8.62433016e-02  1.05699033e-01
   9.92007256e-02 -7.19119012e-02  3.19605134e-02  6.17844313e-02
   1.37170190e-02  3.19087394e-02 -1.65754929e-02  3.47574577e-02
  -2.85969414e-02  5.71001805e-02 -5.12088016e-02 -2.56065037e-02]
 [ 4.10055295e-02  7.77216032e-02  6.96724430e-02  9.75137763e-03
   3.56439166e-02  7.55932927e-02  2.91642919e-02 -1.54009193e-01
  -9.93589461e-02 -9.18959919e-03 -6.37667105e-02 -9.61771831e-02
  -2.39392184e-02 -2.22986400e-01 -8.67387503e-02  1.18633099e-02
   6.18379824e-02  9.16381106e-02  5.55614233e-02 -1.25075534e-01
   1.84142351e-01  8.47613066e-02 -4.71146926e-02 -5.11016510e-02
   7.07525536e-02  1.27584994e-01  8.82288143e-02  7.92485401e-02
  -6.89236447e-02  1.58683658e-02 -5.96223548e-02  1.12733684e-01
   6.98528960e-02  1.08934834e-03 -7.55707994e-02  9.85783637e-02
  -1.98466390e-01  4.83701676e-02 -4.44773175e-02  9.73873958e-02
   1.26338014e-02  1.02827303e-01  5.31546883e-02 -3.70733589e-02
   1.42336935e-01 -7.79083446e-02  2.38839593e-02  1.50596723e-01
   2.31903419e-03 -1.02842659e-01 -1.15100220e-02  1.00694366e-01
   1.15306638e-01  4.81067859e-02  1.56106204e-01 -7.23603219e-02
  -6.01875000e-02 -9.70595255e-02 -9.38705876e-02  1.12440586e-01
  -2.30605565e-02 -4.98404279e-02 -5.13808578e-02  8.58444497e-02
  -3.15129012e-02  1.68630295e-02  1.22957662e-01 -8.55363831e-02
  -1.30058825e-02 -7.00367466e-02  2.50457197e-01  5.07412851e-02
  -2.97055785e-02 -2.09776044e-01  2.52535404e-03  6.49201823e-03
   3.32220905e-02 -5.86527735e-02  9.25119519e-02 -4.00394015e-03
   3.73856388e-02 -6.89553693e-02  4.61967178e-02  2.18084842e-01
  -5.64745292e-02  1.67911530e-01 -1.81240903e-03  4.42137681e-02
   2.44979069e-01 -1.07687019e-01  1.50043398e-01 -2.13570610e-01
  -3.80035229e-02 -5.01984432e-02 -1.62685201e-01 -4.79676016e-02
  -7.14809075e-02  2.62833759e-02 -1.31729096e-02  1.00338183e-01
  -1.89930145e-02 -1.48690656e-01 -2.82642655e-02  5.78187928e-02
   1.11239046e-01  8.09857100e-02  1.76181924e-02  4.36251648e-02
  -1.98508143e-01 -1.39720976e-01  9.06911492e-02  2.25638270e-01
   5.34805357e-02  1.88087463e-01  3.49737443e-02  2.25859702e-01
   2.48443913e-02  4.95003648e-02 -2.23463811e-02  4.33817133e-02
   5.66154346e-02 -3.09823062e-02 -3.20442766e-02  2.37482060e-02
  -6.33521229e-02  2.66628355e-01 -1.94025878e-02 -5.76919764e-02]
 [-2.58589424e-02 -4.70700637e-02 -2.38000397e-02  5.20406514e-02
   8.02559331e-02 -5.00748493e-03 -6.65916130e-02 -1.44629134e-02
  -7.16618076e-02  3.22101712e-02 -1.28292114e-01  1.27084795e-02
  -5.28710634e-02 -4.98314872e-02 -8.84950235e-02  4.60458957e-02
   1.32434413e-01  6.22533932e-02 -8.07586685e-02 -1.53963730e-01
   1.54448763e-01  3.12470216e-02 -2.02500410e-02  4.80280742e-02
  -7.31758326e-02  1.86050326e-01  1.41668506e-02 -2.81896498e-02
  -5.47120310e-02  8.85760039e-03  8.97567272e-02  7.20677525e-02
   1.02243468e-01  3.04573756e-02 -7.93916062e-02  7.97943696e-02
  -1.99733958e-01  8.74367505e-02 -3.80770080e-02  3.74566540e-02
   5.73280640e-02  1.10883802e-01 -4.38402779e-02 -8.96287039e-02
   1.01752840e-01  7.87295252e-02 -9.08460245e-02  9.69382823e-02
   1.50626758e-02 -1.79896086e-01 -7.70238116e-02  9.68954265e-02
   1.53453872e-02  3.14569566e-03  1.13017909e-01 -3.78129110e-02
   1.62394363e-02 -2.69396435e-02 -1.26738101e-01  1.18793167e-01
   5.47393784e-02  5.81568442e-02 -3.57597768e-02  8.50535184e-03
   2.52601244e-02  2.19050478e-02  1.38656288e-01 -4.56045344e-02
   5.42883351e-02 -3.00896186e-02  1.37964219e-01  4.61006090e-02
   4.21551540e-02 -4.67320606e-02 -5.67186810e-02 -4.68972791e-03
  -1.33831752e-02 -5.43273799e-02  1.46149425e-02 -3.15680355e-02
  -4.69744541e-02 -1.16512321e-01 -6.30830899e-02  1.47968054e-01
   2.83174906e-02  8.42125788e-02  2.81259511e-02  5.44072874e-02
   1.59330755e-01 -1.60407692e-01  1.07718922e-01 -1.81477830e-01
  -1.11153789e-01  8.04624707e-03 -8.18741918e-02 -1.49677679e-01
  -5.06523177e-02 -6.90348865e-03 -1.14889339e-01  7.69390538e-02
  -4.26785694e-03 -1.02954075e-01  5.46545070e-03 -7.91126490e-02
   1.00714721e-01 -1.92968640e-02 -4.72729094e-02  1.23207616e-02
  -5.53709939e-02 -8.15832913e-02  4.65589799e-02  1.62362888e-01
  -4.20155786e-02  7.84495175e-02  9.43870023e-02  1.06851496e-01
   4.21612635e-02 -1.06312588e-01 -1.12883106e-01 -6.39578933e-03
   7.85978362e-02 -2.82128528e-02  1.84422336e-03  1.95388440e-02
   1.22519359e-02  1.60614207e-01 -7.74325281e-02 -3.81689630e-02]
 [-2.79539973e-02  7.18563572e-02  1.14499114e-01  8.79495591e-02
  -6.43183989e-03  9.07368213e-02  3.58368121e-02 -2.76583601e-02
  -1.72634229e-01  3.67306843e-02  7.45315775e-02 -1.34510115e-01
   7.93887153e-02 -1.11009650e-01  1.16023291e-02  1.87911004e-01
  -1.39002986e-02  1.69344574e-01  8.71236324e-02 -1.58952296e-01
   1.76354378e-01 -3.36638838e-02 -1.44825727e-01 -2.20201723e-02
  -7.66860247e-02  1.13265671e-01  2.25194748e-02  4.38071378e-02
  -1.90233830e-02 -9.65047330e-02  2.71056984e-02  1.42822981e-01
  -7.44366720e-02 -1.13142960e-01 -9.55657884e-02  5.45045584e-02
  -6.85119927e-02  1.19076528e-01 -9.20527056e-02  9.64465588e-02
  -2.59671230e-02  2.16784298e-01 -1.82042923e-02 -6.09117076e-02
   1.39061555e-01  6.47460073e-02 -2.01625600e-01 -4.71558347e-02
  -3.90881114e-02 -2.03399897e-01  9.40007865e-02  1.07322767e-01
  -5.89920841e-02 -3.25537026e-02  1.67217299e-01 -8.92022774e-02
  -5.12923449e-02 -5.30591346e-02 -1.00202523e-01  1.78914979e-01
   9.34576057e-03  7.09274486e-02 -2.04125464e-01  7.87620395e-02
  -6.62265420e-02  4.14956398e-02  2.16238186e-01 -1.42931893e-01
   1.25101162e-03 -1.16138175e-01  2.15768173e-01  4.55811694e-02
   8.69591013e-02 -1.25966206e-01  1.40074342e-02 -6.85360432e-02
  -3.68865244e-02 -8.09363648e-03  8.16688058e-04  7.19708279e-02
   1.52826179e-02 -2.67982818e-02 -5.72471239e-04  1.15519799e-01
   2.48200949e-02  1.45730570e-01 -1.24639366e-02  4.48216647e-02
   2.21155528e-02 -2.10508585e-01  2.59644091e-01 -1.40126988e-01
   2.16172356e-02  8.17056745e-03 -1.57499760e-01  8.03036243e-02
  -1.81775391e-01 -2.74429005e-02  4.51948084e-02 -2.57371478e-02
  -1.43391326e-01 -1.69944808e-01  1.06696054e-01  1.81457847e-02
   1.51212066e-01  1.36136934e-01  1.11126937e-01  1.27302958e-02
  -6.40757829e-02 -1.06313176e-01  6.49762899e-02  1.52726203e-01
  -8.02030936e-02  1.33632302e-01 -4.02642265e-02  9.89306644e-02
   1.89392492e-01 -1.88621938e-01  6.73560367e-04 -7.03747347e-02
   5.28028654e-03 -1.58204623e-02 -3.92719917e-02  5.79289757e-02
   2.53927317e-02  1.13590591e-01 -8.60077795e-03  6.87633678e-02]
 [-6.66073263e-02 -3.01535409e-02  1.17485724e-01  5.92770241e-02
   1.04968488e-01  1.60407141e-01 -4.55367118e-02 -2.03546975e-02
  -1.27298906e-01  1.44145235e-01 -3.87473553e-02 -5.71183451e-02
   1.09516382e-01 -1.82822794e-01  1.99493721e-01  1.93536699e-01
  -1.33257881e-01  1.50475040e-01 -9.62235685e-03 -1.36416674e-01
   8.12223703e-02  2.11142674e-02 -1.02617651e-01 -4.11071256e-02
  -5.62900342e-02  1.35660246e-01 -4.20591887e-03 -1.43352933e-02
   3.05515360e-02 -3.07248458e-02  3.93630825e-02  8.36239830e-02
  -1.67441312e-02 -1.03549682e-01  3.20254602e-02  2.01299250e-01
  -6.11616485e-02  1.41342536e-01 -4.83383462e-02  8.03900808e-02
   9.76492018e-02  2.26479128e-01 -1.24705331e-02  1.56424455e-02
   2.17089608e-01 -5.40926345e-02 -9.73073319e-02 -1.06843181e-01
  -9.90319476e-02 -1.74071193e-01 -3.45680155e-02  2.31878757e-01
   6.74572587e-03  9.25816819e-02  8.99851471e-02 -1.03599019e-01
   3.43336239e-02 -4.79576662e-02 -1.04165778e-01  7.63543993e-02
   2.25439221e-02 -5.15226237e-02 -1.37680560e-01 -8.32101926e-02
  -8.91578384e-03  3.17461230e-02  1.68607265e-01 -1.97995797e-01
  -3.40378061e-02 -1.58172205e-01  1.45820215e-01 -8.30916464e-02
   9.11936462e-02 -2.45836042e-02  4.33433913e-02 -2.47495268e-02
  -7.20129013e-02  1.56255960e-02 -1.94477085e-02 -7.15439692e-02
   2.19674148e-02  4.89061624e-02 -4.76863794e-02  1.90267816e-01
  -6.07258268e-02  1.01388723e-01  6.05547950e-02  1.79865137e-01
   1.04538962e-01 -2.71875799e-01  1.91834033e-01 -1.93616569e-01
  -6.15858920e-02  6.80455118e-02 -1.09523155e-01 -6.67309016e-02
  -8.75544026e-02 -5.65465614e-02 -5.49244247e-02 -4.15928150e-03
  -6.92083389e-02 -2.70920336e-01  6.43519983e-02  1.93658983e-03
   1.98168933e-01  4.78628948e-02 -1.98711846e-02 -3.29404846e-02
  -7.92483985e-02 -1.53008848e-01  1.35839239e-01  1.52805716e-01
  -3.17335948e-02  2.25940526e-01 -1.28459424e-01  2.62040794e-01
   2.11259484e-01 -7.20289424e-02  1.63770720e-01 -9.43908095e-02
   1.07609779e-01 -6.92414492e-02 -3.28674205e-02 -4.50996123e-02
   1.07008100e-01  1.15812257e-01 -2.99224984e-02  1.21215306e-01]
 [ 4.28213589e-02 -4.46087681e-02  4.36116345e-02  1.94218859e-01
   1.97431058e-01  1.42913029e-01 -9.04633924e-02 -1.76157817e-01
  -4.20723110e-02 -5.51766343e-03 -5.09128496e-02 -1.57227181e-02
   4.46011918e-03  3.46812680e-02  2.17526332e-01  1.46858230e-01
  -1.78967655e-01  2.16512397e-01  5.42318728e-03 -9.90968645e-02
   7.35602826e-02 -6.38890788e-02 -1.36432305e-01 -1.02272309e-01
   6.71100542e-02  8.17650184e-02  1.88257113e-01 -7.79071003e-02
   1.00668315e-02 -7.25976676e-02 -4.24951352e-02  2.07225934e-01
  -2.15104148e-01 -2.37696528e-01 -1.25370428e-01  2.80356050e-01
  -2.92877760e-02  7.66944960e-02 -7.56283551e-02  1.73235625e-01
  -1.00025693e-02  1.62989751e-01  5.81808984e-02 -7.19104931e-02
   4.22677882e-02 -6.23418204e-02 -2.55798072e-01 -4.54440080e-02
  -3.15259025e-02 -2.10392594e-01 -4.58342396e-02  3.54171246e-01
   1.89392120e-01  1.36735633e-01  1.25674054e-01 -2.95367986e-02
  -7.54495487e-02 -2.45505795e-02 -1.49956703e-01  3.92849594e-02
   2.48709451e-02  5.60208689e-03 -1.42797649e-01  5.41391894e-02
   4.33117785e-02  1.18806958e-02  7.21492916e-02 -2.06929982e-01
   9.52462479e-02 -3.72688696e-02  3.02192181e-01 -5.84290400e-02
   1.80532429e-02 -1.44980207e-01 -7.85370618e-02 -6.40529469e-02
  -6.77924156e-02 -6.77380189e-02  1.16289347e-01  1.55910077e-02
   6.96521103e-02 -7.67171606e-02  4.26000394e-02  1.41826764e-01
  -2.91859545e-02  8.33932310e-02  2.22232282e-01  5.57408519e-02
  -1.30963147e-01 -4.69125956e-02  1.25911757e-01  1.29418690e-02
  -3.14257592e-02 -1.40563712e-01  7.55000859e-02 -1.03295617e-01
   3.18197943e-02 -1.68125346e-01 -8.54092613e-02  3.33820917e-02
  -2.47378483e-01 -1.19234711e-01  2.57420957e-01 -9.97806787e-02
   2.43703932e-01  1.34539932e-01  1.31148532e-01 -8.62001628e-02
  -6.85587600e-02 -1.89729109e-01  6.79329969e-03  2.25414276e-01
  -1.17800787e-01  1.05191857e-01 -1.80434749e-01  5.17352670e-02
   1.48648068e-01 -9.23357606e-02  1.77349448e-01 -3.16809304e-02
  -5.70713766e-02  5.00293709e-02  5.27237765e-02 -7.97923952e-02
  -7.03856349e-03  1.10312887e-01 -2.81390578e-01  1.48149759e-01]
 [-1.76953733e-01 -1.16816401e-01  1.16203323e-01 -5.43506518e-02
   3.47472608e-01  1.47777665e-02  3.20055871e-03 -2.11096987e-01
   1.05928801e-01 -1.80736825e-01  1.50723919e-01  1.83951542e-01
  -4.37079370e-03  4.18306962e-02  2.55749285e-01  1.25616029e-01
  -1.84765697e-01 -5.65835722e-02 -5.41305952e-02 -1.74320370e-01
  -5.81442937e-02  2.01163944e-02 -1.56678595e-02 -1.29605711e-01
  -3.93647328e-02 -2.25522399e-01  1.62966162e-01  3.59669141e-02
   1.36562631e-01 -3.83424498e-02  1.70658439e-01  1.85136706e-01
  -3.18079174e-01 -2.89343983e-01 -1.89789161e-01  3.26830119e-01
  -4.40907218e-02  8.55824202e-02 -6.59745261e-02  3.51263490e-03
  -9.17856321e-02  3.18202674e-02  6.40189787e-03 -2.38389689e-02
   1.76724847e-02  2.08886266e-02 -2.66993344e-01  1.72478035e-01
  -5.28161712e-02 -3.13139617e-01  1.66232493e-02  2.67716846e-03
   3.96961607e-02 -5.49625009e-02  5.41800112e-02  7.10582361e-02
  -7.39083365e-02  6.50817603e-02  9.14564729e-02 -6.81728050e-02
   5.79226688e-02  7.83469900e-02 -2.72465348e-01  1.21942803e-01
   5.60732819e-02 -1.09760650e-02  7.88527355e-02 -1.45170301e-01
  -9.94608328e-02 -5.48193268e-02  3.17104518e-01 -5.03014624e-02
   5.94733767e-02 -6.69877604e-02  2.23504201e-01 -4.24500406e-02
  -3.47241536e-02  2.62622386e-02  1.77657545e-01 -7.74118528e-02
  -4.27494902e-04  7.78417150e-03  2.01714281e-02  1.62231237e-01
  -4.97436058e-03  5.95332347e-02 -3.46238390e-02  3.46291251e-02
   3.59526902e-01 -5.72111942e-02 -2.59052962e-01  1.56039312e-01
   2.68898569e-02 -1.45098254e-01  3.78908142e-02 -3.62038277e-02
  -7.38662705e-02 -7.17294738e-02 -9.47990716e-02  2.85717212e-02
  -1.03397608e-01  1.53977185e-01 -6.95042759e-02  1.90263227e-01
   2.33025119e-01  9.63099003e-02  7.25700855e-02 -3.83817777e-03
   1.40293717e-01  1.49985999e-01 -1.21826619e-01 -1.06885806e-01
  -1.25348791e-01  2.67408669e-01  7.76197091e-02  2.45569214e-01
   2.83385545e-01 -2.79010266e-01  2.57817477e-01 -8.35621804e-02
  -3.89922410e-04  6.67130277e-02 -6.00255951e-02 -1.23662055e-02
   4.40471284e-02 -4.14263643e-02 -2.44807407e-01 -1.84368804e-01]
 [-1.97386533e-01 -1.47268265e-01  2.93725997e-01 -1.29727989e-01
   3.86629641e-01  5.88506721e-02 -3.29207554e-02 -1.86144158e-01
   1.31492510e-01 -2.09958255e-01  1.20162517e-01  4.67825979e-02
  -8.60086903e-02 -1.06875442e-01  2.83248514e-01  1.86667874e-01
  -6.59649319e-04  1.88750029e-02 -1.01132482e-01 -1.36885688e-01
  -3.87305650e-03  7.77611360e-02  8.91169067e-03 -1.61962852e-01
  -2.67779566e-02 -2.15480179e-01 -7.72704259e-02  2.21529510e-02
  -1.34840935e-01 -2.80894507e-02  2.54927993e-01  3.44594538e-01
  -1.98178947e-01 -1.39257446e-01 -1.90852463e-01  5.35986781e-01
  -1.27283677e-01  1.43390760e-01  8.34424123e-02 -1.15495801e-01
   3.04317195e-02  2.06218466e-01 -6.68139085e-02 -6.77789450e-02
   1.10212311e-01 -1.89631321e-02 -1.99939251e-01  1.73762679e-01
   1.71022397e-02 -2.10849553e-01  8.86412114e-02  4.91682477e-02
  -1.08424183e-02 -8.06813240e-02  2.02773258e-01 -9.82275456e-02
  -1.57612674e-02  1.69226713e-02  2.05797166e-01  8.25730562e-02
  -1.29765943e-02  7.22202137e-02 -1.69936866e-01  2.41318733e-01
  -5.33960722e-02 -1.98604017e-02  3.80443215e-01 -3.20659876e-01
  -1.04419395e-01 -1.69892475e-01  4.08380479e-01 -6.42742515e-02
   1.05760314e-01 -1.35158882e-01  1.38796210e-01  1.32360933e-02
   2.70426576e-03  1.86313748e-01  2.51604706e-01 -1.16855092e-01
  -6.84455559e-02 -6.80492595e-02  6.67974353e-02  3.36106598e-01
  -1.20417945e-01  2.31537938e-01 -4.69453968e-02  2.16081023e-01
   4.73171383e-01 -2.34125137e-01 -1.97131321e-01  5.61064184e-02
   6.85281456e-02 -4.90743443e-02 -7.04451511e-03 -7.80310109e-02
  -3.11788142e-01  3.56160402e-02 -1.27730832e-01  1.36261340e-02
  -1.25378639e-01 -1.05032176e-02 -5.50664999e-02  1.89149112e-01
   4.47330564e-01  1.68612137e-01  1.26437932e-01 -6.85760984e-03
   8.71630162e-02 -2.11839564e-02 -1.26446430e-02  5.48858084e-02
   2.14569573e-03  4.74124700e-01  7.60462135e-02  2.83575565e-01
   2.99109757e-01 -2.04458609e-01  1.15804695e-01 -3.23163830e-02
   8.07250813e-02  1.03872679e-01 -1.36238381e-01 -7.19102286e-03
   2.27368519e-01 -5.42254224e-02 -3.45906079e-01 -1.19360372e-01]
 [-2.83689946e-01 -1.16196960e-01  2.74321049e-01 -1.79782528e-02
   4.17980283e-01  4.53363568e-01  1.69472012e-03 -1.44674793e-01
   1.36587709e-01  4.26545292e-02 -1.06050961e-01  4.05053124e-02
  -9.41211917e-03 -2.26930380e-01  3.17181349e-01  2.90437192e-01
  -6.40606433e-02 -1.75952286e-01 -8.40383321e-02 -1.81031153e-01
   5.27523421e-02  9.53044221e-02  2.40001362e-02 -1.93226516e-01
  -1.26222605e-02 -1.43009722e-01 -3.32775079e-02  2.45779008e-03
  -1.19278014e-01  6.33759871e-02  2.31775686e-01  1.67573392e-01
  -2.63192922e-01 -2.84498166e-02 -1.47394046e-01  1.57091931e-01
   1.60044625e-01  2.46335790e-01 -3.49186286e-02 -1.08245291e-01
   1.12544999e-01  3.78490388e-02 -8.16341639e-02 -6.86238036e-02
   1.63960949e-01  2.51813885e-02  1.68188885e-01  2.67702252e-01
  -6.27276301e-02 -2.44731069e-01  1.06702797e-01  1.68307349e-01
  -2.14766175e-01 -1.14676073e-01 -2.66740732e-02 -5.57413511e-02
  -3.01128544e-04 -1.28793502e-02  9.68675911e-02 -1.98185332e-02
  -1.53763862e-02  1.08577885e-01 -2.20992357e-01  1.15634300e-01
  -1.46973580e-01 -1.01506256e-01  5.60943663e-01 -2.07217723e-01
  -1.04693763e-01  2.23330334e-02  3.10893267e-01 -1.08898588e-01
  -8.12658817e-02 -1.35803550e-01  2.35243827e-01  1.40944317e-01
  -6.31530881e-02  1.25968486e-01  1.23703085e-01 -1.72759593e-02
  -1.02238499e-01  2.54708007e-02  7.14811385e-02  5.82651317e-01
  -1.90660536e-01  2.34940723e-02  1.94960624e-01  2.01963440e-01
   3.27485174e-01 -1.34400591e-01  4.73916903e-02 -5.45697547e-02
   1.38219625e-01 -8.85233935e-03 -2.35354695e-02  1.49034977e-01
  -5.95776625e-02  5.21854833e-02 -2.24537845e-03  9.99297667e-03
   3.21328379e-02  6.95313439e-02 -1.75942257e-01  2.04721868e-01
   2.83746213e-01  2.06795290e-01  1.41414762e-01 -6.98125586e-02
   6.75001964e-02  1.14266649e-01  9.43027213e-02  6.97316453e-02
  -1.54419258e-01  1.75335005e-01 -1.07469084e-02  9.45518464e-02
   2.09987998e-01 -1.79223835e-01  2.11063586e-02 -1.60333291e-01
   1.89779758e-01 -1.96325302e-01 -2.78393239e-01  3.45667712e-02
  -8.42893124e-03 -1.20383359e-01 -2.37464979e-01 -1.10508487e-01]
 [ 6.55943155e-02  7.91600347e-02  4.33119126e-02 -1.09197766e-01
   2.76252210e-01  5.16740903e-02 -8.61841887e-02  1.96523190e-01
  -1.76144652e-02  2.32020795e-01  8.57234374e-02  6.16425723e-02
  -2.95697544e-02  5.70052005e-02  1.07192203e-01 -1.39771610e-01
  -1.99884951e-01 -1.46990433e-01 -2.72379756e-01 -9.66044292e-02
  -1.07463554e-01  1.28190428e-01  8.72371197e-02 -9.03898999e-02
   5.94220981e-02  6.19754158e-02  1.92497611e-01  2.12402552e-01
  -3.13245237e-01 -1.53034576e-03  7.29098096e-02  5.61932176e-02
  -2.39107952e-01 -7.98417330e-02  4.03729469e-01 -2.57028461e-01
   8.61720890e-02  2.51692265e-01  7.85927400e-02 -1.81703255e-01
  -1.76322162e-01 -1.46951914e-01  4.31035943e-02  1.22969501e-01
  -1.31123438e-01  4.57438856e-01  4.47816215e-02  2.53073037e-01
   1.36352424e-02 -7.23513141e-02  2.77345896e-01  2.21961319e-01
   2.82900512e-01  4.61774366e-03 -1.26456216e-01  1.22372776e-01
  -4.21158969e-02 -1.16874967e-02 -1.23138011e-01 -1.17673688e-01
   1.04483232e-01  1.03963770e-01  1.03428448e-03 -1.74412161e-01
  -1.52991628e-02  1.88431442e-01  4.55368847e-01  2.14505605e-02
   2.52595767e-02  1.78702846e-01  3.13393846e-02 -2.18562514e-01
  -8.92466307e-02 -1.55734539e-01 -2.06639664e-03  1.04477882e-01
   6.85035065e-02 -1.28126979e-01  1.90361425e-01 -1.88320018e-02
   9.27239284e-03 -3.12483907e-02  1.11512579e-01  3.02237272e-01
   1.75965726e-01 -1.26898453e-01  1.87913045e-01 -7.69816265e-02
   2.13366002e-01  8.82072598e-02 -6.09557368e-02  4.48601991e-02
   2.07376964e-02 -2.15863287e-01  3.59794647e-02  1.55181170e-01
   1.49284452e-01  2.44055286e-01  1.68095917e-01 -2.58238018e-01
  -1.88186437e-01  2.46399134e-01  1.31894117e-02  2.65169274e-02
  -1.62856027e-01 -1.03412010e-01 -2.49815553e-01 -5.38915209e-02
   1.80704147e-01  1.45858124e-01 -1.06743220e-02 -1.92538187e-01
   2.74394482e-01 -1.02356531e-01 -2.93745399e-01 -3.37297022e-01
  -3.30141068e-01 -1.83719456e-01  2.98681259e-01 -1.39905840e-01
   1.56271443e-01  1.94393530e-01 -1.90986618e-01 -2.70463323e-04
  -2.35219792e-01 -4.27975804e-02  1.15553804e-01 -3.00375521e-02]
 [-8.99916366e-02 -4.78674099e-02  2.33327061e-01 -1.89729616e-01
   3.85756314e-01 -3.10324598e-02 -2.54340898e-02 -9.58738774e-02
   8.77113938e-02  8.34223256e-02 -4.19762060e-02  1.77022994e-01
   3.52371708e-02 -2.67782986e-01 -1.73044264e-01 -3.59179229e-02
  -8.17816034e-02  8.68133083e-03 -1.85474694e-01 -8.91847983e-02
  -1.90567777e-01 -3.26311328e-02 -3.80097538e-01  2.14392886e-01
   5.25865406e-02 -3.03175509e-01  2.09204331e-01  2.22652808e-01
  -3.46206695e-01 -5.51343113e-02  1.70596018e-01  2.11296290e-01
  -3.82529050e-02 -7.64294192e-02  1.13452598e-01  1.69791386e-01
  -3.45493346e-01  4.47058499e-01  7.98411891e-02  1.09285172e-02
  -1.11396790e-01  7.59828240e-02  1.04602464e-01  3.24334875e-02
   2.18285471e-01  1.85344353e-01 -1.09914489e-01  2.17505261e-01
  -6.32313564e-02 -1.97196037e-01  2.03590512e-01  2.22409293e-01
  -8.37958232e-02 -5.12736477e-02  1.01517648e-01 -4.17545438e-01
   3.01497102e-01 -6.09903969e-02 -9.63331461e-02  2.89151073e-01
   3.24786156e-02  3.71975340e-02 -3.82500105e-02  9.32172835e-02
  -2.21322663e-02  2.39843413e-01  4.69965816e-01 -1.61511824e-01
   1.53123084e-02 -2.29245618e-01  2.03739986e-01 -1.56848595e-01
  -1.17902216e-02 -1.19068250e-01  1.36012614e-01  8.56891498e-02
   4.23052832e-02  3.94143127e-02  2.97523975e-01  2.78433003e-02
  -1.09928083e-02 -5.00385314e-02  1.65736213e-01  2.14739621e-01
  -1.04394831e-01  3.96215886e-01 -3.04779321e-01 -4.33250610e-03
   4.40286785e-01 -2.60685474e-01 -2.51391172e-01 -1.71305522e-01
  -1.23833574e-01 -8.90213847e-02 -8.87024216e-03 -1.55523241e-01
  -2.72033095e-01  3.02634120e-01  1.50826067e-01 -1.87632859e-01
  -1.15177453e-01 -1.32841915e-01 -1.16743572e-01  1.61195174e-01
   1.09017275e-01 -5.37947640e-02 -1.08744144e-01  5.48932776e-02
  -1.07494794e-01 -4.47220922e-01 -9.82519612e-02  2.03784853e-01
   3.19914073e-01  4.56036627e-01 -2.01458976e-01  7.26483911e-02
  -4.63465601e-02 -5.29253669e-02  1.99747622e-01 -6.23196997e-02
   1.79340243e-01  2.76227623e-01 -1.59770265e-01  1.32611692e-01
   2.35738769e-01  1.10998124e-01  2.22087562e-01 -2.75116295e-01]
 [-1.91704676e-01 -2.78191447e-01  4.87381041e-01 -2.02871248e-01
   3.11891347e-01 -1.30811021e-01 -9.00185760e-03 -2.43924588e-01
   1.48678839e-01 -3.86897713e-01 -1.89685911e-01  2.86765367e-01
  -8.26072916e-02 -1.02015018e-01 -1.39585987e-01  1.11098655e-01
   2.29378492e-01 -1.28306895e-01 -8.89618024e-02 -1.34021878e-01
  -1.06000803e-01  4.99616154e-02 -2.21442357e-01 -2.36221938e-03
  -7.01044723e-02 -1.86399534e-01 -1.40947685e-01  4.33474034e-03
   3.04877404e-02 -6.12100922e-02  2.96601921e-01  7.44333938e-02
   2.43765190e-01  1.92496687e-01 -6.57437369e-02  2.24712282e-01
  -3.47849578e-01  2.04590205e-02  3.54112722e-02  1.11789867e-01
  -1.64771944e-01  2.96528578e-01  3.25483054e-01 -9.12586525e-02
   1.91861987e-01 -2.66591609e-01  1.06826060e-01  6.53538257e-02
   9.32401139e-03 -2.62412339e-01  1.75765038e-01  1.55281276e-01
  -1.34827897e-01 -3.98221500e-02  3.39881152e-01 -1.58548087e-01
   3.33451033e-01 -1.70252562e-01  3.04028600e-01  3.23304504e-01
   7.70464689e-02  3.86533886e-02 -6.01450838e-02  2.82987535e-01
  -4.90535237e-02  2.53278837e-02  7.32407719e-02 -7.27624297e-02
  -5.57867694e-04  1.54172629e-01  2.70608693e-01  5.40487189e-03
   2.47164637e-01 -2.14838877e-01  9.32450891e-02 -1.92260612e-02
   1.68931156e-01  3.16327512e-01 -1.10681936e-01 -6.40121326e-02
  -1.36141241e-01 -9.76159945e-02  1.71213094e-02  4.37376916e-01
  -2.65188634e-01  2.30895683e-01 -2.04861194e-01  1.73094168e-01
   3.82956892e-01 -2.69307315e-01 -4.03521359e-01 -9.82391555e-03
  -2.80214459e-01 -6.87441528e-02 -7.19248317e-03 -1.48915246e-01
  -2.40188077e-01 -3.81666585e-03  1.39262050e-01  9.09484848e-02
  -2.13551167e-02 -2.24776193e-02 -6.68770969e-02  1.00877017e-01
   2.41526887e-01  6.01918474e-02  2.82831758e-01  5.18661477e-02
   8.70466232e-02 -2.18042180e-01  1.06882297e-01  2.64736563e-01
   1.40150502e-01  5.59487641e-02 -1.17800809e-01  2.72954732e-01
   2.13674113e-01 -4.05645445e-02  1.93744048e-01 -1.87463820e-01
   5.53660318e-02  1.55540064e-01 -1.13242894e-01  2.14088157e-01
   1.94641829e-01 -6.38073087e-02  1.02301560e-01 -2.44492948e-01]
 [-1.97896376e-01 -3.33924085e-01  5.60903192e-01 -6.85104728e-02
   3.81869107e-01  3.01412027e-03 -2.58112755e-02 -1.84452340e-01
   2.54813999e-01 -2.54736334e-01 -1.01315707e-01 -3.90132591e-02
  -1.55678904e-03 -1.35400221e-01 -1.38871118e-01  4.68388684e-02
   1.96800977e-01  6.41070232e-02 -1.42382547e-01 -1.35670945e-01
  -5.18502630e-02  3.48011367e-02 -2.92964429e-01  1.13921827e-02
  -3.91085818e-02 -2.18216270e-01 -2.03997687e-01 -1.06576443e-01
  -5.60660893e-03 -1.77123342e-02  1.68168277e-01  3.26059937e-01
   6.61294460e-02  3.72666657e-01 -1.41703784e-01  3.57437283e-01
  -2.44254053e-01  1.29623860e-01  6.23755483e-03  1.18232228e-01
  -4.90705930e-02  3.48558605e-01  3.05858642e-01 -6.81378506e-03
   2.99904764e-01 -1.19702779e-01  1.71943679e-01  3.34558263e-02
   2.02103611e-02 -3.23115468e-01 -5.99488569e-03  1.70501098e-01
  -1.69569939e-01 -1.36836424e-01  3.14386785e-01 -8.18806514e-02
   3.50696504e-01 -1.41747177e-01  3.18948835e-01  2.45128289e-01
   1.06242761e-01  1.54300965e-02 -1.87220294e-02  1.53898224e-01
  -8.01930949e-02 -2.28239633e-02  2.70512491e-01 -1.63475856e-01
  -1.90678556e-02 -6.51697814e-03  3.08589011e-01 -6.33592233e-02
   3.33723366e-01 -2.32394442e-01 -3.64140011e-02  4.66373079e-02
  -5.21151461e-02  5.15753388e-01 -1.12220876e-01 -3.23715955e-02
  -5.63167781e-02 -2.32890435e-02  6.92250729e-02  6.61053836e-01
  -2.70874739e-01  2.85529256e-01 -1.45397767e-01  3.34115416e-01
   3.45102280e-01 -2.15481833e-01 -3.27202499e-01  3.94674838e-02
  -1.91957846e-01 -2.68002115e-02 -9.44546014e-02 -1.37972012e-01
  -1.93662927e-01  2.46701427e-02  2.49362141e-02  4.43478189e-02
   6.57698512e-02  2.62157489e-02 -1.20861463e-01  1.76234767e-01
   2.44934678e-01  1.66975513e-01  4.02111799e-01  8.53603035e-02
   6.11359365e-02 -3.80407870e-01  2.39444092e-01  2.92094380e-01
   1.88806504e-01  3.10081065e-01 -7.30497986e-02  2.82765538e-01
   1.92714185e-01  2.16736514e-02  1.86837360e-01 -7.53177404e-02
   6.90885931e-02  1.75343558e-01 -6.77192956e-02  8.45035762e-02
   2.54008532e-01 -3.93310189e-02 -2.31096428e-02 -1.35939136e-01]
 [-1.07738115e-01 -1.78335205e-01  3.86225194e-01  2.74435610e-01
   1.83510289e-01  1.80484667e-01 -3.84562537e-02  4.52158712e-02
  -2.99835112e-02  2.02818856e-01 -2.14063719e-01 -2.79229105e-01
   1.77455023e-02 -2.35480830e-01  2.35764846e-01  8.42879415e-02
   2.82459240e-02  3.81375343e-01  2.14299425e-01 -2.58288532e-01
   2.51934379e-01  1.78250268e-01 -2.78862894e-01  1.62638396e-01
  -1.45615116e-02  1.42227009e-01 -3.29270847e-02 -2.43425518e-02
  -1.34102181e-02 -2.89072674e-02  2.48809114e-01  2.55797267e-01
  -2.61219829e-01  9.93956625e-02  6.25353009e-02  3.38004798e-01
  -8.74728039e-02  1.80601478e-01 -6.31485954e-02  2.95525938e-01
   1.99672669e-01  2.97537476e-01  8.25791359e-02 -1.17155239e-01
   2.02508450e-01 -1.86761454e-01 -7.34066963e-02  8.00718740e-02
  -2.42759325e-02 -4.37645823e-01  9.36987810e-03  2.39844859e-01
   2.15334982e-01 -6.17976710e-02  3.12137306e-01 -1.71483681e-01
   4.78127711e-02 -9.90520716e-02 -1.91706479e-01  2.57470071e-01
  -7.68740028e-02  1.27442569e-01 -4.87453043e-02 -1.49068246e-02
   2.74896459e-03  8.10178146e-02  2.31360465e-01 -2.28760749e-01
  -1.57759055e-01 -4.59017791e-02  3.70727956e-01 -3.56531404e-02
   1.73185930e-01 -2.00036079e-01 -6.09309450e-02 -1.24497637e-01
  -6.98336214e-02  3.57706025e-02  8.06562155e-02 -3.83747146e-02
  -3.01827937e-02 -1.26439869e-01 -2.19330601e-02  2.63045013e-01
  -1.16992809e-01  3.07149053e-01  1.25874341e-01  3.22893351e-01
   1.26492977e-01 -2.90832043e-01  8.48526955e-02 -1.51141956e-01
  -1.54786393e-01 -1.63032398e-01 -1.60955824e-02 -8.94730762e-02
   5.43676093e-02  5.19490149e-03 -5.48890047e-02  1.68801472e-01
  -1.80100143e-01 -1.74593866e-01  3.71645629e-01 -1.48053259e-01
   2.94953406e-01  1.73113883e-01  2.04862803e-01  2.82972958e-02
  -2.69089848e-01 -2.89671153e-01  2.60624915e-01  3.84120256e-01
  -1.03316881e-01  3.85243148e-01 -1.21927671e-01  2.62021154e-01
   2.41226360e-01  1.17909499e-02  1.57820523e-01  8.09535291e-03
   1.80584341e-01 -3.32173072e-02 -6.10884987e-02  4.86108623e-02
   2.79747248e-01  3.76816124e-01 -1.80319205e-01  1.27597049e-01]
 [ 5.67040360e-03  3.55963537e-04  2.42540866e-01  2.57597685e-01
   1.76676348e-01  2.48008877e-01 -7.86281154e-02 -3.05497255e-02
  -4.08547185e-02  3.83929908e-01 -3.28918725e-01 -3.01005691e-01
  -7.86449686e-02 -3.23498249e-01  4.09034314e-03  2.90643007e-01
   2.19244823e-01  3.50533068e-01  1.09542504e-01 -1.09216355e-01
   2.08246067e-01  1.67446099e-02 -2.91227043e-01  4.08901483e-01
  -7.67382383e-02  6.63964227e-02  7.69222751e-02  1.03653476e-01
  -2.94177711e-01 -7.17308894e-02  3.25800776e-01  9.09657851e-02
  -6.23960495e-02 -1.46698412e-02 -2.10881457e-01  2.47222081e-01
