embedding/embeddings:0
(26, 2)
[[-0.2625716  -0.1377225 ]
 [ 0.50378996 -0.36981156]
 [-0.43235412 -0.34718657]
 [-0.12000988  0.21868299]
 [ 0.68240947  0.2574865 ]
 [-0.08889912 -0.11598962]
 [-0.5250357  -0.35607228]
 [-0.4205623   0.57539797]
 [-0.45126203 -0.08166701]
 [-0.38043126  0.44031155]
 [ 0.09156425 -0.57841957]
 [ 0.52546334  0.07198419]
 [ 0.5676338  -0.45100787]
 [-0.20340696  0.08219589]
 [-0.39884794 -0.22425455]
 [ 0.36090952 -0.43056345]
 [-0.3271619   0.6728966 ]
 [-0.7156523  -0.13866585]
 [-0.7052859   0.46366084]
 [-0.47940505  0.7689847 ]
 [-0.44410488 -0.43840268]
 [ 0.03406691  0.3134269 ]
 [ 0.58013064 -0.58880097]
 [ 0.5159676  -0.6936033 ]
 [ 0.82233983 -0.55200815]
 [-0.0353582   0.01978463]]
simple_rnn/kernel:0
(2, 10)
[[-1.4123765   0.49588937  0.6676076   0.19737025  0.48927516 -1.1073169
  -0.9432667  -1.2766985  -0.37224725 -1.2181733 ]
 [ 1.0217153  -1.1303463  -1.0060406  -0.78113616  1.0146685   0.32092303
   0.77353615 -0.90680116 -1.0465838   0.53933686]]
simple_rnn/recurrent_kernel:0
(10, 10)
[[ 1.054192    0.26348436 -0.43198353 -0.82158107  0.10208018  0.91403216
   1.0348037   0.21472102 -1.1482219  -0.86605775]
 [-1.1302795  -0.14269063  0.21281901  0.15896781  1.2500328  -0.947078
  -0.40184948 -0.8042459  -0.56684625  0.40539703]
 [-0.14156699 -1.0482256  -0.9396433  -0.02109517 -1.0785002  -1.2842402
  -0.74647826 -0.49691805  0.38389987  0.6455371 ]
 [-0.01293479  0.84286904 -0.11414058  0.0056037   1.0670946  -1.046342
   0.99190867 -0.49313104  0.09211957 -0.6544896 ]
 [-0.9353506   0.8941449  -0.9996285  -0.79331917 -0.93914896  0.38682362
  -0.3520169   0.35975066  0.30063567 -1.429927  ]
 [ 0.12264395 -0.83137274  0.98894787 -0.44652176  0.04175538  0.5251253
  -0.647739    0.4426016  -0.4821857  -0.27708137]
 [-0.0411486   0.6258184   0.78524464 -0.14422241  0.4534052   0.1913342
   0.60086966  1.0404643  -1.2534696  -0.7290852 ]
 [ 0.3192574  -0.02868303  0.5103703  -1.2096107   0.56454086  0.3862763
  -0.3631999  -0.2943691  -1.1273444   0.92570275]
 [ 0.7744912   1.2415622  -0.5324409   0.91857105  0.8616237  -0.42309573
   0.3962202  -0.39745393 -0.31296903  0.37244222]
 [ 0.76097125  0.13179232 -1.2502307   0.46428514  0.08345922  0.0791309
   0.38854596  1.2902106   0.32733643 -0.7585398 ]]
simple_rnn/bias:0
(10,)
[-0.09143426  0.17477174  0.09366444  0.10617904  0.11908237 -0.12127043
 -0.08915473 -0.04040761 -0.03693212 -0.03989675]
dense/kernel:0
(10, 26)
[[-0.03153112 -0.03421203 -0.24362943 -0.07665443  0.65011424 -0.66726375
  -0.8032409   0.74826515  1.1088442   0.53911364  1.2940438   0.23656027
  -1.3250847  -0.6711244  -0.52633166 -0.52640706 -0.66208214 -0.9691898
   0.6316842   1.1731306   1.239693    0.90561366  0.7347628  -1.2297567
  -0.6693472  -1.041079  ]
 [-0.15010428 -0.33343342 -0.30123672  0.14855698  0.5133539   0.36421046
  -1.1260312  -0.7896803   0.3570759   0.7297025  -0.9484115  -1.0858423
  -0.6378034  -1.3099662   0.12974124  0.68246514  0.68790644 -0.3227116
   0.57337517  1.0333799  -1.0614231  -0.4402573  -0.9003896  -0.71490204
   0.47594374  0.9261382 ]
 [ 0.62127537  0.25097823  0.4198789   0.28176066 -1.2808089  -0.5812581
   0.8359198  -0.93631554 -0.8098662  -0.22206146  0.6009405  -0.72649074
   0.3491531  -1.0147488   0.6874909  -0.62864304  0.95800877 -0.8707511
  -0.34508562  0.75570583 -0.7438532   0.5736254   1.0087478  -0.54060555
   0.92386615 -0.72252846]
 [-0.01545458 -0.373712   -0.1037301  -0.02254472  0.37588483  0.922709
   0.00183457  0.7635153   0.80670834 -0.5450175  -0.7654654  -0.89028573
  -0.9853924   0.88798255  0.6043731   0.82756495  0.3533175  -1.0233397
   0.6425426  -0.48526874 -1.0269941  -0.9042909  -0.2110605  -0.48039672
   1.1314511   0.8188628 ]
 [-0.19112399 -0.14320752  0.11014174 -0.14465825  1.0712543   0.9062999
   1.007499   -0.89497983  0.48392665  0.29020572  1.3991045  -0.49749094
  -0.34763074 -0.36448944  0.5418081   0.6981734   0.61550206 -0.74359953
  -0.89352405  0.8664397  -0.9828231  -1.1181698  -1.3146588  -0.90597826
   0.93721944 -0.8591707 ]
 [-0.05195259 -0.45465338 -0.04129422 -0.02233278 -0.66276944 -0.5179271
   0.76086456 -1.3086175  -0.6806633   1.0788922   0.8349376   1.133554
  -0.8089537  -0.94310194 -0.9222178  -0.8342495  -0.41022086  0.39224815
   0.8742129   0.987756    0.6476852   1.0518967   1.0496404   1.0514754
  -0.6223772  -0.73272425]
 [ 0.09028456  0.28589922  0.14063177 -0.1965874   0.27611184  0.54276377
  -1.0968779  -0.64821476  0.8196529   0.95263064 -0.3631296  -0.89651346
  -0.7645517  -0.53877205  0.8904845   0.8196997   0.80864096 -0.9933629
   0.6495655   0.8896885  -0.10804522 -0.4189794  -1.0178188  -0.5228822
  -1.2726239  -0.9504882 ]
 [-0.3505718  -0.29621783 -0.25405112 -0.3556327  -0.9858401  -0.93498695
  -0.4635113   0.76868856  0.8303507   1.1304531   0.5614432   1.1595806
  -1.0836543   0.74190646 -1.1084253   1.1431291  -0.9525335  -0.265026
   0.85011786 -0.9601115   1.1371839   1.0448552  -0.6104341   0.6122954
  -0.51478755 -0.58414537]
 [ 0.31723243  0.06385805  0.34652415  0.02507833  0.46935055 -1.1401184
  -0.8757709   0.6414854  -1.173557   -1.0901537  -0.47422856  0.82345897
  -0.61568505  0.33896703  0.9850755   1.0262713  -0.9776694   0.8906648
   0.99105746 -0.9397612  -0.70330065 -0.9742185  -0.53540045  0.71163
  -1.1301355   0.61543995]
 [-0.57404894 -0.45387927 -0.4702999  -0.3654407   1.1445628  -1.0033543
   0.6501912   0.9710086  -0.9480542  -0.6176073   0.8274286  -0.7874377
   0.84809613 -0.7747507   0.9401544  -0.84595394 -1.204542    1.0268447
   0.6643057   0.55365014 -0.8946251   0.9440689   0.62243724 -1.2245955
   0.8188166  -0.6451063 ]]
dense/bias:0
(26,)
[-0.44725877 -0.4249992  -0.4495465  -0.4508235   0.59749097  0.34481558
  0.4250827   0.02376951  0.50082666  0.47838867  0.38998073 -0.1805396
  0.32247436  0.69995517  0.3526714  -0.08460417  0.25596482  0.62509763
  0.756604   -0.12577583 -0.24362235  0.04259687  0.06994321  0.4038911
 -0.19534649 -0.06866192]
