sequential/gru/kernel:0
(1, 240)
[[ 0.25881836 -0.4592162  -0.2935116  -0.27264467 -0.3186719  -0.2126326
  -0.29576534 -0.24109657 -0.33223364 -0.5254433  -0.41501123 -0.21243091
  -0.4533463  -0.51901156 -0.25140178 -0.28437525 -0.4372808  -0.39668164
  -0.3787039  -0.46728507 -0.21285966 -0.08798466 -0.2639134  -0.4327344
  -0.29048106 -0.5281621  -0.1828175  -0.10668055 -0.4371725  -0.3283632
  -0.19485207 -0.24592662 -0.45618716 -0.4728988  -0.5083117  -0.47943926
  -0.30743948 -0.3005291  -0.34572455 -0.39908734  0.1413967  -0.51774704
  -0.619229   -0.13390455 -0.42788386 -0.42395127 -0.43325788 -0.23540786
  -0.30168706 -0.38175765 -0.5499913   0.01538021 -0.5090755  -0.43138817
  -0.25800258 -0.30958506 -0.38601205 -0.17926294 -0.3079912  -0.50799483
  -0.4898201  -0.3378517  -0.22230347 -0.06807314 -0.40900916 -0.19871664
  -0.42905316 -0.37685    -0.37709692 -0.40746468 -0.41091198 -0.16460724
  -0.328443   -0.45557395 -0.20367877 -0.26741123 -0.5158107  -0.5338582
  -0.5746425  -0.26256034  0.00310973  0.00382069  0.10043599 -0.02148759
  -0.035958   -0.03439966  0.08792183  0.03053558  0.08039282  0.15203647
  -0.03855365  0.12985133  0.01432174  0.03786398  0.04726858  0.11898071
  -0.16846843  0.10892976 -0.11661074 -0.10504726 -0.06925598  0.06215257
   0.03418662  0.14952603 -0.00925397 -0.04339359 -0.15364356 -0.03345649
  -0.0237633  -0.02190443  0.07505028  0.00814935  0.10796621 -0.10899831
  -0.03598372  0.06827433  0.14727293 -0.04534335  0.04924918 -0.04357647
   0.00279004 -0.00249462  0.03344049 -0.13225742 -0.02795913  0.01352605
   0.10151312  0.10368281 -0.12462152  0.02437312 -0.01131127  0.1240639
  -0.11997611 -0.15714985 -0.00223935  0.13737479  0.0293248  -0.08516577
   0.05737327  0.084544   -0.1584144  -0.14530438  0.0182178   0.00899365
  -0.09690285 -0.00267805  0.08899518 -0.10176773 -0.02003872 -0.10546618
   0.08424931  0.08089804 -0.01907291  0.07870416 -0.09354645 -0.00927177
  -0.05027283  0.0480093  -0.01858377 -0.14722857 -0.11541432 -0.08292691
   0.09977629 -0.0269289  -0.13753262  0.12346891  0.02585646 -0.06561978
   0.06291882  0.13436899 -0.08430166 -0.05677656 -0.02497     0.07174981
   0.07223004  0.0963681   0.14018148 -0.04374414  0.10439505  0.15978305
   0.08014735  0.04796564  0.13789044 -0.14133321  0.13006164 -0.09261807
  -0.1191586  -0.05389836  0.14186648 -0.10321835 -0.06946931 -0.03703028
   0.0607334  -0.03008943  0.14486188 -0.05764392 -0.0754943   0.10189649
   0.07121263  0.07210788  0.00316267  0.09555355  0.08373807  0.12433945
  -0.09296857  0.0191538   0.07187384  0.14282563 -0.03063207  0.07830719
  -0.10957884 -0.01803444 -0.0684205   0.11589377 -0.09441309 -0.01230456
   0.01350322 -0.1010562  -0.11353024  0.11328506  0.14384463 -0.13328575
  -0.13955119  0.01332799  0.07115701 -0.12670615  0.0577118   0.13805978
  -0.14561027 -0.04926153 -0.04212337 -0.05906373  0.06114382 -0.15243171
  -0.11079757 -0.01998811 -0.09268547  0.09823946 -0.12690654  0.01720411]]
sequential/gru/recurrent_kernel:0
(80, 240)
[[-0.21458806  0.09397246  0.11358369 ...  0.04019101 -0.14558314
  -0.09860671]
 [-0.1276968   0.08298971  0.15465063 ...  0.03653213  0.05562553
  -0.03695872]
 [ 0.059871   -0.13282375 -0.17816797 ... -0.03584272 -0.09045486
  -0.05211436]
 ...
 [ 0.10852717 -0.11624528 -0.03803081 ...  0.01047833 -0.01913989
  -0.09913646]
 [-0.09332041  0.03183549  0.08414397 ...  0.03945876 -0.05565609
   0.00782029]
 [ 0.01696062  0.11873614  0.07467712 ... -0.07966319  0.09981406
  -0.05266621]]
sequential/gru/bias:0
(2, 240)
[[ 1.92803323e-01 -4.79441643e-01 -4.98498708e-01 -1.81200415e-01
  -5.12772977e-01 -4.28844512e-01 -3.48247796e-01 -4.62633193e-01
  -4.63760436e-01 -4.89151895e-01 -4.67887670e-01 -3.25173110e-01
  -4.04070973e-01 -5.05727649e-01 -4.47000951e-01 -5.38296938e-01
  -4.54643935e-01 -4.73972380e-01 -5.67351639e-01 -7.03245461e-01
  -3.81267756e-01 -4.59132120e-02 -4.43338066e-01 -5.30703664e-01
  -4.14132655e-01 -5.84809899e-01 -4.00108248e-01 -1.65272191e-01
  -4.19067979e-01 -4.27451253e-01 -3.79346907e-01 -3.50977033e-01
  -4.83066469e-01 -4.15610164e-01 -5.00070214e-01 -5.15147209e-01
  -3.78527462e-01 -4.24088925e-01 -4.15231198e-01 -5.16518474e-01
   1.86510589e-02 -5.76373458e-01 -5.93186736e-01 -2.86371022e-01
  -5.63494861e-01 -3.92066568e-01 -4.70667034e-01 -3.81466389e-01
  -3.84852409e-01 -4.79213029e-01 -5.57266712e-01 -6.76589757e-02
  -5.11514127e-01 -4.50771660e-01 -4.93792683e-01 -2.30192766e-01
  -2.86761671e-01 -3.83552581e-01 -4.06424820e-01 -5.94123960e-01
  -4.58016515e-01 -5.10662079e-01 -4.19048905e-01 -1.11669814e-03
  -6.36364281e-01 -4.14929807e-01 -5.73463440e-01 -5.24423420e-01
  -4.02885973e-01 -4.01760012e-01 -5.91217458e-01 -3.82599801e-01
  -5.55586576e-01 -5.36315978e-01 -3.58611733e-01 -2.38093615e-01
  -4.83711123e-01 -5.72437108e-01 -5.43304503e-01 -1.89107165e-01
  -1.83800003e-03 -3.33268717e-02 -2.16673706e-02 -1.86237264e-02
  -6.87518856e-03  6.66997535e-03 -1.19822919e-02 -1.12692779e-02
  -8.90720263e-03  6.06317213e-03 -8.67701415e-03  9.04542627e-04
  -8.66542512e-04 -8.06753617e-03 -1.14263380e-02 -2.80779321e-02
  -5.91603201e-03 -1.14757530e-02  1.62864558e-03  1.24816559e-02
  -6.28934382e-03  3.67749040e-03 -8.12349934e-03  8.69496725e-03
   1.14869457e-02 -3.95990722e-03 -4.44515329e-03  1.46225113e-02
  -2.34202738e-03 -2.61042081e-03 -3.70626315e-03 -1.09276967e-02
  -1.32865626e-02 -9.19504091e-03  5.90665825e-03 -1.09656267e-02
   1.84331427e-03 -5.28942188e-03 -7.47784507e-03 -1.80232693e-02
  -1.21182548e-02 -1.07442858e-02 -1.05741378e-02 -1.52580729e-02
  -3.32420995e-03  7.92057347e-03  4.02928703e-03 -1.05188666e-02
  -3.80686927e-03 -2.97899521e-03 -7.91489054e-03 -1.57070030e-02
  -5.44484099e-03 -5.17706992e-03 -3.53587344e-02 -1.05451336e-02
  -4.06884309e-03 -7.37570133e-03 -1.22999968e-02  3.64156370e-03
  -5.26839681e-03  1.52173627e-03 -8.14179890e-03 -6.19178545e-03
  -6.41913936e-02 -9.31483135e-03 -7.23729730e-02 -1.43309040e-02
   6.36823429e-03 -1.37905907e-02 -4.71478887e-02 -1.04154702e-02
  -2.08633281e-02  9.09624156e-03  2.03279033e-02 -2.17374023e-02
  -6.18148260e-02 -1.71177890e-02 -7.37806875e-03 -1.94260236e-02
   1.01373885e-02  1.06712244e-02 -1.46850189e-02  5.04937442e-03
   2.26088371e-02 -1.78047996e-02 -3.30715720e-03  8.06216616e-03
  -9.77108814e-03 -1.73765216e-02  1.01225199e-02  7.97098223e-03
   4.11821576e-03 -1.15257651e-02 -8.91571585e-03 -1.43719167e-02
  -2.09568962e-02  7.21875532e-03 -1.41590228e-02 -2.23454200e-02
  -9.07322858e-03 -5.02132624e-03 -1.87803768e-02  1.95881259e-02
  -1.51933152e-02  1.52319400e-02  1.29435435e-02  9.58263222e-03
  -1.75995715e-02  1.31535931e-02  9.73334629e-03  3.73394461e-03
  -8.50409549e-03  5.53846871e-03 -1.88268013e-02  7.43004028e-03
   7.75190582e-03 -1.24027124e-02 -1.07897194e-02 -1.15881879e-02
   1.34060858e-03 -1.47351278e-02 -1.56242149e-02 -1.45957675e-02
   1.35235060e-02 -2.60474300e-03 -1.19608259e-02 -1.56312492e-02
   6.49637636e-03 -1.32996440e-02  1.23157138e-02  7.12388568e-03
   9.32028424e-03 -1.42185744e-02  9.54268035e-03  3.02785612e-03
  -1.58691243e-03  1.11092580e-02  1.26067037e-02 -1.43945487e-02
  -1.94231980e-02  1.70642026e-02  1.80735644e-02 -7.14808528e-04
  -1.26577336e-02  1.83262434e-02 -9.34305787e-03 -1.90017130e-02
   1.75051205e-02  8.69786832e-03  7.50284689e-03  1.00553641e-02
  -7.53273210e-03  1.81733780e-02  1.52384797e-02  8.58780369e-03
   1.26857460e-02 -1.41208973e-02  1.60598867e-02 -5.82728349e-03]
 [ 1.92803323e-01 -4.79441643e-01 -4.98498708e-01 -1.81200415e-01
  -5.12772977e-01 -4.28844512e-01 -3.48247796e-01 -4.62633193e-01
  -4.63760436e-01 -4.89151895e-01 -4.67887670e-01 -3.25173110e-01
  -4.04070973e-01 -5.05727649e-01 -4.47000951e-01 -5.38296938e-01
  -4.54643935e-01 -4.73972380e-01 -5.67351639e-01 -7.03245461e-01
  -3.81267756e-01 -4.59132120e-02 -4.43338066e-01 -5.30703664e-01
  -4.14132655e-01 -5.84809899e-01 -4.00108248e-01 -1.65272191e-01
  -4.19067979e-01 -4.27451253e-01 -3.79346907e-01 -3.50977033e-01
  -4.83066469e-01 -4.15610164e-01 -5.00070214e-01 -5.15147209e-01
  -3.78527462e-01 -4.24088925e-01 -4.15231198e-01 -5.16518474e-01
   1.86510589e-02 -5.76373458e-01 -5.93186736e-01 -2.86371022e-01
  -5.63494861e-01 -3.92066568e-01 -4.70667034e-01 -3.81466389e-01
  -3.84852409e-01 -4.79213029e-01 -5.57266712e-01 -6.76589757e-02
  -5.11514127e-01 -4.50771660e-01 -4.93792683e-01 -2.30192766e-01
  -2.86761671e-01 -3.83552581e-01 -4.06424820e-01 -5.94123960e-01
  -4.58016515e-01 -5.10662079e-01 -4.19048905e-01 -1.11669814e-03
  -6.36364281e-01 -4.14929807e-01 -5.73463440e-01 -5.24423420e-01
  -4.02885973e-01 -4.01760012e-01 -5.91217458e-01 -3.82599801e-01
  -5.55586576e-01 -5.36315978e-01 -3.58611733e-01 -2.38093615e-01
  -4.83711123e-01 -5.72437108e-01 -5.43304503e-01 -1.89107165e-01
  -1.83800003e-03 -3.33268717e-02 -2.16673706e-02 -1.86237264e-02
  -6.87518856e-03  6.66997535e-03 -1.19822919e-02 -1.12692779e-02
  -8.90720263e-03  6.06317213e-03 -8.67701415e-03  9.04542627e-04
  -8.66542512e-04 -8.06753617e-03 -1.14263380e-02 -2.80779321e-02
  -5.91603201e-03 -1.14757530e-02  1.62864558e-03  1.24816559e-02
  -6.28934382e-03  3.67749040e-03 -8.12349934e-03  8.69496725e-03
   1.14869457e-02 -3.95990722e-03 -4.44515329e-03  1.46225113e-02
  -2.34202738e-03 -2.61042081e-03 -3.70626315e-03 -1.09276967e-02
  -1.32865626e-02 -9.19504091e-03  5.90665825e-03 -1.09656267e-02
   1.84331427e-03 -5.28942188e-03 -7.47784507e-03 -1.80232693e-02
  -1.21182548e-02 -1.07442858e-02 -1.05741378e-02 -1.52580729e-02
  -3.32420995e-03  7.92057347e-03  4.02928703e-03 -1.05188666e-02
  -3.80686927e-03 -2.97899521e-03 -7.91489054e-03 -1.57070030e-02
  -5.44484099e-03 -5.17706992e-03 -3.53587344e-02 -1.05451336e-02
  -4.06884309e-03 -7.37570133e-03 -1.22999968e-02  3.64156370e-03
  -5.26839681e-03  1.52173627e-03 -8.14179890e-03 -6.19178545e-03
  -6.41913936e-02 -9.31483135e-03 -7.23729730e-02 -1.43309040e-02
   6.36823429e-03 -1.37905907e-02 -4.71478887e-02 -1.04154702e-02
  -2.08633281e-02  9.09624156e-03  2.03279033e-02 -2.17374023e-02
  -6.18148260e-02 -1.71177890e-02 -7.37806875e-03 -1.94260236e-02
   1.00149754e-02  1.01559740e-02 -1.37541359e-02  4.75078030e-03
   2.17353348e-02 -1.76343787e-02 -3.17241508e-03  7.82419462e-03
  -9.40059498e-03 -1.69820376e-02  1.00254845e-02  7.67443934e-03
   4.03814996e-03 -1.08606471e-02 -8.54667369e-03 -1.34165119e-02
  -2.11032238e-02  6.74870331e-03 -1.40652219e-02 -2.24460289e-02
  -9.20194015e-03 -4.63959901e-03 -1.84472371e-02  1.91945955e-02
  -1.52131440e-02  1.50541412e-02  1.33800209e-02  9.47460439e-03
  -1.75334066e-02  1.29164578e-02  9.40667465e-03  3.92256491e-03
  -7.85486307e-03  6.01852546e-03 -1.88198872e-02  7.06208916e-03
   7.64882844e-03 -1.22308461e-02 -1.04979472e-02 -1.14616361e-02
   1.15251879e-03 -1.43189663e-02 -1.51237454e-02 -1.39614362e-02
   1.33518167e-02 -2.60559586e-03 -1.13833109e-02 -1.51783377e-02
   6.93468750e-03 -1.30288545e-02  1.19503383e-02  7.04684481e-03
   9.42148734e-03 -1.40576158e-02  9.09890980e-03  2.80004414e-03
  -1.67944038e-03  1.12799257e-02  1.23249805e-02 -1.37423491e-02
  -1.92398932e-02  1.70900021e-02  1.75876971e-02 -5.17114298e-04
  -1.25346957e-02  1.82817560e-02 -8.95646960e-03 -1.86891053e-02
   1.73934717e-02  8.73933546e-03  7.11698690e-03  9.49215703e-03
  -7.14513240e-03  1.78264044e-02  1.53479762e-02  8.87457095e-03
   1.26387477e-02 -1.35069005e-02  1.55384233e-02 -5.91414422e-03]]
sequential/gru_1/kernel:0
(80, 300)
[[-0.09780962 -0.06134054 -0.01668279 ...  0.13008824 -0.02539284
   0.05071031]
 [ 0.07454813 -0.02558286  0.06233919 ... -0.02771506  0.01143462
  -0.12183075]
 [ 0.02884915  0.12212006  0.05202285 ... -0.05518045  0.04007607
  -0.03798064]
 ...
 [ 0.12675689 -0.05020752 -0.09872603 ... -0.08577171  0.09327025
   0.07879913]
 [-0.04631851  0.00950366 -0.00211952 ...  0.02591684  0.08474973
   0.00671484]
 [ 0.08066887 -0.1223355  -0.10481187 ...  0.05988558  0.10365111
   0.10619394]]
sequential/gru_1/recurrent_kernel:0
(100, 300)
[[-0.11582565 -0.02160192  0.03883667 ... -0.07356999 -0.06902171
   0.02200019]
 [-0.01414108  0.02659326  0.05569248 ... -0.0056875   0.00320321
   0.01686722]
 [-0.00796454 -0.02763222 -0.02963559 ... -0.01165382 -0.06097231
  -0.0119503 ]
 ...
 [-0.1726463   0.11357553 -0.08061134 ...  0.00916883 -0.0150626
   0.01519798]
 [-0.00963543  0.06016811 -0.04841417 ... -0.05525624 -0.00758009
   0.04933063]
 [ 0.11427893  0.02031691  0.06850174 ...  0.00022501 -0.02968241
   0.07847816]]
sequential/gru_1/bias:0
(2, 300)
[[ 0.08147175  0.01859285  0.02755281  0.00057079  0.00392578  0.05820865
   0.03188922  0.08951645  0.09029022 -0.02784402  0.06864638  0.1565869
   0.02879217  0.03896548  0.11695734  0.09977616  0.05511915 -0.02232206
   0.0693365   0.08408727  0.04349849  0.05784266  0.03193251 -0.02290152
   0.06101957  0.03591813  0.0150045   0.04643448  0.10234842  0.09380504
   0.02830088 -0.00181574  0.00524262  0.09637403 -0.03842822  0.06222547
   0.02847252 -0.00578611  0.06307232  0.13649917 -0.00318248  0.04898439
   0.10041427  0.06653754 -0.00831222  0.0667083   0.02870666  0.02981928
   0.03851042  0.00628459  0.03087093  0.05166308  0.04112202  0.03807784
   0.05430194  0.03687768  0.01663081  0.05478267  0.05286126  0.0718867
   0.05605865  0.05888773  0.01984242  0.09535741 -0.01369043 -0.00573152
   0.1506386   0.03576587  0.05178425  0.00370226  0.02877443  0.0409892
   0.02339319  0.10060502 -0.00396044  0.10908127  0.10930154  0.09818956
   0.06644022  0.11140425  0.07433518  0.12353604  0.04701764  0.04919093
   0.04563672  0.01634402  0.00537306  0.02154894  0.15123095  0.01806657
   0.00262986  0.11234725  0.07261641  0.04744272  0.0296025   0.0871969
   0.01096111  0.11801883  0.07297619  0.01494048 -0.03215707  0.01947192
  -0.02698949  0.01903555 -0.01286032 -0.0129471  -0.00617009 -0.00417871
  -0.00765071 -0.02733201 -0.02762269 -0.02133884 -0.04862128 -0.02388105
  -0.02032461 -0.01559419 -0.03737786 -0.06519134 -0.04519906 -0.01829658
  -0.04272978 -0.02674359 -0.00644796 -0.04126925 -0.02737549 -0.03371692
  -0.02352982 -0.0398572  -0.00561683 -0.01825297 -0.01376338 -0.0100012
  -0.02171614 -0.02087303 -0.02525214 -0.01497977 -0.00552547 -0.02684059
  -0.0246743  -0.01598775 -0.03109831 -0.00077847 -0.00607885  0.0200056
  -0.02728699 -0.03470941  0.01218217 -0.01904493 -0.02474923 -0.04077475
  -0.0060879   0.00022992 -0.01924019 -0.04219756 -0.00437667 -0.02015653
  -0.027715   -0.01013897  0.0024703  -0.0023422   0.00061289  0.00263728
   0.03818479 -0.0219437  -0.01479367 -0.01635901 -0.04643939 -0.0346972
  -0.03861319 -0.00461199 -0.07473461 -0.00698892 -0.00875337 -0.032139
  -0.02622721 -0.02756611 -0.00735974 -0.0055085  -0.02583407 -0.02991639
  -0.02275076 -0.00268102 -0.01008624  0.00301046 -0.01421338 -0.01817398
  -0.05384954 -0.04676664 -0.01673779 -0.02359816 -0.01837191 -0.01678045
  -0.03114778 -0.00871436 -0.02677402 -0.00657397 -0.02820094 -0.01858515
   0.01280133 -0.02959982 -0.00815294  0.00311725 -0.00677803 -0.01137936
  -0.00922939  0.01357314 -0.00969213 -0.00761825 -0.01137979 -0.01309691
  -0.009281    0.00914148  0.01095609 -0.01051597 -0.01012144 -0.00526993
   0.00971    -0.0072841  -0.00913969 -0.00573663  0.00699023 -0.0078168
  -0.00824367  0.00660889  0.01229176  0.00781464  0.00546796 -0.00884365
   0.00575197  0.00588993 -0.00669067  0.00555674  0.00516091  0.00849388
   0.00615105  0.00587922 -0.00701206  0.01109059  0.00373951  0.00574666
   0.01164625  0.00456809 -0.00428951 -0.00807416 -0.00687017 -0.00648106
   0.00594861 -0.01051998  0.00657583 -0.00897027  0.00334297  0.00779749
  -0.00781528  0.00778831  0.00618881 -0.00786573 -0.00805392  0.00949281
   0.00367165  0.00593078  0.01051945  0.00039797 -0.00514412 -0.00777558
  -0.00855976  0.00752384 -0.00953841 -0.00670161  0.00867449 -0.00465811
   0.00597134 -0.00848682 -0.00918679  0.00791725  0.01505185  0.00276964
  -0.00541448  0.00604378 -0.01551407  0.00913998  0.00782758 -0.00902193
   0.00870517  0.01139839 -0.00661659 -0.005699   -0.00701135 -0.00856598
  -0.00669316  0.00551866 -0.01132442  0.00590119  0.00467646 -0.00632172
  -0.00675446 -0.00740499  0.00923379 -0.0136875  -0.00778438  0.00967072]
 [ 0.08147175  0.01859285  0.02755281  0.00057079  0.00392578  0.05820865
   0.03188922  0.08951645  0.09029022 -0.02784402  0.06864638  0.1565869
   0.02879217  0.03896548  0.11695734  0.09977616  0.05511915 -0.02232206
   0.0693365   0.08408727  0.04349849  0.05784266  0.03193251 -0.02290152
   0.06101957  0.03591813  0.0150045   0.04643448  0.10234842  0.09380504
   0.02830088 -0.00181574  0.00524262  0.09637403 -0.03842822  0.06222547
   0.02847252 -0.00578611  0.06307232  0.13649917 -0.00318248  0.04898439
   0.10041427  0.06653754 -0.00831222  0.0667083   0.02870666  0.02981928
   0.03851042  0.00628459  0.03087093  0.05166308  0.04112202  0.03807784
   0.05430194  0.03687768  0.01663081  0.05478267  0.05286126  0.0718867
   0.05605865  0.05888773  0.01984242  0.09535741 -0.01369043 -0.00573152
   0.1506386   0.03576587  0.05178425  0.00370226  0.02877443  0.0409892
   0.02339319  0.10060502 -0.00396044  0.10908127  0.10930154  0.09818956
   0.06644022  0.11140425  0.07433518  0.12353604  0.04701764  0.04919093
   0.04563672  0.01634402  0.00537306  0.02154894  0.15123095  0.01806657
   0.00262986  0.11234725  0.07261641  0.04744272  0.0296025   0.0871969
   0.01096111  0.11801883  0.07297619  0.01494048 -0.03215707  0.01947192
  -0.02698949  0.01903555 -0.01286032 -0.0129471  -0.00617009 -0.00417871
  -0.00765071 -0.02733201 -0.02762269 -0.02133884 -0.04862128 -0.02388105
  -0.02032461 -0.01559419 -0.03737786 -0.06519134 -0.04519906 -0.01829658
  -0.04272978 -0.02674359 -0.00644796 -0.04126925 -0.02737549 -0.03371692
  -0.02352982 -0.0398572  -0.00561683 -0.01825297 -0.01376338 -0.0100012
  -0.02171614 -0.02087303 -0.02525214 -0.01497977 -0.00552547 -0.02684059
  -0.0246743  -0.01598775 -0.03109831 -0.00077847 -0.00607885  0.0200056
  -0.02728699 -0.03470941  0.01218217 -0.01904493 -0.02474923 -0.04077475
  -0.0060879   0.00022992 -0.01924019 -0.04219756 -0.00437667 -0.02015653
  -0.027715   -0.01013897  0.0024703  -0.0023422   0.00061289  0.00263728
   0.03818479 -0.0219437  -0.01479367 -0.01635901 -0.04643939 -0.0346972
  -0.03861319 -0.00461199 -0.07473461 -0.00698892 -0.00875337 -0.032139
  -0.02622721 -0.02756611 -0.00735974 -0.0055085  -0.02583407 -0.02991639
  -0.02275076 -0.00268102 -0.01008624  0.00301046 -0.01421338 -0.01817398
  -0.05384954 -0.04676664 -0.01673779 -0.02359816 -0.01837191 -0.01678045
  -0.03114778 -0.00871436 -0.02677402 -0.00657397 -0.02820094 -0.01858515
   0.01280133 -0.02959982 -0.00771849  0.00254563 -0.00618154 -0.01118159
  -0.00772629  0.01229236 -0.00995453 -0.00780128 -0.0116731  -0.0127051
  -0.00942485  0.00881091  0.0117393  -0.01069317 -0.0089967  -0.0052003
   0.0095899  -0.00699309 -0.00773625 -0.00591753  0.00698854 -0.00780748
  -0.00858822  0.00682431  0.01195515  0.00789362  0.00575807 -0.00859429
   0.00598519  0.00589726 -0.0064578   0.00443058  0.00527877  0.0084946
   0.00621167  0.00578232 -0.00666827  0.00961361  0.00355922  0.0056624
   0.0114913   0.00457898 -0.00418331 -0.00828211 -0.00562288 -0.00605224
   0.0053834  -0.00974364  0.00664679 -0.00979135  0.00310284  0.00766085
  -0.00815406  0.00756516  0.00601728 -0.00697335 -0.00785648  0.00906894
   0.00352869  0.0050517   0.00985152  0.00039627 -0.00531459 -0.00777025
  -0.00845839  0.00710416 -0.00847578 -0.00675202  0.00732513 -0.00476645
   0.00619811 -0.00878059 -0.00924864  0.00832566  0.0149123   0.00281578
  -0.00542588  0.00589979 -0.01608477  0.0092919   0.00776918 -0.00859649
   0.00833103  0.01107554 -0.00684772 -0.00576568 -0.00681601 -0.00871674
  -0.00697305  0.00561215 -0.0107199   0.00634132  0.004669   -0.00611971
  -0.00713997 -0.00690658  0.00797995 -0.01294938 -0.00743688  0.00989377]]
sequential/dense/kernel:0
(100, 1)
[[-0.17724568]
 [ 0.11011603]
 [-0.15687826]
 [-0.07125361]
 [-0.10958948]
 [ 0.06566174]
 [-0.15130167]
 [-0.22822316]
 [-0.09796728]
 [-0.11860696]
 [-0.14768405]
 [ 0.05527403]
 [ 0.10590013]
 [-0.11182518]
 [-0.0499539 ]
 [-0.12023262]
 [ 0.14991832]
 [-0.21449533]
 [-0.14959066]
 [-0.2140061 ]
 [ 0.15491061]
 [-0.15091945]
 [-0.16482805]
 [ 0.18808432]
 [ 0.07693253]
 [ 0.18509893]
 [ 0.19317357]
 [-0.15264623]
 [ 0.18836296]
 [ 0.1772518 ]
 [-0.19470118]
 [ 0.1352262 ]
 [ 0.06107401]
 [ 0.1775852 ]
 [ 0.20544106]
 [ 0.12167532]
 [-0.17481387]
 [ 0.06993943]
 [ 0.15048626]
 [ 0.23047398]
 [ 0.12848985]
 [ 0.19021918]
 [-0.17359324]
 [-0.08429193]
 [-0.17199071]
 [-0.20641996]
 [ 0.091062  ]
 [-0.07342956]
 [ 0.09903369]
 [-0.155361  ]
 [ 0.17396422]
 [ 0.09111399]
 [-0.19062118]
 [ 0.13405368]
 [ 0.17182964]
 [-0.07843122]
 [-0.18915774]
 [ 0.04582549]
 [ 0.01904189]
 [ 0.18029818]
 [ 0.04683607]
 [-0.02524309]
 [-0.06770022]
 [-0.15743221]
 [-0.15982798]
 [ 0.17216831]
 [-0.09985209]
 [-0.17511126]
 [ 0.04177402]
 [-0.14917438]
 [ 0.11672756]
 [-0.2058433 ]
 [-0.22201283]
 [ 0.14272887]
 [ 0.05530035]
 [ 0.19505262]
 [-0.1260438 ]
 [ 0.21027765]
 [-0.07110598]
 [ 0.17988607]
 [ 0.08883935]
 [-0.09469787]
 [ 0.10846309]
 [ 0.08114823]
 [-0.14754437]
 [-0.19835182]
 [-0.21128397]
 [-0.08790046]
 [-0.11549319]
 [ 0.18111415]
 [-0.06170661]
 [ 0.22162639]
 [ 0.19417465]
 [-0.2133232 ]
 [-0.22233395]
 [-0.07144269]
 [ 0.07000122]
 [-0.04731076]
 [-0.08763218]
 [ 0.17805065]]
sequential/dense/bias:0
(1,)
[0.06617007]
