baseline/conv2d/kernel:0
(5, 5, 3, 6)
[[[[ 0.19739172 -0.07374115 -0.0262551   0.10010552 -0.17074417
    -0.03910524]
   [-0.01562732 -0.17204018 -0.08445173 -0.12305541 -0.06994191
    -0.06832678]
   [-0.13042209  0.19928877  0.20397148  0.11148878  0.1333563
     0.02813534]]

  [[ 0.09066884 -0.20819354 -0.04879434  0.26108482 -0.11380199
     0.11708295]
   [-0.18348743 -0.3106167   0.00883959  0.14758322  0.20816304
     0.17251481]
   [-0.18484072 -0.05381373  0.23432992 -0.16913015  0.01041631
    -0.10866714]]

  [[ 0.03659721 -0.1265174  -0.04290249  0.12647012 -0.17269498
    -0.1693832 ]
   [-0.38620454 -0.33356205 -0.16387063  0.12500797  0.10355466
     0.02296474]
   [-0.20505089 -0.06074364  0.1980819   0.08215355  0.1888275
     0.05795498]]

  [[ 0.02967478 -0.18093447  0.2051533   0.16212896 -0.2502618
     0.05576188]
   [-0.11892398 -0.3439832  -0.037896    0.07248295  0.14911325
    -0.1007977 ]
   [ 0.21842887  0.1131178  -0.01382853  0.03482038 -0.02115118
    -0.22663261]]

  [[ 0.09459195 -0.14162757  0.09182318  0.18097378 -0.2924774
    -0.03184807]
   [ 0.1419002  -0.16045602 -0.15967971  0.14182636  0.27032465
     0.17011641]
   [ 0.11478439  0.02640057 -0.18696892  0.0198097   0.21080816
     0.1306818 ]]]


 [[[ 0.00139455 -0.12068776 -0.04624481 -0.01655894 -0.17567268
    -0.1669251 ]
   [-0.28196642 -0.18828753 -0.19560935  0.03010228  0.02897304
    -0.19339259]
   [-0.11543928  0.01892588  0.17548177 -0.20384884  0.02656713
     0.1190697 ]]

  [[-0.10743365 -0.01852942  0.0798761  -0.16189337 -0.02730403
     0.05482055]
   [-0.26090562  0.02734591  0.08479242 -0.02695665 -0.14884308
     0.08574318]
   [ 0.00365333 -0.12084635  0.19078621 -0.01683735  0.03920745
     0.20306739]]

  [[-0.07623296 -0.076569   -0.04581728 -0.10173694 -0.10071242
     0.15783009]
   [-0.26015377 -0.06758939  0.0246447   0.00604243  0.13760923
     0.09698416]
   [-0.12031355  0.01778509  0.05117227  0.0061372   0.08604039
     0.04323022]]

  [[-0.01275679  0.2076093  -0.02178268  0.0911925  -0.3306881
    -0.13544226]
   [ 0.12183785 -0.08081199 -0.07819524 -0.12205605  0.02080406
    -0.16052431]
   [ 0.2586099   0.18157715 -0.12086665 -0.24864087  0.0081778
    -0.31467208]]

  [[-0.04477603 -0.01446548  0.01652414  0.0666343  -0.13025405
     0.06981071]
   [ 0.14822763  0.04736051 -0.18278114  0.02049685  0.21061635
     0.10028353]
   [ 0.2661755   0.13322239 -0.24235675 -0.19856769  0.01175805
     0.00314033]]]


 [[[ 0.13156033 -0.07700103 -0.13225812  0.06229448  0.1386612
    -0.18586753]
   [-0.13458382 -0.27821842 -0.00177183  0.01315748 -0.16077612
    -0.27983636]
   [-0.18622504 -0.13732284  0.21447264  0.00628454  0.06610255
    -0.2389791 ]]

  [[-0.05355363 -0.04803656 -0.08457549 -0.10886405  0.18156795
     0.2326154 ]
   [-0.2897129   0.01804824  0.00517509 -0.1945806  -0.11073069
     0.21055551]
   [-0.18165758 -0.12712678  0.74217194 -0.07737599  0.02619695
     0.05222924]]

  [[-0.06592613  0.13724677 -0.04407172 -0.2582948   0.04967558
     0.00860513]
   [-0.12832355  0.05236371  0.06689615 -0.22024459  0.09109616
     0.17344679]
   [ 0.07077829 -0.23155674  0.15959947  0.04083893 -0.02009717
     0.1567059 ]]

  [[ 0.03651465 -0.11269788  0.08348174 -0.04921491  0.03192196
    -0.24604239]
   [ 0.19174463 -0.06601951 -0.11538738 -0.24178489 -0.18883221
    -0.07402185]
   [ 0.18939048 -0.0323755   0.04360192 -0.08814502 -0.04212056
    -0.11289957]]

  [[ 0.01326193 -0.17979644 -0.04527055 -0.16082361  0.05528733
     0.18421808]
   [ 0.3030679  -0.11764584 -0.36648327 -0.22895329 -0.00501787
     0.19272672]
   [ 0.19794194  0.08398091 -0.0342372   0.11593816  0.19623305
    -0.04123143]]]


 [[[-0.08938468  0.07001857 -0.1126408  -0.15592545  0.11254857
     0.15429279]
   [-0.17791776  0.15368854  0.16570835  0.14673081 -0.0712942
    -0.11736368]
   [-0.25589213  0.05987651  0.01378124  0.13038023 -0.16280335
     0.17934744]]

  [[-0.05657535  0.23352078  0.05306812 -0.10232176  0.21539271
    -0.16475783]
   [ 0.00987573  0.3800166   0.18942429  0.23497434 -0.09518655
    -0.24624576]
   [-0.08546703  0.04061579  0.47660077  0.2682717  -0.15439188
    -0.21173164]]

  [[-0.12155174  0.20732619 -0.05553721  0.03727386  0.31297827
    -0.05570203]
   [-0.14035213  0.28884226  0.02041692  0.05942104 -0.08238907
     0.01836386]
   [ 0.05534208  0.13784102  0.12563787  0.3701932  -0.18575111
     0.05561924]]

  [[ 0.05157165  0.2681769  -0.0587812  -0.08846233  0.06665549
     0.06493216]
   [-0.01131524  0.3275477   0.08473155  0.18292554 -0.30535832
     0.07580607]
   [ 0.24740748  0.0467515  -0.00995898  0.2553136   0.02250582
     0.15207623]]

  [[ 0.00381831  0.1743165  -0.03009246 -0.04700185  0.12839165
    -0.07208318]
   [ 0.12341747 -0.07096844 -0.12491115  0.07990332  0.07663299
    -0.08822394]
   [-0.00443576  0.14323224 -0.1970982   0.24964812  0.00210311
    -0.0515281 ]]]


 [[[-0.19844835 -0.03409195  0.04560895 -0.21047215  0.18928707
     0.25845653]
   [-0.03697374  0.0049372  -0.02713423  0.00810262 -0.1303494
     0.15824649]
   [-0.05017582  0.16175163  0.12666248  0.04194246 -0.07862252
     0.2976895 ]]

  [[ 0.00919195  0.10041667  0.1840962  -0.2755575   0.20077677
    -0.18738861]
   [-0.09667815  0.13300438 -0.04103602 -0.04767997 -0.23933622
    -0.22250633]
   [-0.01682154  0.02414551  0.15521838  0.15376633  0.07678329
     0.01880762]]

  [[-0.11414196 -0.07592535  0.10779233 -0.25331888  0.27472886
     0.03505426]
   [-0.02365305  0.11571999  0.04312686  0.06455147 -0.14654174
    -0.0942364 ]
   [ 0.05710829 -0.05566762 -0.16298974  0.16104834 -0.05084086
    -0.1649811 ]]

  [[-0.10734598  0.08333603  0.15464452  0.07659653  0.2088337
     0.12583925]
   [ 0.11685577 -0.08309148 -0.11838214 -0.2084903  -0.38449177
     0.02445631]
   [ 0.2278448  -0.14973894 -0.19878192 -0.09645568 -0.17301619
    -0.02994585]]

  [[ 0.1436764  -0.2725089   0.08888862  0.01304363  0.1362307
    -0.09001426]
   [ 0.0990647  -0.09072232 -0.02315256  0.01606488 -0.08722258
     0.09791678]
   [ 0.09810171  0.05924715 -0.35068846 -0.0793362   0.1342753
    -0.04998048]]]]
baseline/conv2d/bias:0
(6,)
[-0.1431595  -0.06189285  0.1925124   0.05331291 -0.07940568 -0.00613975]
baseline/batch_normalization/gamma:0
(6,)
[0.83837473 0.8041919  0.69779146 0.7888385  0.65704954 0.78008974]
baseline/batch_normalization/beta:0
(6,)
[-0.24491282 -0.3251144  -0.16545181 -0.26596498 -0.44462237 -0.26985437]
baseline/dense/kernel:0
(1536, 128)
[[ 9.57155898e-02  3.92487571e-02 -4.74708602e-02  3.68028581e-02
   3.33921313e-02  3.26726437e-02  7.71921575e-02 -1.53854769e-02
  -3.94558348e-02  2.69156341e-02  1.32634528e-02 -1.07961610e-01
   3.23250145e-02  7.31678680e-02 -3.56010683e-02 -3.80577780e-02
   4.12038080e-02 -5.33578396e-02  1.39477998e-02  4.45425771e-02
  -1.36000320e-01 -1.45526705e-02  9.24641490e-02  6.01492375e-02
   3.50904167e-02  1.01056313e-02  2.27318313e-02 -8.79696459e-02
  -7.26342015e-03 -3.15093622e-02 -2.71071233e-02  1.85683966e-02
   1.26578864e-02 -4.37904410e-02  5.64618446e-02 -3.40614631e-03
   3.52024212e-02 -7.03135878e-02 -3.77003755e-03 -3.89214642e-02
  -3.25638219e-03 -3.08355205e-02 -3.69985355e-03 -2.72100437e-02
   8.17438439e-02 -6.28992021e-02  2.52767876e-02 -6.20211810e-02
   3.95592116e-02  1.87100489e-02  1.57140978e-02  4.92417403e-02
   1.48590486e-02  2.90786140e-02  3.17721330e-02  7.77645735e-03
   4.24217992e-02  1.99296623e-02  3.64973620e-02  4.49426584e-02
  -5.48271760e-02  3.36553678e-02 -6.14192598e-02 -6.65282970e-03
  -2.52417438e-02 -2.97484994e-02 -5.12017822e-03  5.30624278e-02
  -4.05088998e-02  1.08148819e-02  6.01948090e-02  7.84859955e-02
   8.81741196e-02 -6.32567555e-02  2.94897221e-02  2.39277016e-02
  -4.97953892e-02 -5.39574865e-03 -7.52056437e-03 -4.69698273e-02
   6.24979399e-02 -5.74774528e-03 -6.45432398e-02 -5.64724058e-02
   7.36283371e-03 -9.97163355e-02  4.76267040e-02 -5.37951216e-02
   3.30424160e-02  3.61378565e-02 -6.22547115e-04 -8.08900502e-03
  -4.71683815e-02 -3.86525542e-02 -5.98666891e-02  8.86459798e-02
   1.33396043e-02 -6.48943409e-02  1.04766404e-02 -1.58201292e-01
   8.68051033e-03  5.16187400e-03  2.96917148e-02 -6.99367672e-02
  -3.17877829e-02  5.24496399e-02 -3.07614263e-02 -1.25347182e-01
   2.70297993e-02  1.92052443e-02  3.14899124e-02  2.60031540e-02
   1.41547462e-02  6.29591057e-03  2.22141165e-02 -4.51716855e-02
   1.52154639e-02 -3.42796482e-02 -7.47683495e-02 -2.10762657e-02
  -2.86979731e-02 -3.89452116e-03 -6.15004301e-02  2.90022139e-03
  -5.40230647e-02 -8.79923478e-02  7.69149046e-04  1.98920052e-02]
 [-1.01072146e-02  1.12852668e-02 -6.30698055e-02 -9.83480550e-03
   4.46984321e-02  1.67642366e-02 -8.71707425e-02 -7.14139938e-02
   2.17006784e-02  4.55692690e-03  2.94559598e-02 -2.53514647e-02
   3.92389186e-02  1.08342089e-01  2.68059410e-02 -3.62672843e-02
  -1.06850795e-01 -1.64721848e-03 -4.27599624e-02  2.72583589e-02
   1.10067083e-02 -2.49319114e-02  7.30982348e-02 -2.09635142e-02
   1.11516425e-02 -4.39801365e-02  2.00971421e-02  1.84690263e-02
   8.96282680e-03  1.72493458e-02 -1.06733583e-01 -4.26409245e-02
  -2.95931604e-02  2.38880422e-02 -1.10589424e-02 -9.60754901e-02
  -6.21344410e-02 -3.63477431e-02 -5.24065122e-02 -6.56840131e-02
  -3.36429779e-03 -4.62049991e-02  3.02643962e-02  2.72259880e-02
   9.53649655e-02 -6.48220256e-02  1.14504173e-02 -4.75526676e-02
  -1.29556414e-02 -6.80359080e-02  8.01198259e-02 -2.51088589e-02
   6.82174694e-04  1.21234981e-02  3.33296061e-02 -4.18623257e-03
  -9.97124538e-02 -9.46007762e-03  9.64476541e-03 -2.56579579e-03
  -3.27367596e-02 -1.19637018e-02  1.08363023e-02  1.18307151e-01
  -6.26188442e-02 -3.64023522e-02 -1.02000169e-01 -1.18190972e-02
   5.04534766e-02 -5.15139401e-02  2.10568085e-02 -9.82381776e-02
   8.93601477e-02 -3.59647460e-02  7.86115881e-03 -2.59071868e-02
   2.55029555e-02 -1.49723254e-02 -4.35276553e-02  5.71502708e-02
   1.64353326e-02 -5.66225722e-02 -2.80930791e-02  1.22527517e-02
  -2.66455542e-02 -2.47719791e-02  4.52971458e-02  1.34647982e-02
   3.39131732e-03 -2.67137736e-02 -6.11766912e-02  5.58395162e-02
  -1.68737061e-02  2.06150226e-02 -8.37431699e-02 -1.43196909e-02
  -1.24374218e-02  2.36857124e-02 -5.73184155e-02 -2.06230238e-01
   2.52451934e-02 -7.65702426e-02  2.14024168e-02 -3.57328728e-02
   3.43708545e-02 -1.11348033e-02  3.69107574e-02  1.78147666e-02
   1.57967547e-03  9.54367034e-03  3.51038575e-02  2.08276622e-02
  -5.11668883e-02 -2.15159217e-03 -2.38847379e-02 -5.01886569e-02
   3.23809609e-02 -4.22775038e-02  8.49795528e-03 -3.84213179e-02
  -9.37776938e-02 -1.06024794e-01  1.55007122e-02  4.77583595e-02
  -7.14975968e-02 -7.47701675e-02  2.04350315e-02 -4.83289845e-02]
 [-5.24307080e-02 -5.34603558e-02 -3.37428190e-02 -1.17127001e-02
  -4.68587019e-02 -7.21662566e-02 -1.02278389e-01 -9.42218080e-02
   1.63037945e-02 -5.65077290e-02 -2.10177615e-01  1.63594022e-01
  -6.03004918e-02 -7.35884672e-03  2.24656314e-02  2.44104378e-02
   1.21308990e-01 -3.69684882e-02  6.22215375e-05  1.53302988e-02
  -1.05121478e-01  2.14864984e-01  1.96403846e-01 -7.57908821e-02
   5.65323699e-03 -1.40164290e-02 -9.58563536e-02 -5.45984693e-03
  -5.58243394e-02  3.65227200e-02  1.63232014e-02 -3.91097330e-02
  -8.16347897e-02  4.01842520e-02 -5.55543341e-02 -9.15719289e-03
   2.01028190e-03 -1.82820484e-02  5.50679751e-02  3.36244553e-02
  -2.56302059e-01  2.93423440e-02  1.53812766e-01 -3.60111967e-02
  -2.19595373e-01 -6.21417202e-02  2.85040647e-01 -1.13944989e-02
   3.14071216e-02 -7.47700110e-02 -1.53229639e-01  3.68322045e-01
  -5.81434816e-02 -3.62861305e-02 -2.31831163e-01 -7.63049349e-03
   8.71835276e-02  4.70886566e-02 -3.49980563e-01  1.20416969e-01
   5.13178594e-02  4.42757234e-02 -1.55935455e-02 -4.80192676e-02
  -1.12652185e-03 -5.78999240e-03  7.56376311e-02 -5.86480126e-02
   2.14253917e-01  5.01726102e-03 -1.80269942e-01  4.46159169e-02
  -1.36313528e-01  9.27811768e-03 -2.84387264e-02  1.90533735e-02
  -3.18231322e-02  3.55476374e-03 -1.33682694e-02  4.08142470e-02
  -6.76460490e-02  5.03131337e-02 -2.82590985e-02 -4.96411510e-02
  -4.47571091e-02 -4.82274592e-02 -3.52851790e-03  1.15877585e-02
  -5.86444922e-02  3.30894172e-01  6.18489422e-02  4.39536683e-02
  -6.85947388e-02  1.23440428e-02 -4.51294631e-02 -1.61156788e-01
   1.66497268e-02 -1.09379198e-02 -2.72371825e-02 -1.13392636e-01
   2.93457001e-01 -1.80579145e-02 -9.36923623e-02 -9.48442705e-03
  -3.20426258e-03 -2.61945948e-02 -1.93185359e-02  1.37712777e-01
   4.48271306e-03  1.30684108e-01  8.48203823e-02 -6.75178424e-04
  -3.89263220e-02 -1.86889783e-01 -8.35404173e-02 -4.47126627e-02
   4.64859940e-02  5.52837588e-02 -4.64202277e-02 -1.40414149e-01
  -3.93770821e-02 -9.54063907e-02  7.79588195e-03 -3.13888863e-02
  -5.89879379e-02  2.34625321e-02  4.97704111e-02 -2.04243794e-01]
 [-1.53312817e-01  6.66115480e-03  6.32422194e-02 -3.92335765e-02
  -1.52086467e-02  3.52240391e-02  3.54011282e-02 -2.77761966e-02
  -4.81683500e-02  3.89827229e-02 -9.99915153e-02  5.35945669e-02
  -1.81271881e-02 -1.65585950e-01 -2.33080238e-02 -6.07782230e-02
   5.42545691e-02 -6.70600384e-02 -7.25080222e-02  4.00040597e-02
  -2.28650477e-02  1.29793048e-01 -3.65566760e-02 -6.93838745e-02
   4.20310982e-02 -1.53949065e-02 -8.73953477e-03 -1.90596096e-02
  -3.56389433e-02  2.11881697e-02  3.04764882e-02 -4.22544871e-03
  -6.70272484e-02 -1.67100094e-02  3.41739766e-02  7.32036680e-02
   2.83438154e-03 -6.94743618e-02 -4.66346070e-02  5.54023646e-02
   6.48370758e-02 -3.50002199e-02 -1.08296618e-01 -6.26486086e-04
  -1.21240914e-02 -5.82017796e-03 -1.36643767e-01 -9.71029047e-03
   3.59453671e-02  9.39457677e-03 -1.05097488e-01 -8.02208409e-02
   6.61229994e-03 -2.84640789e-02  1.67482924e-02  7.84222782e-02
  -4.50523291e-03  9.27787647e-03 -5.19034714e-02  8.10669810e-02
  -3.26619893e-02 -2.94809546e-02 -2.73174718e-02  6.69950098e-02
  -4.76976624e-03 -7.60882050e-02 -8.20317566e-02 -2.65781675e-02
  -2.25926474e-01 -3.08229756e-02 -2.29813963e-01  8.09501857e-03
   1.66507643e-02  8.66706576e-03 -1.52837420e-02  9.69366543e-03
   2.28041988e-02  4.46487442e-02  3.32223400e-02 -4.99970727e-02
  -2.69013852e-01 -3.88955278e-03  1.80413630e-02  8.75758007e-03
  -2.31203847e-02  2.98317689e-02 -4.40169275e-02 -5.42433076e-02
   1.67942151e-01 -1.34353561e-03 -1.05501316e-01 -4.05094810e-02
  -4.44079228e-02 -1.54571822e-02 -5.76775931e-02 -1.00377582e-01
   4.75156978e-02  4.96897995e-02  4.71526897e-03  6.80234134e-02
  -8.22740868e-02 -4.60197479e-02 -1.09277092e-01  2.91580390e-02
  -1.79356053e-01 -1.16497971e-01  3.54518974e-03 -5.24288304e-02
   1.06256127e-01 -1.53523937e-01  1.34238154e-01  3.75818461e-02
   4.43262495e-02  1.73904136e-01  9.94905978e-02 -5.30641340e-02
  -2.29174495e-02 -5.15030473e-02 -9.05366894e-03  1.48634531e-03
  -2.99995802e-02 -1.83909014e-01 -2.94990391e-02  3.24911885e-02
   1.38162076e-02  1.04571566e-01 -7.38622695e-02 -1.72479510e-01]
 [ 6.42735139e-02 -9.74204168e-02  3.11903134e-02 -5.26333749e-02
   5.28414547e-03 -4.57554236e-02 -1.62399217e-01 -2.59938128e-02
   1.95678174e-02  2.02621147e-02  6.93725422e-02 -1.18591823e-01
   3.66294384e-02 -3.19666676e-02 -9.27557051e-03 -4.52890471e-02
   1.05654329e-01 -5.62059768e-02 -1.42301582e-02 -5.75186759e-02
  -3.08622662e-02 -3.18665832e-01 -2.05445513e-02  9.27137136e-02
  -5.42380214e-02  1.50213400e-02  1.18866146e-01  1.09018963e-02
   5.58697395e-02  3.74690592e-02  9.11772344e-03  1.08190775e-02
   5.49142696e-02  2.77495217e-02  1.27461955e-01  1.05406670e-02
  -3.83831449e-02 -1.06969597e-02  4.81599346e-02 -6.30777329e-02
  -2.46332735e-02 -2.89943349e-02 -1.88476697e-01 -3.69289927e-02
  -7.13863894e-02  4.82764542e-02  8.69296417e-02  1.33950710e-02
   3.69593948e-02 -1.30994767e-02  5.66256279e-03 -2.12517872e-01
  -5.80764934e-02  3.94002572e-02 -1.28148168e-01  1.23493649e-01
   5.60011603e-02  4.92667183e-02 -2.08581835e-02  4.32338715e-02
  -4.34848443e-02 -4.58616652e-02  1.84109155e-02 -1.03130594e-01
  -8.09011012e-02 -1.18833035e-02 -6.30318606e-03 -1.19457819e-01
  -8.30866280e-04  9.44362581e-03  1.59934178e-01 -5.69592789e-02
   1.03454091e-01 -1.40026389e-02 -1.25677639e-03  1.11191943e-02
   5.45597598e-02 -3.74480598e-02  7.19078630e-03 -5.90777732e-02
   1.78135201e-01 -1.53036565e-02 -5.23250848e-02 -1.01396702e-02
   6.49504829e-03 -5.26400581e-02  1.28768578e-01 -1.95668451e-02
  -6.03767075e-02 -8.63597319e-02 -2.34456062e-02  1.03094332e-01
   4.21278412e-03  1.01676539e-01  6.84162974e-03 -9.31709539e-03
  -3.50989848e-02 -7.35589266e-02 -2.65005864e-02 -1.50396153e-01
  -2.16864869e-01 -2.35458501e-02  9.21200216e-02 -5.53928129e-02
  -1.34389906e-04  5.43012880e-02  1.57403257e-02  5.27132861e-02
  -4.11446728e-02  2.15463221e-01  5.40812202e-02 -1.38914995e-02
  -4.91432697e-02 -4.28552227e-03  5.36845736e-02  3.01793814e-02
   1.85584370e-02  7.51796225e-03 -3.56604792e-02 -1.33907825e-01
  -6.55780360e-02  1.36304781e-01 -3.65540050e-02  1.30988210e-02
   2.85941884e-02  1.97299078e-01 -1.00581147e-01 -1.42785445e-01]
 [-1.95550174e-02 -1.20810241e-01 -1.37132425e-02  3.21288891e-02
  -1.90204456e-02  1.19052334e-02 -4.92479093e-02  7.77693000e-04
   8.06795899e-03 -3.77798598e-04 -1.30022988e-01 -1.80274323e-01
   2.41949875e-02  1.02433737e-03  1.11012841e-02  1.58530027e-02
   1.03726061e-02 -5.70878536e-02 -5.27040288e-02  7.65636191e-02
  -3.43816169e-02 -8.40277970e-02  1.27475739e-01 -2.40645315e-02
  -8.66932198e-02  2.16745958e-02  2.70081218e-02 -5.73473349e-02
   4.89231721e-02  2.10504439e-02 -1.66901182e-02 -3.29422057e-02
  -2.95565482e-02 -3.73275839e-02 -1.08362436e-01 -3.12802382e-02
   3.12514603e-02 -3.16069983e-02 -2.35654321e-02 -2.47636195e-02
   1.32151023e-01 -2.23972760e-02 -3.56158279e-02  4.10447270e-02
  -1.37520894e-01  1.17921187e-02 -1.03450783e-01 -5.75905703e-02
  -4.62491848e-02  1.13129267e-03 -5.29836211e-03  1.10680247e-02
   4.28966209e-02 -7.20579848e-02 -5.55588156e-02  4.81562689e-02
   3.70917469e-02 -6.17488325e-02 -3.07069737e-02  7.59011880e-02
   2.42660404e-03 -3.61807831e-02 -1.07571647e-01  1.51923567e-01
  -8.92971233e-02 -7.06771240e-02 -7.92108402e-02  4.81712492e-03
  -4.02177610e-02 -5.45267649e-02 -8.49890262e-02  2.86542512e-02
  -3.19604129e-01 -5.02002873e-02  2.37113237e-02 -1.46085434e-02
  -4.88014631e-02 -8.62460583e-02  1.15605099e-02  1.84598938e-02
  -1.01926044e-01 -1.46175846e-02 -1.55949239e-02  1.97191779e-02
  -4.87735197e-02  2.79611000e-03  7.77973905e-02  3.88961658e-02
   7.61709511e-02 -2.37879865e-02  6.33075684e-02 -9.74596441e-02
  -1.90946776e-02 -2.25035269e-02  4.67034280e-02  2.31766794e-02
   9.96557809e-03 -2.93135885e-02  2.68228482e-02 -1.44234285e-01
  -1.00415982e-01  7.29741703e-04  2.46243980e-02 -1.00253429e-02
  -1.70476176e-03  1.30813224e-02 -7.37969726e-02 -9.36310366e-02
  -1.33790433e-01  4.36023250e-02  7.15188608e-02 -3.76366153e-02
  -7.17357406e-03 -7.73205459e-02 -2.77672242e-02 -5.37713431e-02
  -4.12362665e-02 -7.00313374e-02 -3.13647389e-02  5.64633310e-02
  -1.95711870e-02  1.17804460e-01  4.89592999e-02 -3.00452709e-02
   5.04111424e-02 -8.72111022e-02  1.04796275e-01 -9.24975127e-02]
 [ 8.27239826e-02  5.25004677e-02  6.63910434e-03  8.87292996e-03
  -3.39898206e-02 -1.37057193e-02  1.67547926e-01  9.54738334e-02
   2.42891423e-02 -2.15584375e-02 -2.75938492e-02  1.53813720e-01
   3.73645686e-02 -1.49448579e-02 -6.42305166e-02  4.50620800e-02
   3.99300903e-02 -2.25493312e-02  1.92335229e-02  1.46970544e-02
  -6.43377379e-02 -2.71706760e-01 -2.86881059e-01  5.01904935e-02
   1.09088741e-01 -4.62023877e-02 -1.20345794e-01  2.82615926e-02
   1.00947451e-02  3.66245992e-02  5.66386469e-02  3.83449309e-02
   4.68629710e-02 -1.33294920e-02  4.12345119e-03  6.00156523e-02
  -3.52526605e-02 -5.25420494e-02 -1.71359722e-02 -1.56386215e-02
  -6.56261444e-02 -6.23407438e-02  4.29243073e-02 -4.03202847e-02
  -2.12240200e-02 -4.10901606e-02  1.19694024e-01 -5.36685735e-02
  -6.26963843e-03 -6.64500296e-02  8.85758102e-02 -1.93043709e-01
   4.35741693e-02 -6.35001138e-02  5.48510663e-02  6.23866683e-03
   6.08564503e-02 -5.33842258e-02 -7.39582554e-02 -1.86514459e-03
  -2.07764991e-02 -4.84930426e-02  6.03635646e-02 -8.99396688e-02
   1.85210034e-02  3.33952084e-02  9.43903774e-02 -7.58020952e-02
  -1.26044638e-02  3.38483639e-02  1.26295656e-01  1.37651801e-01
   2.21231550e-01 -9.56309885e-02 -4.74814102e-02  1.41883157e-02
  -7.78156938e-03 -1.44300843e-02 -4.06207889e-02 -3.25508751e-02
  -6.54193610e-02 -9.72216055e-02  1.86956469e-02 -1.18004754e-02
  -3.71063314e-02 -2.19180863e-02 -9.61269438e-02 -1.62519366e-02
   9.58288461e-02 -1.06154166e-01  4.61483700e-03  1.72606245e-01
  -1.05588464e-02 -1.81237739e-02 -3.73808928e-02  1.20026112e-01
  -2.02463474e-02 -7.33539741e-03 -6.08241409e-02 -1.62504893e-02
  -4.57402226e-03 -7.14313164e-02 -5.84487915e-02 -4.20313403e-02
   3.31230648e-02  2.44525727e-02 -7.02948645e-02 -3.27661671e-02
   1.23662934e-01  1.11683823e-01 -3.25722843e-02 -2.42146980e-02
  -3.54722468e-03  9.82368663e-02 -2.32882842e-01 -5.79948239e-02
  -5.02361730e-02 -2.07899492e-02 -3.00107729e-02 -3.73342223e-02
   3.88505310e-02 -7.69534782e-02  5.78246973e-02 -2.71725245e-02
  -6.44954592e-02 -1.59422800e-01 -7.53125995e-02 -1.05531543e-01]
 [ 4.18302640e-02  7.95564119e-05 -2.84996293e-02 -5.10783009e-02
   4.77118157e-02 -1.02850199e-02  3.59364669e-03 -1.67611684e-03
   2.55871285e-02 -5.07799443e-03  3.67924199e-02 -5.81980795e-02
  -4.95053343e-02  1.89683884e-02 -6.07308000e-02 -2.36533955e-02
  -3.84723954e-02  5.91361756e-03  1.42741166e-02 -1.01808757e-01
   9.36707109e-03 -6.04663268e-02  7.60637969e-02 -1.53054986e-02
  -1.39805283e-02 -7.03049302e-02 -1.96486935e-02 -8.46631452e-02
  -2.59946212e-02  4.05812860e-02 -9.08083990e-02 -5.89861628e-03
  -1.86281968e-02  1.44901350e-02 -9.81571525e-02 -6.22210503e-02
  -2.67814239e-03 -8.75219405e-02  4.92100194e-02 -1.17527857e-01
   7.95488432e-03 -3.84153686e-02 -7.99418427e-03  1.44562591e-02
   8.35178047e-02 -3.40904854e-02  2.51235291e-02  3.57120372e-02
   4.31315489e-02 -4.03092168e-02  5.25650047e-02  3.28977183e-02
  -7.12212175e-02 -3.71136516e-02  1.01487048e-01  3.18670012e-02
  -1.02689248e-02 -5.65979593e-02  2.74224039e-02  4.88354266e-02
   4.61529568e-03 -1.95798855e-02 -9.98728536e-03  1.40991120e-03
  -7.14815746e-04  4.10730541e-02 -6.75996467e-02 -8.17526579e-02
  -1.00808464e-01 -9.41893384e-02  4.18445133e-02 -5.89149110e-02
   9.76937637e-02 -8.53215996e-03 -4.89501059e-02  2.31246930e-02
  -9.68553200e-02 -3.21853533e-02 -7.54703283e-02  3.05589624e-02
   7.84617290e-03 -5.69235161e-02 -2.39686314e-02  3.61520760e-02
  -4.24233228e-02 -5.02222329e-02  6.89472407e-02 -4.92057204e-02
   1.12052776e-01 -5.17256670e-02  5.08895405e-02 -5.29397130e-02
  -2.39795577e-02  7.54243881e-02  3.69510101e-03  6.63189963e-03
  -1.13179293e-02 -6.08105063e-02  3.05106901e-02 -1.54565230e-01
  -5.45051433e-02 -5.67503497e-02  2.42082998e-02  7.39065604e-03
   2.36982238e-02  5.75262308e-02  8.47810879e-03  1.46186389e-02
   1.24227121e-01 -5.36393793e-03  2.31621489e-02  3.41251493e-02
  -4.32060435e-02  8.41311738e-02  1.27835190e-02 -2.97526736e-02
  -4.27920744e-02 -4.37953956e-02 -4.90933508e-02 -7.97505006e-02
  -2.19781399e-02 -5.49359210e-02 -5.55804744e-02 -2.32545026e-02
  -6.28618076e-02 -3.91596407e-02  1.11849839e-02  5.82660474e-02]
 [-4.73259799e-02 -4.22061943e-02  8.93941242e-03 -4.76311632e-02
  -1.39483940e-02  2.55680922e-02 -2.49375314e-01 -8.27894285e-02
  -4.28671688e-02 -1.98683534e-02  1.16497222e-02 -4.69629429e-02
   3.62350121e-02 -1.03561841e-02  3.09892208e-03  1.67415701e-02
   6.21046126e-02 -6.73105568e-02 -2.57752906e-03 -1.52191287e-02
  -4.56054509e-02  9.29687023e-02  1.23237528e-01 -2.49070227e-01
  -6.32324116e-03 -8.58743768e-03 -3.22526336e-01 -2.88374089e-02
  -6.48058504e-02 -1.94113683e-02 -6.14986643e-02 -1.13415923e-02
  -4.75338735e-02 -3.17049921e-02 -2.11190060e-02  3.62009695e-03
  -1.00048697e-02 -5.07837236e-02 -3.14798541e-02 -6.41062930e-02
   1.16369538e-02  5.08401319e-02  1.10073082e-01  5.10506611e-03
  -4.15188037e-02  8.29834584e-03  4.32439111e-02 -4.09166403e-02
  -1.36803510e-02 -1.11121347e-03 -2.24518076e-01  2.37733632e-01
   9.53189749e-03 -2.91567761e-02 -2.81910568e-01 -2.86680639e-01
  -3.32914107e-02 -5.04025109e-02 -8.81369263e-02  9.29769725e-02
  -2.84018535e-02  3.30912322e-02 -1.04380790e-02 -4.83058728e-02
   2.69220653e-03  3.89512107e-02 -1.01167016e-01 -6.96392134e-02
   1.02853123e-02  3.53411064e-02 -7.81447962e-02  6.09262586e-02
  -1.93126187e-01  1.84757672e-02 -5.39439544e-02  8.70277267e-03
  -3.89924608e-02 -5.93621247e-02  2.29287222e-02  6.24918612e-03
  -9.04729813e-02 -4.18388434e-02 -3.65925841e-02 -5.43932021e-02
  -1.64887905e-02  2.28992328e-02 -9.36997309e-02 -1.41354697e-02
  -8.02454874e-02  5.69556504e-02 -7.17786998e-02 -4.55767959e-02
  -2.22098548e-02  7.59727061e-02 -4.42093164e-02 -1.28068849e-01
  -3.34270671e-02 -6.58599734e-02 -1.09376395e-02 -8.74520242e-02
   2.28801686e-02 -2.95286514e-02  5.64925857e-02 -8.32328647e-02
   8.80427361e-02  8.49983916e-02  4.83675934e-02  1.28001511e-01
   6.28735113e-04  1.51273206e-01  1.47932414e-02 -4.43950593e-02
  -2.50970628e-02 -1.76108200e-02 -1.36456266e-01 -4.05592881e-02
  -2.90506799e-02 -1.40151447e-02 -4.19219024e-02 -1.19412318e-01
   4.94723059e-02 -1.23107307e-01 -3.12457066e-02 -3.72152403e-02
  -5.51688522e-02 -7.07553253e-02  4.99728657e-02 -1.10672638e-01]
 [ 8.55045021e-02  2.19812747e-02 -1.44107696e-02 -3.69940214e-02
   4.24282402e-02 -2.37096138e-02  1.52368978e-01 -3.70116010e-02
  -2.69654859e-02  4.49626893e-02 -2.98417777e-01  8.88346229e-03
  -6.34700656e-02 -5.67263626e-02 -2.66408664e-03 -7.52194300e-02
  -6.50104135e-02  1.23994499e-02 -4.25167754e-02  1.09818213e-01
   1.79764610e-02  2.22428516e-02 -1.65506840e-01  4.86606397e-02
   1.79061247e-03 -1.01452265e-02 -6.91531152e-02 -5.64206578e-02
  -4.08544354e-02 -3.39398235e-02 -1.68317631e-02 -4.35130447e-02
   2.38476717e-03 -4.31326739e-02 -2.53859698e-03 -6.96470886e-02
  -3.79755646e-02 -4.89560515e-03  4.93773855e-02 -2.76375022e-02
  -7.07438216e-02  5.47096319e-02 -2.94165462e-02  7.94208050e-03
   3.75634693e-02  5.06736189e-02 -1.47962257e-01 -1.13556478e-02
  -6.29463121e-02  7.00714067e-02 -2.42911950e-02 -2.29159016e-02
  -3.94755937e-02  9.22790729e-03 -6.83401152e-03  8.09112713e-02
   1.12181805e-01  2.19338704e-02 -3.08725890e-02 -9.62243974e-02
  -1.81665327e-02 -3.21106836e-02  2.16056895e-03  1.95747260e-02
  -4.72894721e-02 -7.50213563e-02 -5.41968830e-02  2.96689849e-03
  -3.04308414e-01 -9.96724423e-03 -2.07858250e-01 -4.78598922e-02
   1.31956592e-01 -2.65100524e-02  1.96969230e-02  2.40027253e-02
  -3.26117910e-02 -5.99351712e-02 -1.56746712e-02 -8.12621713e-02
  -1.42822742e-01  5.01018725e-02  3.65677215e-02  5.02870530e-02
  -7.89620206e-02 -3.75763290e-02 -8.95889699e-02  2.77435612e-02
  -1.62136387e-02 -1.27636969e-01 -7.08975121e-02 -1.17086163e-02
  -2.72577014e-02 -7.17605427e-02 -2.92350296e-02  8.99383519e-03
  -7.54449610e-03 -5.97075447e-02  2.94243563e-02  3.92538030e-04
  -4.20072339e-02  9.12239403e-03 -1.65660694e-01 -5.52949831e-02
  -3.74878347e-01  4.60140146e-02 -2.87306700e-02 -1.36114866e-01
   8.18172470e-02 -2.50521183e-01  2.03640591e-02  7.93211162e-03
   3.10569834e-02  1.64636746e-02  7.11300690e-03 -4.07452807e-02
  -2.20781304e-02  1.47608127e-02  4.52700891e-02 -1.08304033e-02
   1.18785333e-02 -7.13885203e-02  3.24535444e-02  7.70689733e-03
  -2.15416439e-02  1.21312559e-01 -1.37399649e-02  1.10454932e-02]
 [ 2.02883687e-02  6.60662279e-02 -1.25515331e-02  3.21473926e-02
  -2.69046482e-02 -9.01695248e-03 -9.50925425e-02  2.09280066e-02
  -1.51725644e-02 -2.66163554e-02  5.75881973e-02 -1.13354020e-01
  -9.07023030e-04 -5.45996800e-02  5.13712987e-02  3.71032655e-02
   1.15021393e-01  2.99056782e-03 -4.94950637e-02 -1.68601021e-01
  -1.39433262e-03 -9.97059494e-02 -1.61327526e-01  9.09860507e-02
  -8.25052261e-02 -2.45473720e-02  6.76181465e-02 -5.29159559e-03
   3.15406956e-02 -6.32716566e-02 -2.21521184e-02 -2.76921932e-02
  -3.34050991e-02  9.25121084e-03  1.17598549e-01 -2.24864855e-02
  -6.34013265e-02  3.09533104e-02 -5.29075712e-02 -1.05570972e-01
  -1.07776105e-01  1.77879492e-03 -1.47929952e-01 -3.65608484e-02
  -3.95460986e-02  2.25861147e-02  8.49933177e-02  4.50459681e-02
   3.45388404e-03 -6.94267154e-02 -8.29881579e-02 -9.23661813e-02
  -1.19711552e-02 -1.48338452e-02 -6.66145533e-02  6.00087419e-02
   1.95515677e-01 -5.98358735e-02 -2.52326965e-01  1.42953813e-01
   3.34630162e-02  2.98915468e-02 -8.54582042e-02 -1.97130740e-01
  -5.10815829e-02  3.86720076e-02  9.72979143e-02 -1.10456780e-01
   1.53930695e-03 -8.80777985e-02 -6.40750155e-02 -2.69942824e-02
   1.44380391e-01 -2.35348251e-02 -2.29340903e-02 -5.85159333e-03
  -2.71946434e-02 -3.04125808e-03  8.56101164e-04 -7.22810924e-02
   7.00014606e-02 -3.96117195e-03  3.08556878e-03 -8.50541890e-03
  -8.30891728e-02 -7.14688003e-02  1.80061348e-02 -4.38241959e-02
  -8.92056432e-03 -2.21660733e-02 -1.19017743e-01  1.23428814e-01
  -7.38545805e-02  8.41118544e-02 -5.69986999e-02 -1.35764807e-01
  -2.74420884e-02 -2.84457207e-03 -2.55661700e-02 -1.82997324e-02
  -1.22424126e-01 -1.23883123e-02 -2.08823639e-03  5.84773235e-02
   1.11159757e-01 -2.93753929e-02 -2.16763164e-03  5.93355298e-02
  -4.97284606e-02  1.02341697e-01  1.35759175e-01 -7.45446682e-02
   1.15483359e-03  1.28309615e-02  7.03026950e-02 -8.80260952e-03
  -4.32840064e-02 -3.65287950e-03  5.22437245e-02 -2.94687692e-02
   6.41307002e-03  1.08582154e-01 -5.22744879e-02  3.82984243e-02
  -1.56551087e-03  1.28002735e-02 -2.72265196e-01 -6.99403733e-02]
 [-1.01611502e-02 -9.15264413e-02 -1.27208689e-02 -4.15097140e-02
  -3.34446840e-02  6.92847138e-03  3.93422283e-02  1.89875066e-02
   9.23398416e-03  1.97975598e-02 -3.63006280e-03  8.13376755e-02
  -3.50519717e-02 -7.48507008e-02 -3.46490219e-02 -4.44362499e-02
   7.52218366e-02 -4.32250686e-02  2.17674188e-02 -1.47540364e-02
  -1.95132960e-02 -1.93439916e-01 -1.14891976e-01 -1.84161156e-01
   6.07672855e-02  6.93092197e-02  6.46962300e-02 -3.75311486e-02
  -1.80144683e-02  5.21787675e-03 -1.55160436e-02 -3.94060276e-02
   2.10266039e-02  5.13830781e-03 -6.62323236e-02 -4.41608392e-02
   4.24942281e-03  8.17473382e-02  4.63666953e-02 -3.79403457e-02
  -2.14371294e-01 -3.21845477e-03  1.94520831e-01 -3.88404839e-02
  -3.17411274e-02 -4.75304276e-02  6.47556856e-02 -2.53383461e-02
  -4.96311523e-02 -9.10389945e-02 -4.54571843e-02  9.33652967e-02
  -3.38648185e-02 -1.09353988e-02  1.15441196e-01  1.53444797e-01
   6.32231729e-03  1.83608681e-02 -2.09859699e-01  5.81438206e-02
  -5.24909049e-02 -5.30679487e-02  8.22902098e-02 -1.83633640e-01
   1.16282515e-02 -2.27916967e-02 -1.99211892e-02  1.78699717e-01
   1.05139859e-01 -7.95402750e-02  1.69777006e-01  1.65647551e-01
   4.41871360e-02  9.01692023e-04 -5.37757762e-02 -3.68450209e-02
   1.83487218e-03  4.44928743e-02 -4.93183881e-02 -4.14431505e-02
   2.43699178e-02 -2.70089898e-02  5.25641441e-02 -9.31611732e-02
   3.04496344e-02 -4.32235971e-02 -6.66201711e-02 -5.16568683e-02
   7.37695396e-02 -2.35391229e-01 -2.98034642e-02 -8.09077099e-02
   3.15604508e-02  6.88676760e-02 -4.60772067e-02  1.63296103e-01
  -5.81485778e-02  1.55848945e-02 -4.95739877e-02  1.03850393e-02
  -2.41927989e-02  4.31713387e-02 -1.45911753e-01 -2.16702670e-02
   1.01197042e-01 -5.88706583e-02  4.56650928e-02 -1.00481221e-02
  -3.31743136e-02  2.35115632e-01  7.30793700e-02  6.28592148e-02
  -6.37635887e-02 -1.80063713e-02 -7.19528496e-02 -3.00798062e-02
   1.58167053e-02  2.35341787e-02  5.82998693e-02 -3.37047428e-02
  -4.72200587e-02  2.53592525e-02 -1.41217448e-02 -2.54404848e-03
   5.30487113e-02  2.83102486e-02  1.85098633e-01  2.37419493e-02]
 [ 6.04499504e-02  1.22273058e-01 -1.74177457e-02 -2.37197764e-02
  -2.00203583e-02 -1.59240384e-02  2.08117276e-01  6.59579560e-02
  -2.89225690e-02  4.16916050e-02  1.56606548e-02 -1.65934656e-02
   3.29628251e-02  5.51343188e-02 -5.56342155e-02 -6.64153174e-02
   8.69424548e-03 -1.71746034e-02  1.28256874e-02 -1.04160838e-01
   1.84839610e-02 -1.65528491e-01 -3.41517150e-01  1.40525430e-01
  -2.25854088e-02 -2.41815634e-02 -2.03115195e-02 -6.72902679e-05
   2.44893525e-02 -7.38240732e-03  4.69860025e-02 -3.19418162e-02
  -6.52360916e-02 -5.57693169e-02 -3.18451226e-02 -7.05987168e-03
  -5.19983470e-02 -1.35075822e-02  9.51586198e-03 -5.49999140e-02
  -8.92305821e-02  9.90003720e-03  1.36153013e-01 -3.38100083e-02
   2.95014419e-02 -2.66063213e-03 -7.49094561e-02 -3.03728916e-02
  -6.21053837e-02 -3.12150363e-02  4.38703559e-02  1.13847740e-02
  -5.11515774e-02 -7.55378008e-02  1.10665806e-01 -2.42588948e-03
  -4.48328853e-02  2.87013431e-03 -1.33649617e-01  1.77854389e-01
  -1.43993422e-02 -2.16882192e-02  2.15156917e-02  5.66281052e-03
  -3.32522318e-02 -7.78277889e-02 -1.40658587e-01  1.68899875e-02
  -2.86456738e-02  1.27895586e-02  2.06047192e-01 -2.75238045e-02
   3.96964774e-02 -3.09034903e-02 -2.43495982e-02  3.12065799e-02
   3.33403237e-02  4.49082814e-02  2.01408705e-03  5.02045872e-03
   5.10536879e-02  6.75494969e-03  7.60759274e-03  1.43192876e-02
   1.06893759e-02 -1.03214428e-01  1.53889274e-03  5.17057814e-02
  -7.11213723e-02  2.05614860e-03 -7.68147036e-02  1.62627235e-01
  -1.78447682e-02 -8.84710252e-02 -1.06392251e-02  1.45888194e-01
   2.47484557e-02 -6.26361966e-02 -2.39625312e-02  1.36794150e-01
  -5.50908269e-03 -4.80287857e-02 -2.30692446e-01 -4.60117236e-02
   8.20806623e-02  1.02035385e-02 -6.43538088e-02  1.05617661e-02
   5.20053059e-02  3.94038633e-02  6.39810041e-02  8.14486339e-06
  -7.89856259e-03  7.03929290e-02 -3.87256444e-02 -4.93443385e-03
  -2.70484760e-03 -4.73702587e-02  9.30676609e-02  9.79435667e-02
  -6.01248331e-02  9.65491286e-04 -2.44501326e-02  6.37167925e-03
  -5.72851710e-02 -4.02889885e-02 -3.80127169e-02 -1.15519658e-01]
 [ 6.98248893e-02  3.05290762e-02 -2.90185981e-03  3.24459863e-03
  -4.06362340e-02 -1.01349568e-02  6.62724897e-02 -8.56423452e-02
  -1.32415183e-02  9.32636950e-03  7.07986727e-02 -1.22482091e-01
  -2.59214062e-02  3.47687840e-03  1.04294755e-02 -4.78044078e-02
  -7.17750378e-03  8.13331176e-03 -4.11632136e-02  2.07497291e-02
  -7.64650777e-02 -6.85621276e-02 -7.26925861e-03  2.46235332e-03
  -1.66000705e-02  1.54449577e-02 -5.61983092e-03 -5.63359372e-02
  -9.61007550e-02  3.62879336e-02 -5.86140826e-02 -5.70776574e-02
   4.25869413e-02 -9.97074787e-03 -4.31197956e-02 -4.95238490e-02
  -1.50933824e-02 -4.22804989e-02  3.66089046e-02 -9.00304839e-02
   2.60534100e-02 -5.95297031e-02  1.05194688e-01  8.72197095e-03
   9.55754612e-03 -6.27637729e-02  4.01204564e-02  1.13782845e-02
  -6.24594577e-02  1.98112633e-02  7.27194473e-02 -6.78018853e-02
   4.44945842e-02 -7.30472133e-02  3.17260884e-02 -1.72673091e-02
   1.14970230e-01 -3.86504568e-02 -5.13506262e-03  6.25642249e-03
  -5.39715737e-02  1.71101987e-02  5.79159260e-02 -3.70864570e-02
  -3.61823216e-02  8.15207604e-03  7.90320486e-02 -6.40461817e-02
  -9.31913331e-02 -5.84976487e-02  1.27494717e-02  5.70846768e-03
   4.43880297e-02 -5.05024008e-02 -1.46268979e-02 -3.94933447e-02
  -4.37865257e-02 -3.28855589e-02 -3.49429995e-03 -6.25378489e-02
   6.31944835e-02  3.62489559e-02  4.66727419e-03  2.08021933e-03
  -1.97159387e-02  2.18065083e-02  2.54546665e-02 -4.19176482e-02
  -1.72820454e-03 -2.51035485e-02  1.64404541e-04  1.16114832e-01
   5.90085872e-02 -1.69211067e-02 -6.27741814e-02 -4.41461196e-03
  -5.19871004e-02 -6.84981197e-02  3.92254032e-02 -1.31681427e-01
  -5.12534454e-02 -6.66003078e-02 -2.88163610e-02 -2.47516818e-02
   4.63737920e-02 -6.30323216e-02  1.26714939e-02 -2.07836311e-02
   5.31513467e-02 -1.90545514e-04 -3.37571278e-02 -1.92319416e-03
   6.34815451e-03  6.20937459e-02  4.54130117e-03 -2.75513101e-02
  -5.79506308e-02 -2.03155112e-02 -7.21992105e-02 -1.56066537e-01
  -4.97117452e-02  5.21596372e-02 -6.46608025e-02 -7.09903091e-02
  -7.12967962e-02 -5.15233204e-02  4.41282727e-02 -9.95088555e-03]
 [-1.15282774e-01  7.78025482e-03  2.81925760e-02  4.83032688e-03
   4.70553488e-02 -2.27412041e-02 -1.06948577e-01 -1.04743920e-01
  -4.65541184e-02  2.87098438e-02 -5.48384748e-02 -1.37993976e-01
  -2.74884980e-02  7.37934513e-03 -2.66434234e-02  2.37521883e-02
  -5.77466050e-03 -5.49065182e-03  3.15939598e-02  1.20785445e-01
  -2.68523432e-02  1.54948458e-01  2.60911196e-01 -2.43776068e-01
  -8.05661897e-04 -9.14364681e-03 -4.35808189e-02 -5.02818860e-02
  -3.99078354e-02 -1.35320760e-02 -3.37199047e-02  1.98168196e-02
   6.90674921e-03  2.91487277e-02 -1.06130794e-01  2.35399120e-02
  -1.28624598e-02  2.17003096e-03  3.81420292e-02  3.74359172e-03
   7.37110451e-02 -1.66986212e-02 -3.99903990e-02 -1.28063662e-02
  -2.92073011e-01 -6.75254734e-03  3.84929925e-02 -3.96934450e-02
  -3.16957235e-02 -8.97154771e-03 -7.15047568e-02 -3.06669232e-02
   9.81591269e-03 -3.28210294e-02 -3.03391337e-01 -2.96533763e-01
  -1.67951748e-01  2.42868885e-02  3.03642713e-02 -9.20878872e-02
   5.61684407e-02 -6.29653856e-02 -4.15683463e-02  7.73659255e-03
   5.34095988e-02  5.96621307e-03 -1.45900175e-01  6.16579652e-02
  -1.32180944e-01 -4.88561280e-02 -2.30747223e-01 -5.51605374e-02
  -2.84297049e-01 -1.74042415e-02 -5.20496331e-02 -7.15146447e-03
  -4.70794439e-02  3.10260896e-02  2.48048604e-02 -2.73472816e-02
  -1.70633510e-01 -4.07746173e-02 -3.29943933e-02 -6.21999465e-02
   1.37196593e-02 -5.29272892e-02 -1.23446733e-01  2.53301971e-02
   4.07489054e-02  1.55721322e-01 -2.03864239e-02  3.81569029e-03
  -7.69803524e-02 -7.42314244e-03  4.48358692e-02 -1.10221751e-01
   4.70913835e-02 -4.25196141e-02  3.14072892e-02 -2.77594030e-01
   1.50641110e-02 -3.78853790e-02  4.29017395e-02 -9.64491740e-02
  -1.12725958e-01  1.23387165e-02 -4.04470116e-02  9.19636339e-02
  -2.28386208e-01  5.93161024e-02  4.47550267e-02  3.20910960e-02
  -3.25701796e-02 -1.69106647e-01 -2.30615400e-02 -5.53055555e-02
  -4.69114259e-02 -4.53784950e-02 -3.75573970e-02 -8.88100564e-02
  -4.41115610e-02 -1.37211666e-01 -3.38297524e-02  2.77978890e-02
   1.73359532e-02 -8.89549628e-02  4.18178067e-02 -1.77909255e-01]
 [ 1.85047239e-01 -3.67927589e-02  2.26195101e-02  3.09489667e-02
  -3.50220725e-02  8.80088471e-03 -4.88216132e-02 -5.22447973e-02
   6.21274114e-02 -6.00271001e-02  1.50086719e-03  4.08850871e-02
  -2.08850093e-02 -1.70871094e-02 -3.44207399e-02 -1.72068700e-02
   1.62901059e-01  3.93206365e-02  4.50662114e-02  5.93145713e-02
  -2.38303151e-02  1.32017666e-02 -7.25829154e-02 -4.81484644e-02
  -6.71458021e-02 -3.72560024e-02 -9.11388919e-02 -6.13889843e-02
  -1.16792293e-02  8.09901953e-03  3.71810980e-02 -1.13922311e-02
  -7.44303782e-03 -5.31122983e-02 -2.91177165e-02 -3.41271274e-02
  -3.01463157e-02 -3.99165377e-02 -2.95215417e-02 -2.96242386e-02
  -5.01869023e-02  1.41226426e-02  5.52764498e-02 -8.88437126e-03
  -6.19346462e-02  2.08676886e-02 -1.11885503e-01 -7.52969459e-02
   9.10880230e-03 -4.77140285e-02 -4.02880497e-02 -1.54257892e-02
   1.29050091e-02  3.28648873e-02  2.26883516e-02  1.00859426e-01
  -4.11230475e-02 -2.77501531e-03 -4.78400588e-02  3.16434726e-02
   2.42503714e-02  4.73589338e-02  5.78036681e-02 -9.45443928e-04
  -1.37950685e-02 -6.11992441e-02 -3.32580730e-02  1.19220234e-01
  -2.57378548e-01 -3.14016901e-02 -2.61581540e-01 -1.39902100e-01
   1.32245079e-01  4.33292277e-02 -4.42010676e-03  3.10348738e-02
   3.08599025e-02  1.91098657e-02  4.30987366e-02 -4.23870683e-02
  -8.71901885e-02 -3.08282841e-02 -3.41517627e-02 -3.69859487e-02
   3.21059711e-02 -6.67005330e-02 -2.95927729e-02 -3.39838974e-02
   4.72169705e-02  5.84547333e-02  1.08442595e-02 -4.42904644e-02
  -6.72015101e-02 -9.83023345e-02 -5.75560741e-02 -8.00127536e-02
  -3.05007435e-02  5.65162569e-04 -6.17198013e-02  1.16473865e-02
  -8.90083760e-02  1.54152168e-02 -1.44447371e-01  2.49445010e-02
  -2.72967696e-01 -5.68198152e-02 -6.20395541e-02 -3.59552950e-02
   6.79865628e-02 -2.40470663e-01 -3.50344293e-02  4.98720407e-02
   1.54341739e-02 -3.09777856e-02  1.51236668e-01  5.15867621e-02
  -3.60486694e-02 -3.14309821e-02 -4.71658260e-03  3.20701078e-02
   1.88838448e-02 -4.47934829e-02 -2.38124002e-02  3.71043123e-02
   8.16498324e-03  1.06108725e-01 -2.06161439e-02 -4.65692692e-02]
 [ 2.30885372e-02  1.47196660e-02  1.10226152e-02  7.92678446e-03
   9.71972197e-03 -5.09896241e-02 -1.29713908e-01 -2.67032310e-02
  -8.59270059e-03  4.72243764e-02  2.22522497e-01 -1.40294611e-01
  -1.20069161e-02  4.79103960e-02 -5.01502445e-03  1.99842006e-02
   1.44441441e-01 -7.05062877e-03 -2.02537198e-02 -2.05606595e-02
   7.79364705e-02 -1.86490521e-01 -2.33491644e-01  7.26251602e-02
  -7.75709897e-02 -4.22258899e-02 -1.80821568e-02  3.88222188e-02
  -1.04208207e-02 -1.82922352e-02  2.57485565e-02  2.78950669e-02
  -8.00426602e-02 -4.62241471e-02  1.12100363e-01 -6.28760904e-02
   3.81278433e-02 -1.16794147e-02  5.69980480e-02 -1.41514535e-03
  -3.70861846e-03 -4.43387479e-02 -6.32678121e-02  6.10973276e-02
  -4.16832417e-02 -5.41339740e-02  3.25631425e-02  3.38660739e-03
   4.86412086e-02 -1.65804625e-02  1.45265656e-02 -2.05508560e-01
  -3.00988369e-02 -3.15761976e-02  2.55357772e-02  7.83752203e-02
   1.34720549e-01 -2.33854596e-02 -1.81423753e-01  1.88283306e-02
   1.58331450e-02 -9.45193507e-03 -5.98089211e-02 -1.34254709e-01
  -5.19301705e-02 -5.14527857e-02  6.19246066e-02 -1.48689479e-01
   7.80087411e-02 -6.90949634e-02  1.36097461e-01 -2.67470151e-01
   1.53280690e-01 -3.74909304e-02  3.85683402e-02  1.68791562e-02
   2.47951765e-02 -7.13804970e-03 -1.47337478e-03 -6.69232309e-02
   7.05355704e-02 -1.81543641e-02 -5.48880510e-02 -2.42675245e-02
  -3.92057374e-02  1.82345808e-02  8.80378205e-03  5.98170385e-02
  -2.05238722e-02 -2.14069542e-02 -1.20580301e-01  1.02917627e-01
  -6.63804784e-02  1.35049783e-02 -1.95647404e-03 -4.61542048e-02
   1.71534065e-02 -5.54039665e-02 -5.41914664e-02 -6.26042038e-02
  -1.12771802e-01  1.76735502e-02  2.80234423e-02  3.80684547e-02
   9.61886123e-02  3.86610925e-02  3.69772501e-02  1.01709574e-01
  -6.79869801e-02  4.40317765e-02  1.58361778e-01  6.76149316e-03
   1.40703395e-02  9.16783139e-02  2.98671182e-02 -3.61781046e-02
   2.94852685e-02  5.74068092e-02  7.07402006e-02  4.60696146e-02
  -7.08520189e-02  1.32736728e-01 -2.60952469e-02  1.21674119e-02
  -3.68615873e-02  1.53826222e-01 -1.77342780e-02  8.98631215e-02]
 [ 1.40852049e-01  3.14410366e-02 -3.93553823e-02 -1.82850491e-02
  -4.17451523e-02 -5.91903143e-02 -1.71802849e-01 -5.83456159e-02
  -1.01371808e-02  1.63479988e-02  5.23741953e-02  3.59471589e-02
  -2.40818299e-02  9.06330198e-02 -1.74035151e-02  2.28435248e-02
  -1.33547947e-01  1.51381893e-02  2.09479663e-03  7.73955658e-02
  -1.08120017e-01 -3.11911911e-01 -1.14394844e-01  3.18453163e-01
  -1.50467772e-02 -6.24125414e-02  1.09959170e-01 -1.73046272e-02
  -4.32587154e-02 -6.07237220e-02 -5.05821519e-02 -5.26440814e-02
  -3.59820500e-02 -7.61615708e-02 -8.02356079e-02  7.75317773e-02
   4.37437110e-02 -5.79138584e-02  5.13805076e-02 -9.07136947e-02
  -1.26738608e-01 -8.70837457e-03 -4.75993846e-03 -4.71948870e-02
   1.09097876e-01  4.97796237e-02  2.11428836e-01 -1.93752795e-02
   1.75028965e-02  1.42296050e-02  1.76696137e-01 -1.15662351e-01
  -3.72485705e-02 -3.88057977e-02  7.55992085e-02  2.18333215e-01
   5.41548468e-02 -1.15400841e-02 -1.60568103e-01  7.78836086e-02
  -4.03524488e-02 -3.62899899e-02 -1.55044002e-02  2.11166907e-02
  -3.64575796e-02  3.10905837e-02  2.74201244e-01 -2.09328327e-02
   1.27454132e-01 -4.66731042e-02  2.42070392e-01  1.67722821e-01
   2.87561249e-02 -5.78702129e-02 -3.75337265e-02 -2.06320491e-02
  -2.57098898e-02  3.52446064e-02 -5.40923290e-02  1.72572620e-02
  -2.11753249e-02 -6.15479313e-02  1.44464439e-02 -7.14216977e-02
  -3.78151685e-02  2.91973669e-02 -1.99676782e-01 -3.76123656e-03
  -1.31202027e-01  1.43073484e-01 -2.88556721e-02  1.36722594e-01
   1.14140986e-03  4.82084751e-02 -4.94181477e-02 -1.65980726e-01
  -1.90197006e-02 -5.45160398e-02 -2.07848032e-03 -1.46371394e-01
   1.12548329e-01  3.78745385e-02 -4.35478777e-01  8.78944620e-03
   1.70470610e-01  1.29903913e-01 -4.22368832e-02  1.43207729e-01
   1.76158905e-01  1.63055003e-01 -5.74849471e-02 -4.55248542e-02
   5.52042276e-02  2.57830679e-01 -1.78657800e-01  3.79196927e-02
   4.27253284e-02  1.92694552e-02 -2.67547108e-02  3.76059748e-02
   6.49352930e-03  6.97586238e-02  1.01499315e-02 -5.69621995e-02
   4.42098407e-03 -8.61248598e-02 -1.26335695e-01  1.56512380e-01]
 [ 5.72528737e-03 -7.68086910e-02 -4.58140485e-02  4.33808789e-02
   3.61730568e-02  5.03916629e-02  2.34006926e-01  8.67149606e-02
  -5.07831462e-02  2.40807403e-02  9.32786316e-02  7.05637112e-02
  -4.28684987e-03  5.46194799e-02 -7.75987133e-02 -3.02002728e-02
   3.21437791e-02  1.45021705e-02 -2.12529618e-02  6.97419373e-03
  -1.38054797e-02 -8.92382562e-02 -1.83828771e-01  1.58596173e-01
   7.00500757e-02  1.38794798e-02 -1.53854892e-01 -2.80296169e-02
  -2.21113767e-02 -3.64365168e-02  1.18973605e-01 -8.04533623e-03
   8.27204902e-03 -1.13708349e-02 -1.06291473e-01 -1.03537619e-01
  -2.31243838e-02 -6.07469231e-02  1.65535938e-02 -1.33388452e-02
   1.16509087e-01 -6.94107413e-02  3.35420892e-02  1.43213961e-02
   7.09596500e-02  4.88942638e-02 -1.21201545e-01  2.17134673e-02
   1.52605195e-02 -5.49953282e-02  8.48901942e-02 -1.16701975e-01
  -1.03467740e-02 -9.40458383e-04  6.12007007e-02 -1.10964715e-01
   9.48960856e-02  4.20980267e-02 -4.48665880e-02  1.46732777e-01
  -5.29669635e-02  4.48189378e-02  5.88012896e-02  1.51627049e-01
  -3.56997512e-02 -2.38086786e-02  7.08512450e-03 -5.54254185e-03
  -9.63308960e-02 -5.90254776e-02  2.41295442e-01 -1.13458671e-02
   1.57246038e-01  1.19285705e-02 -2.78749485e-02  3.74041758e-02
  -6.87145740e-02  1.86605006e-02 -4.47933003e-02  2.10419748e-04
   1.09430529e-01  3.20712873e-03  3.83787118e-02 -3.33746197e-03
  -5.60590765e-03 -5.77868633e-02  8.98198187e-02  1.73136592e-02
   2.18990888e-03 -1.79842144e-01  3.52790579e-02  1.73707381e-01
   2.13727690e-02 -2.67819241e-02 -5.61463982e-02  2.79573441e-01
   1.78737268e-02 -5.31552248e-02  2.69940887e-02 -1.21009447e-01
  -3.01596913e-02 -5.46273701e-02 -3.28771677e-03  2.46204790e-02
   1.65851787e-01  5.78829609e-02  3.08764651e-02  4.67745923e-02
   1.18074141e-01  2.29917299e-02  6.57158643e-02  1.19002108e-02
   1.80155300e-02  1.63880214e-01 -1.62073195e-01 -4.27163243e-02
   3.44106294e-02  4.08952013e-02  1.19443471e-03  1.18694060e-01
  -3.77957225e-02 -2.20689923e-02 -3.17761339e-02 -5.82802296e-02
  -5.04042469e-02 -2.05388553e-02  2.83998698e-02 -1.15169883e-01]
 [-1.38660287e-02  8.96622688e-02 -1.10759567e-02 -7.28114992e-02
  -2.97513772e-02  3.18524167e-02 -2.89636548e-03 -2.80898754e-02
  -1.37573411e-03 -5.05643450e-02  8.26612115e-02 -3.88783142e-02
   3.89077365e-02  2.38952041e-02  2.13962588e-02 -6.02852441e-02
  -1.04349688e-01  1.18038366e-02 -6.81813508e-02 -3.39095145e-02
  -3.97451259e-02 -7.97376707e-02 -1.24952802e-02  5.43860272e-02
   1.89096620e-03  3.69787477e-02  9.64604467e-02 -9.50180739e-02
  -1.06886066e-02 -6.04026094e-02 -2.23145057e-02 -3.40915807e-02
   1.03592910e-02 -3.73984389e-02  3.34271006e-02 -2.86660139e-02
   1.06495759e-02 -9.41976067e-03 -2.22820956e-02 -1.20732756e-02
   4.14208807e-02 -5.58708347e-02 -6.30168319e-02  2.62732767e-02
  -1.31241018e-02  4.89938147e-02 -7.30247945e-02 -4.02069241e-02
   3.94955054e-02 -5.55223078e-02  4.59095575e-02 -8.43959954e-03
  -1.00340499e-02  3.68170030e-02  1.10757515e-01 -6.27251267e-02
   1.52151972e-01  2.97085159e-02  2.12692618e-02  3.10983006e-02
   5.75682102e-03 -5.19957952e-02 -7.66989514e-02  9.64372233e-02
   3.85421328e-02 -2.92083789e-02 -1.04171738e-01  6.90136179e-02
  -2.53945291e-02 -3.06034870e-02  1.36575820e-02  1.31559232e-02
   3.22440267e-02 -7.20336810e-02 -3.44602503e-02 -2.47690380e-02
  -8.18013623e-02 -2.27040090e-02 -4.76492904e-02  4.29044291e-02
   6.44409936e-03 -2.00873446e-02  7.50729954e-03 -8.12903270e-02
  -6.61500767e-02 -7.45619982e-02  2.52709128e-02 -3.82211953e-02
   7.62968361e-02  5.90473413e-02 -3.08730248e-02  5.91929592e-02
  -2.34786272e-02 -8.22981000e-02 -8.63034185e-03 -2.28710584e-02
  -8.69949386e-02 -8.43752772e-02 -4.06668670e-02 -1.52587727e-01
  -1.90320071e-02 -5.65906661e-03  5.59923463e-02 -4.77050133e-02
   3.36963907e-02  4.78913728e-03  1.34874592e-02 -1.17833000e-02
   7.71195441e-02  1.47536136e-02  3.19952443e-02 -2.91710738e-02
  -6.64567351e-02  5.36380336e-03  1.76006067e-03 -4.27525938e-02
  -1.50103150e-02  8.63890164e-03 -7.26464251e-03 -1.31185815e-01
  -7.75434375e-02 -1.26475871e-01 -3.18368375e-02  2.83704903e-02
  -4.23994139e-02 -1.83699653e-01 -1.62890484e-03  7.66320601e-02]
 [ 3.35124992e-02  9.94468555e-02  6.32050559e-02 -2.40921974e-02
   3.13522220e-02 -1.21450247e-02 -9.27517414e-02 -1.33437723e-01
  -2.65528169e-02  3.09356395e-03 -1.45671800e-01 -2.84685969e-01
  -6.54070824e-02  6.26001284e-02 -2.91510336e-02  1.14734378e-02
   1.06524907e-01  2.10240167e-02  1.63154472e-02  1.14165924e-01
   1.35156345e-02  1.82460159e-01  2.03984484e-01 -1.80963382e-01
  -2.55585322e-03 -7.73685798e-02 -2.32580211e-03 -5.49176596e-02
  -6.12552576e-02  3.60395424e-02  8.43144804e-02  6.42943382e-03
  -4.81298491e-02 -1.64819416e-02 -7.86641762e-02 -1.23497134e-03
  -5.00100441e-02  2.11976971e-02 -5.18509224e-02 -2.61645894e-02
  -5.16481549e-02 -4.86726612e-02  7.69134313e-02 -1.46423718e-02
  -1.43431693e-01 -1.89658068e-02  2.12436527e-01 -5.80447912e-02
   2.26714145e-02 -4.42611910e-02 -1.88310504e-01  1.00115828e-01
   1.19436136e-03  1.43646430e-02 -2.20066473e-01 -2.20547915e-01
  -2.18034819e-01 -5.66619970e-02 -4.86878306e-02  9.12713408e-02
   2.75492612e-02  1.32916505e-02 -1.16072420e-03 -6.69630524e-03
   2.21921410e-02  3.40644643e-02 -9.09232497e-02  1.95402205e-02
   1.23042487e-01 -1.73158608e-02 -2.49838516e-01  2.47455999e-01
  -2.69891351e-01 -4.55072820e-02 -1.81934386e-02 -5.28406873e-02
   1.19235525e-02 -3.92195471e-02  3.83351296e-02 -2.42268597e-03
  -1.61135588e-02 -5.18203937e-02  2.04044133e-02 -3.30856144e-02
  -1.24023575e-02 -1.52792353e-02 -1.45810902e-01 -4.81820367e-02
  -7.14697242e-02  2.19204817e-02 -1.79317631e-02  1.02237634e-01
  -7.39105791e-02 -3.01887025e-03  1.87292919e-02 -1.57751173e-01
   1.92899965e-02 -1.62802171e-02  8.22556205e-03 -9.81493741e-02
  -4.43931436e-03 -2.08995529e-02  3.12631077e-04 -1.57524337e-04
  -2.22863078e-01 -1.85357239e-02 -9.68270376e-02  5.71323931e-03
  -1.37934193e-01  4.39851992e-02  5.45381336e-04 -6.56558797e-02
  -4.42511365e-02 -1.20425753e-01 -5.58677725e-02 -8.01332016e-03
   6.35008188e-03  5.05090989e-02 -8.54124054e-02 -3.46796922e-02
  -6.89680204e-02 -8.17418993e-02 -2.53763190e-03  6.37685822e-04
  -5.43057732e-02 -1.07760087e-01  1.26457453e-01 -2.24209026e-01]
 [ 2.26793960e-01 -9.56127048e-02 -3.43291275e-02 -8.10254812e-02
  -4.49995361e-02 -5.71151897e-02  1.46502294e-02 -1.02196358e-01
   4.38116975e-02  1.74776316e-02  6.46751225e-02  1.38744086e-01
  -5.20592816e-02 -4.86958884e-02  1.62695367e-02 -4.63427231e-02
   6.55842498e-02  4.73087952e-02  9.27571673e-03 -2.35225894e-02
  -5.93592748e-02  1.32016897e-01 -6.64431602e-02 -8.94163698e-02
  -4.31155451e-02 -3.56097035e-02 -1.67337820e-01 -7.07844049e-02
   3.68814804e-02  3.58454231e-03  1.21863015e-01 -1.17410710e-02
   4.75374162e-02  1.48788681e-02  1.20058032e-02 -5.46462946e-02
   1.88660361e-02  5.19850664e-03  2.01049503e-02 -1.82930268e-02
  -1.24202579e-01 -2.71453196e-03  5.30009530e-02  4.86906394e-02
   8.71975422e-02  2.90425513e-02 -8.38064179e-02 -4.93295453e-02
   4.38027158e-02  4.11310159e-02 -7.69386366e-02  4.47053649e-03
   1.44231875e-04  2.31321938e-02  2.57860422e-02  6.02110550e-02
  -1.37456283e-01 -3.33959982e-02  5.78935957e-03 -1.31662995e-01
   6.04635687e-04 -2.11071372e-02  2.53519155e-02 -6.71116784e-02
   3.16307135e-02 -2.30241790e-02  6.43442348e-02  1.30242497e-01
  -1.72917515e-01  3.83636765e-02 -1.22651987e-01 -6.41115010e-02
   1.30312026e-01  2.17640661e-02 -1.34414379e-02  4.70881835e-02
  -4.29242179e-02  2.56395619e-02  1.95140317e-02  2.41865404e-02
  -2.72663590e-02  5.23747653e-02 -4.23441380e-02  4.99625243e-02
  -5.46024926e-02  2.21122894e-02  3.27565558e-02 -2.00996771e-02
   6.58279210e-02  8.42037499e-02 -7.79541954e-02 -8.75652432e-02
  -1.78296643e-03 -8.24061111e-02 -4.33046483e-02  2.92191356e-02
  -6.39198069e-03  4.58779074e-02  1.73905049e-03 -3.82163487e-02
   3.36326137e-02 -5.31098619e-03 -1.29983827e-01  2.70527042e-02
  -1.37509823e-01  9.68219787e-02 -7.08402395e-02  1.26391584e-02
   5.88251762e-02 -2.02519909e-01 -2.52887793e-02 -3.33061107e-02
   5.28279245e-02 -4.62411903e-02  1.29349276e-01  4.45157737e-02
  -3.65007892e-02 -7.63516352e-02  4.32306565e-02 -1.95807815e-01
   4.46531251e-02 -1.30407304e-01  3.01245023e-02  2.71277484e-02
  -2.86472645e-02  1.62796259e-01 -1.78595129e-02 -1.38127670e-01]
 [ 3.61694992e-02 -2.67768204e-02 -6.38666702e-03  5.92227653e-02
   7.66445277e-03 -5.77998124e-02 -8.21109340e-02  1.27838301e-02
  -4.71130162e-02 -3.36161256e-02  7.94786811e-02 -1.79523751e-01
  -5.04228026e-02  9.48099978e-03 -1.04405833e-02  5.30028343e-02
   1.61046237e-02  6.67795762e-02 -3.32877263e-02 -2.01421771e-02
   1.19794742e-03 -2.12984771e-01 -2.81529963e-01  1.00697661e-02
  -2.11235136e-02 -1.41032385e-02 -1.88675448e-02  2.94152126e-02
  -4.84486343e-03 -7.32888654e-02 -6.32407144e-02  1.26821538e-02
  -2.72080712e-02 -7.59568997e-03  6.76994994e-02 -4.25171927e-02
  -8.28132778e-02  3.77752297e-02 -2.47992743e-02 -7.25798234e-02
  -4.34911586e-02  5.64861447e-02 -5.94011247e-02  5.10328561e-02
  -8.83277580e-02  4.61552013e-03 -1.53127894e-01 -1.68952998e-02
  -1.51234157e-02 -8.17330256e-02  4.49409187e-02 -2.56688237e-01
   8.60192254e-03 -2.44970489e-02 -6.57527074e-02 -4.09620702e-02
   8.99420083e-02 -4.64162044e-02 -1.12861745e-01  9.78886113e-02
   3.37963365e-02  2.67005358e-02 -3.66191044e-02 -4.25713658e-02
   2.14337800e-02 -1.60811339e-02 -1.07596663e-03 -5.72222136e-02
  -1.68327272e-01  1.90981627e-02 -5.15465029e-02 -1.52356192e-01
  -2.63482574e-02 -5.91280609e-02 -3.38188931e-02 -2.29039937e-02
   3.72352195e-03 -2.98678111e-02  4.47457051e-03  5.29255494e-02
  -6.87331110e-02 -6.11682497e-02 -4.60327975e-03 -1.36733726e-02
  -2.47310977e-02  4.58848989e-03  1.10349827e-01 -6.51850998e-02
  -1.82605758e-02 -6.99514225e-02 -1.29652113e-01  8.39240626e-02
  -3.05237342e-02 -5.37110642e-02  4.62280065e-02 -9.52347368e-02
  -1.30198970e-02 -8.01806524e-03 -6.45201132e-02  6.69439808e-02
  -1.11159466e-01  2.92806514e-02 -3.41267101e-02 -4.21653427e-02
   1.53105900e-01  5.08132316e-02  1.66491531e-02  8.13700333e-02
  -6.46602586e-02  3.95368366e-03 -7.91887790e-02 -3.87465507e-02
  -1.14622228e-02  2.71234717e-02 -5.67455254e-02 -5.07012941e-02
  -7.44470069e-03 -6.27053007e-02  7.50574917e-02 -6.88501075e-02
  -9.84916762e-02  5.64726861e-03 -2.98044384e-02 -5.55627421e-02
   3.57932672e-02  5.48993535e-02 -1.25226364e-01 -2.74599157e-02]
 [-1.20391361e-01  1.59953032e-02 -1.02300011e-02  1.95679404e-02
  -1.16583416e-02 -2.76549142e-02  1.25520872e-02  4.69766259e-02
  -1.58834867e-02 -3.31134088e-02  1.37416050e-01  1.53646201e-01
  -5.34064285e-02  3.37467417e-02  1.67722767e-03 -6.38853759e-02
  -3.45364250e-02 -1.62802020e-03  4.57789227e-02  5.90018742e-02
  -6.64875805e-02 -1.67308494e-01 -4.36449535e-02  1.29918680e-02
  -2.10035052e-02 -3.62628661e-02 -5.00474088e-02 -6.28458112e-02
  -1.11394443e-01 -5.68597801e-02  9.36178043e-02 -5.20136952e-02
  -1.59316659e-02 -5.63830771e-02 -3.82905155e-02 -9.77108926e-02
   1.91865172e-02  6.89527541e-02 -3.46431136e-02 -6.68446068e-03
  -2.06791803e-01  1.58125665e-02 -7.21398667e-02 -7.52994837e-03
   1.06052816e-01  1.32869314e-02 -6.30296618e-02  4.15149480e-02
  -7.26042688e-02 -8.20561349e-02 -9.71356928e-02 -1.45320132e-01
   7.80328736e-03 -4.53422144e-02 -1.08254075e-01  3.02229207e-02
   1.05195753e-01  1.57570615e-02  3.02788597e-02  1.33810446e-01
  -1.32377958e-02  1.87800732e-02 -5.19668385e-02 -1.25356391e-01
   3.50021175e-03 -4.39371727e-02  1.49644718e-01 -7.98875466e-02
   1.60262808e-01  2.09547933e-02  1.38452724e-01  8.50005001e-02
  -7.85729662e-02  3.18508483e-02  3.52000743e-02 -2.44268291e-02
  -6.79177046e-02 -4.93126176e-02  8.26912746e-03  5.86752184e-02
   5.65724708e-02 -4.24193814e-02  4.74153012e-02  1.91822909e-02
  -1.24779744e-02  7.59225246e-03 -2.28964403e-01 -9.56217118e-05
  -8.72467086e-03 -5.56558594e-02  1.11374073e-02  1.86070502e-01
   3.51358540e-02  7.39982426e-02  3.38237435e-02 -1.17850237e-01
  -1.86730418e-02 -7.36843469e-03 -4.17947173e-02 -6.01545162e-03
  -1.38854431e-02 -6.99559972e-02 -1.88840181e-01  5.35714887e-02
   8.83838087e-02 -5.46895154e-02  6.37574568e-02  6.72946796e-02
   1.05891272e-01 -4.03306559e-02 -1.07975416e-01  2.64240894e-02
  -7.46497884e-02 -1.08193137e-01 -2.20444009e-01 -6.41235635e-02
  -1.53856836e-02 -6.01199903e-02 -3.02626076e-03 -1.39407009e-01
  -6.49235994e-02 -3.99789922e-02 -8.84785950e-02 -2.67136507e-02
  -4.70671244e-02 -7.42805228e-02 -1.20836161e-01  5.65606579e-02]
 [ 4.17843051e-02  6.19811453e-02 -9.75214168e-02  3.17031480e-02
  -3.01655475e-02 -6.82059452e-02  1.23289251e-03 -5.23761362e-02
  -6.99572340e-02 -5.17812632e-02  9.60782245e-02 -2.16919351e-02
  -1.26914475e-02 -4.44837697e-02 -5.00091650e-02  1.80787481e-02
  -7.11682439e-02  2.55261697e-02  2.07342505e-02 -2.19431203e-02
  -8.36674497e-02 -6.14078045e-02 -9.92723256e-02  1.18061140e-01
   2.49072742e-02 -1.13684341e-01 -4.07701172e-02  2.04438642e-02
   5.88699132e-02 -4.66775475e-03  4.18475010e-02 -7.69637153e-02
   3.20977531e-02 -1.54139474e-02 -2.37410679e-01 -3.36843356e-02
  -2.78031453e-02  3.69929597e-02 -4.81264405e-02  3.71779278e-02
  -2.34263800e-02 -1.20175136e-02 -7.52556175e-02 -2.28128750e-02
  -1.73388747e-03 -6.33914024e-03 -1.36225849e-01  3.41378674e-02
   4.26970571e-02  8.38776864e-03  7.95353353e-02 -1.73606008e-01
  -5.41382991e-02  1.56442355e-02  4.72110361e-02 -7.79200764e-03
  -3.81358713e-02 -5.60529046e-02  6.07526861e-02  1.08811125e-01
  -7.47605935e-02  2.26994976e-02  1.32425323e-01  2.62850001e-02
  -1.83434933e-02  6.85662869e-03 -6.72242567e-02 -6.16039895e-02
  -9.65984017e-02 -3.02921385e-02  3.38747710e-01 -1.61363184e-02
   1.70140997e-01 -4.03813496e-02 -7.20632523e-02 -4.51305136e-02
  -4.15437520e-02  4.03487086e-02 -3.82211134e-02  1.31529206e-02
   2.27032937e-02 -5.12099527e-02  5.28752357e-02 -7.76895210e-02
  -3.61167453e-02  6.43256586e-03  8.60145092e-02 -5.54899545e-03
   5.44519462e-02 -1.64526895e-01  6.23678882e-03  6.25214130e-02
  -1.42121920e-02 -4.52926345e-02 -3.06477994e-02  2.20798820e-01
  -2.74020527e-02 -4.90246043e-02  4.60004397e-02 -1.83733646e-02
  -9.84980986e-02  2.65272986e-02  7.40895495e-02 -3.29426341e-02
  -5.42214401e-02  7.28143007e-02 -1.91595834e-02 -2.22407263e-02
   4.54468504e-02  4.94480394e-02  2.80306432e-02 -2.60538943e-02
  -1.04261329e-02  1.96974203e-01 -1.21268451e-01  3.31860110e-02
  -5.15748560e-02 -2.41068043e-02 -2.57114172e-02  5.09677455e-02
  -6.86255917e-02 -9.70310718e-03  2.18062941e-02 -1.48254214e-02
  -2.08174419e-02 -5.56833595e-02  8.09170827e-02 -1.10079005e-01]
 [-3.00676432e-02  6.33066194e-03 -8.52739345e-03 -1.74394324e-02
  -9.68043879e-03 -2.19512396e-02 -1.49271162e-02 -2.02232543e-02
  -4.14142050e-02  2.17736084e-02  3.80481668e-02 -6.03305809e-02
  -2.52376851e-02  1.52049251e-02 -4.71646599e-02  3.65897221e-03
  -4.43198159e-02  2.22019814e-02 -5.71930893e-02 -1.36334836e-01
  -2.00029854e-02 -5.71907051e-02  1.02729602e-02  4.62494455e-02
  -4.55555879e-02 -1.96075644e-02  3.15377526e-02  1.13350218e-02
   2.98959352e-02 -5.06127290e-02 -3.64466459e-02  1.75064281e-02
   2.59385332e-02 -6.90768287e-02 -2.09383462e-02  4.68593906e-04
  -1.36123141e-02 -6.98113516e-02  1.82511844e-02 -1.11506194e-01
   2.69583929e-02  2.06478946e-02 -3.77069600e-02  4.15006652e-02
  -6.52189329e-02  1.63393060e-03  4.80831936e-02  9.00261756e-03
  -6.11327402e-02 -4.25160415e-02  9.82539058e-02  5.47755137e-03
  -6.88133165e-02 -1.18156793e-02  1.42774194e-01 -1.46686211e-02
   1.17194451e-01  6.75897812e-03  4.23024110e-02  1.32620325e-02
  -3.59262861e-02  1.10716475e-02 -4.83035780e-02  9.22119245e-03
  -2.59845015e-02 -5.73964231e-02 -7.16971606e-02  2.63076406e-02
  -2.00211275e-02 -9.71083343e-02  3.80647108e-02 -1.03283664e-02
   4.70902398e-02 -3.03860400e-02 -1.99547596e-02 -2.60928422e-02
  -4.04480994e-02  6.76034857e-03  8.09029862e-03  2.96104737e-02
   5.97783364e-02 -3.25657949e-02  1.74568314e-02  1.75123953e-03
   1.43683562e-02 -5.09238010e-03  2.68726852e-02 -3.02817952e-02
   4.13068235e-02  2.64860131e-02 -4.81176153e-02  4.12426107e-02
  -6.15660241e-03 -2.66647376e-02 -2.83869915e-02  2.70530879e-02
  -4.21621986e-02  1.22443214e-03 -2.10696198e-02 -2.15814114e-01
   1.97516922e-02 -8.02907124e-02  1.89109822e-03  1.46257738e-02
   8.59125033e-02  3.94794904e-02 -1.90142775e-03  6.25049174e-02
   8.97907689e-02 -2.59625278e-02  2.16135420e-02 -5.91309518e-02
  -9.50753316e-03 -1.34457438e-03 -2.67715082e-02  1.67430472e-02
  -2.64249407e-02 -1.79260764e-02 -1.56331081e-02 -4.93899081e-03
  -5.69038577e-02 -2.59562451e-02 -6.54118508e-02 -4.45107594e-02
  -7.81017989e-02 -5.01933508e-02 -1.23122511e-02  3.31837572e-02]
 [-2.19525024e-02 -1.44764297e-02  4.38876674e-02 -2.06316635e-02
  -2.20273659e-02 -2.65583443e-03 -8.97493213e-02 -7.59520754e-02
  -3.82266182e-04  5.25554689e-03 -7.65807256e-02 -2.72216171e-01
   5.11477441e-02  3.10861655e-02 -7.42830662e-03  1.42373797e-03
  -3.00965644e-02 -1.97021123e-02 -3.14169899e-02  5.40822931e-02
  -5.65948337e-02  9.08644944e-02  1.79680958e-01  1.42926112e-01
  -4.84735481e-02  4.60398085e-02 -2.26072539e-02  2.22015753e-02
  -2.93554794e-02 -3.00328750e-02  1.31037354e-01  3.35516967e-02
  -8.32935236e-03  5.23798987e-02 -9.50985029e-02 -8.35113302e-02
  -5.05251139e-02 -2.69235391e-03 -2.25754473e-02 -1.02342404e-02
   8.89824554e-02 -4.30118814e-02  1.34504512e-01 -6.47002682e-02
  -1.46523416e-01 -5.38216457e-02 -2.70155892e-02 -2.68546119e-03
  -6.60996065e-02 -7.29448423e-02 -9.84805822e-02  1.52928270e-02
  -5.02050444e-02  3.34143862e-02 -3.16207826e-01 -1.81344107e-01
  -1.08348243e-01 -3.01320069e-02 -1.47846702e-03 -5.13745695e-02
  -1.11855799e-02  4.98131709e-03 -5.98499440e-02  6.32807910e-02
   3.23409103e-02 -1.69159903e-03 -1.33798704e-01  1.18795753e-01
  -3.08750831e-02  1.86457299e-02 -9.43153799e-02  5.53772114e-02
  -4.12674546e-01 -5.11013195e-02 -3.93378772e-02  1.51692249e-03
  -5.22895455e-02 -6.06144518e-02  4.14335057e-02  2.39790715e-02
   1.24958254e-01  4.81570065e-02 -6.51836628e-03 -5.90169728e-02
  -3.32355052e-02 -5.46943992e-02 -1.47103488e-01  4.75530736e-02
  -1.58438578e-01  1.30819872e-01 -6.33378932e-03  1.53719917e-01
  -1.12902801e-02 -7.72998109e-02 -4.16741408e-02 -1.40950218e-01
  -2.51959395e-02 -5.59335202e-02  4.79227342e-02 -5.84163070e-02
  -9.08101723e-02 -2.51127537e-02 -3.51215526e-02 -1.71626378e-02
  -3.06073688e-02  1.18858464e-01 -1.03568025e-02  1.62073635e-02
   1.32502362e-01 -1.03501618e-01 -6.85426667e-02 -8.31111446e-02
   3.70617472e-02  1.22242132e-02 -1.31557770e-02 -1.51881455e-02
   2.29916330e-02  1.79571472e-02 -1.13278977e-03 -4.44257520e-02
  -3.90892774e-02 -2.91068226e-01 -2.30221897e-02 -3.68380472e-02
  -1.18014216e-02 -5.14599383e-02 -4.15379778e-02 -7.89809003e-02]
 [ 1.15420155e-01  2.05436982e-02 -4.96107601e-02 -6.53249724e-03
  -1.42534152e-02 -5.46441823e-02 -3.52479145e-02 -8.48446414e-02
  -2.01840866e-02  9.02443286e-03  1.46848828e-01  2.11263373e-01
  -1.70573441e-03 -1.05456583e-01 -1.40111959e-02 -4.19165008e-02
   4.22862694e-02 -3.45413648e-02 -8.30015168e-02  8.28556120e-02
  -4.18710113e-02  6.64724410e-02 -5.86835444e-02 -1.35839015e-01
   4.01849970e-02  5.03948294e-02 -1.03790365e-01 -4.48071100e-02
  -6.10788688e-02  2.05149334e-02  4.24843878e-02 -1.15199359e-02
  -5.38083576e-02 -7.99177971e-04 -1.17302174e-02  1.82742197e-02
  -1.51111195e-02 -5.31321019e-02 -5.26478514e-02 -7.39870220e-02
  -9.93762240e-02 -1.28540695e-02 -2.76890788e-02  4.46503311e-02
   8.82632062e-02 -1.75229795e-02  3.21085565e-02 -2.91677061e-02
  -2.82694884e-02  4.78972010e-02 -6.57549873e-02  4.84638326e-02
   9.02810972e-03 -2.04341784e-02  5.36851808e-02  1.31308928e-01
  -4.81875055e-02 -4.14211452e-02 -1.39618274e-02 -4.12349179e-02
  -2.53813341e-02  1.13898516e-02  2.75940411e-02  3.53049574e-04
  -1.14688054e-02 -5.52317454e-03 -1.04900621e-01  4.77903709e-02
  -2.53796875e-01 -2.24310178e-02 -5.88797741e-02  1.44669712e-01
   1.08574234e-01  3.43882665e-02 -2.64594406e-02  2.93749329e-02
  -1.64049771e-02 -6.64609438e-03 -5.81306703e-02  1.07283955e-02
   4.93308865e-02 -5.34381233e-02 -3.07849143e-02  5.28029772e-03
  -3.36883925e-02 -5.55206947e-02 -1.16749061e-03 -1.97282173e-02
  -5.38262888e-04 -6.74451664e-02 -5.89921186e-03 -7.18728378e-02
   7.00088078e-03 -4.70024012e-02 -3.89594920e-02  3.50948516e-03
   5.05935028e-02 -2.70309225e-02 -1.40337171e-02  8.31778720e-02
  -6.01837970e-02  8.27305838e-02 -7.55336285e-02 -1.30457282e-02
  -1.28059775e-01  4.87037264e-02 -6.52821288e-02 -1.03643112e-01
  -5.65245515e-03 -3.17015171e-01  7.91297108e-02  3.14204730e-02
  -1.51955364e-02 -1.20282285e-01  2.31002748e-01 -2.23522279e-02
  -6.93898499e-02  3.89038846e-02 -3.95429358e-02 -3.95228863e-02
  -4.77101170e-02 -1.74435616e-01 -6.99847713e-02 -6.38175383e-02
   1.77617313e-03  7.84479976e-02 -8.71966928e-02 -1.68561682e-01]
 [ 7.67832324e-02  4.45842221e-02  4.29968685e-02  3.71980295e-03
  -5.44420630e-02 -3.34247611e-02 -5.07334433e-02 -2.33835950e-02
   4.90680262e-02  1.11456392e-02  2.18056086e-02 -1.11414060e-01
  -5.40259220e-02  6.74462169e-02  4.00187299e-02 -4.25009802e-02
   9.76894423e-02 -1.09249018e-02 -5.98558895e-02  2.81071290e-03
   3.05164680e-02 -1.91712961e-01 -2.99811274e-01  1.25070825e-01
  -8.17075223e-02 -1.64901242e-02  6.54625148e-02  4.21584398e-02
   2.67011765e-02  6.96103787e-03 -9.36285928e-02  4.51878309e-02
  -6.07276373e-02 -5.43125011e-02  5.99918328e-02 -1.21905666e-03
   1.26639996e-02  3.64892967e-02  3.96775939e-02  1.03090210e-02
  -2.43112091e-02 -3.75206545e-02 -1.87349264e-02 -5.50370328e-02
  -7.95875639e-02 -3.41028161e-03 -1.72626078e-01  2.82481611e-02
   9.81610361e-03 -8.37093741e-02  1.15934297e-01 -2.78678209e-01
  -2.94050369e-02 -4.87232059e-02  3.49791162e-02  1.13332763e-01
   7.40451589e-02 -4.29954715e-02 -2.39953604e-02  1.62441712e-02
  -4.48169224e-02 -3.24826650e-02 -4.50857058e-02 -2.51862496e-01
  -4.30182368e-02  2.04822849e-02 -1.96100995e-02 -1.45954564e-01
  -1.02252454e-01 -7.00085685e-02  1.02177434e-01 -2.29094699e-01
  -2.56489456e-01  6.88558118e-03 -1.77541133e-02 -1.56990835e-04
  -3.55578847e-02 -8.94211605e-02 -2.37841532e-02  4.59521897e-02
  -2.57972740e-02 -1.19712278e-02 -3.16514410e-02 -2.95159481e-02
  -3.05298399e-02 -3.98371108e-02  4.01051752e-02 -4.16162461e-02
  -3.79612893e-02  5.22167720e-02 -5.37438430e-02  2.04015877e-02
  -3.76815274e-02 -7.02040866e-02  2.49253884e-02 -1.73806027e-02
  -5.71794212e-02 -1.27440281e-02 -1.01677165e-03 -4.07871418e-02
  -1.11223973e-01 -6.77244440e-02 -4.24236543e-02  3.64221167e-03
   1.16594099e-01  6.76006228e-02  5.16276918e-02  2.44820789e-02
  -5.26424274e-02  2.36648619e-02 -1.46126132e-02  1.69174746e-02
   2.35509183e-02  4.61157337e-02  1.04859963e-01  3.94990481e-02
  -7.72086531e-02 -1.83540564e-02  5.46156019e-02 -1.26775801e-01
  -2.48955991e-02  1.65112764e-01  7.21116085e-04  1.94901670e-03
   5.15474752e-02  1.09763153e-01  4.03772257e-02 -4.47536074e-03]
 [-1.64311871e-01 -6.17301539e-02 -2.67177187e-02 -3.86489406e-02
  -1.28024432e-03  1.34959752e-02 -1.43845201e-01 -9.03868303e-03
   4.77501471e-03  3.75449285e-02  2.58610606e-01  2.39642844e-01
   3.27792689e-02 -3.70949656e-02 -9.53121856e-02 -2.92359218e-02
  -1.61967985e-02 -3.72081734e-02 -2.99300328e-02 -1.19681619e-01
  -7.54535198e-02  9.53890830e-02  1.69648901e-01 -1.77039132e-01
   1.92159103e-04 -2.02522483e-02 -1.05875328e-01 -5.67570888e-02
  -4.44519036e-02  3.85045516e-03 -4.82212305e-02 -3.02122720e-02
   3.80266532e-02  4.59529571e-02 -2.36853302e-01 -4.81996536e-02
  -6.02749772e-02  2.03688536e-02  4.78018783e-02  1.93620361e-02
  -2.08664481e-02  4.11741696e-02 -1.41885847e-01  2.35013384e-02
   1.04665548e-01  1.84930116e-02  8.18373710e-02 -6.57235757e-02
  -4.89726178e-02 -2.36006193e-02 -1.77791461e-01 -2.95950860e-01
   2.48611514e-02 -2.52631819e-03  1.66976769e-02  8.94511864e-02
  -8.49030074e-03  1.23500751e-04 -6.84612915e-02  7.87974000e-02
  -3.09444610e-02  3.59176286e-02 -4.40523773e-02  9.17390455e-03
   1.44010913e-02 -6.41075671e-02 -3.96243036e-02 -5.39594777e-02
  -8.07646289e-02  1.42760398e-02  1.32490143e-01  1.45017818e-01
  -7.98652694e-02  5.32638878e-02  1.57462973e-02 -4.22872640e-02
  -1.01117700e-01  7.22742733e-03 -1.52050769e-02  2.81611048e-02
   3.78530356e-03 -3.42597626e-02 -4.88943681e-02 -2.49679349e-02
  -3.86355259e-02  4.04869616e-02 -8.11923593e-02 -4.71721329e-02
  -2.60758512e-02 -6.97366074e-02 -8.05304497e-02  2.06636369e-01
   3.06654591e-02 -1.81634352e-02  3.21943164e-02  1.43265620e-01
  -1.73112936e-02 -3.68367024e-02 -1.58325285e-02 -2.32712135e-01
  -1.11998253e-01  3.80570963e-02 -1.59256041e-01  5.14286682e-02
  -4.81271520e-02  5.43605946e-02  5.59118157e-03 -4.94761616e-02
  -1.37306422e-01  9.56993327e-02 -1.22779176e-01 -2.69756988e-02
  -7.27061108e-02  1.06083034e-02  8.12542662e-02  2.88686175e-02
   9.88437608e-03  5.16862026e-04 -9.66458097e-02 -3.53459455e-02
  -3.21940258e-02 -1.19798802e-01 -1.48572326e-02 -3.04213092e-02
   1.70795862e-02  4.84967269e-02  3.43170650e-02 -3.18701100e-03]
 [ 9.92755219e-03  9.78698675e-03 -1.01974241e-01 -2.45346706e-02
   4.74088155e-02 -2.79186796e-02  1.59224048e-01 -2.70632212e-03
  -2.51735151e-02 -6.10576756e-02  1.31693855e-01  5.83778284e-02
  -1.17668360e-02 -1.06633455e-02 -6.13155067e-02 -2.86643989e-02
  -2.32255366e-02  1.05254548e-02 -4.57734987e-02  7.16115460e-02
  -8.61463025e-02 -1.16605863e-01 -1.35081515e-01  1.17531508e-01
  -3.63640338e-02 -4.82691564e-02 -1.23031013e-01 -2.03809980e-02
  -4.48768074e-03  1.17744189e-02 -1.26158856e-02  3.37385423e-02
  -6.64900169e-02 -3.80185917e-02 -2.08541065e-01  7.82422815e-03
   1.25346025e-02  9.50857624e-03  4.38457727e-02  4.34920052e-03
   1.18031934e-01 -2.90029217e-02  1.53850354e-02  3.00527252e-02
   1.39713168e-01 -2.95886584e-02 -4.53045883e-04  1.57815013e-02
  -4.59095761e-02 -4.10738364e-02  1.07744887e-01 -1.28606781e-01
  -1.49174407e-02 -8.03758670e-03  1.48218691e-01  2.58953869e-02
   3.04002129e-03  1.97345018e-03  9.55528859e-03  1.59184948e-01
   2.05906294e-02 -1.24153802e-02  8.39468911e-02 -7.79485777e-02
  -1.74109582e-02  3.77345681e-02 -8.82535949e-02 -6.53762892e-02
  -6.76359162e-02  1.49803758e-02  3.27451199e-01  6.91348687e-02
   2.19541565e-01 -9.78874937e-02  4.43434827e-02 -4.16737385e-02
  -5.08608557e-02  8.78065068e-04  2.92922333e-02 -4.02425826e-02
  -3.37522328e-02 -2.40743384e-02  2.36943737e-02 -5.52087687e-02
  -2.61824504e-02 -3.54126543e-02  4.82022725e-02 -5.54096028e-02
  -9.34276134e-02 -2.45694861e-01  3.95245589e-02  8.39330405e-02
   3.50532047e-02 -8.15555379e-02  4.62302044e-02  1.89598799e-02
  -6.00630455e-02 -4.88576479e-02  4.82790172e-02  2.77336780e-02
  -6.28206134e-02  2.40460467e-02  1.45141989e-01  4.94670421e-02
   1.13405496e-01  5.41153848e-02 -1.18987396e-01 -4.41363826e-02
   1.50329188e-01 -4.02620360e-02  3.36731933e-02 -7.03104436e-02
  -4.34380583e-02  2.20401943e-01  6.56296387e-02 -1.01113878e-02
  -2.49905493e-02 -6.99006021e-02 -9.16042030e-02  1.05115369e-01
  -9.85431671e-02  2.69159693e-02 -5.14462851e-02  4.13762629e-02
  -3.02852858e-02  4.22556177e-02  1.28260180e-01  4.14998382e-02]
 [-6.69516027e-02  2.01421492e-02 -8.90450832e-03  1.30598107e-02
  -1.85970906e-02  1.63610671e-02 -1.03384843e-02 -2.70251185e-02
  -8.82643834e-03 -5.45186773e-02 -1.47599522e-02 -1.79339424e-01
   2.74436902e-02  7.04761269e-03 -3.70560549e-02  3.82106528e-02
   1.97624993e-02 -5.63586839e-02 -4.38723788e-02 -1.13864079e-01
  -4.18842845e-02  3.09400111e-02  2.63865460e-02  8.87431130e-02
  -3.37453000e-02 -8.03799853e-02  7.83821046e-02  4.08788286e-02
  -9.30092037e-02  3.84999141e-02  6.75748512e-02 -5.17678028e-03
  -9.61282402e-02 -2.04680916e-02  1.67925432e-02 -4.80600707e-02
   1.16645209e-02 -6.85689598e-02 -4.05385010e-02 -1.66800749e-02
   2.84722541e-02  5.18255401e-03 -3.87927033e-02 -6.13678508e-02
  -4.02197875e-02  1.04388334e-02 -2.95105092e-02  1.13917030e-02
   1.67423394e-02 -1.19854426e-02  1.10488698e-01 -3.95690501e-02
  -6.07298650e-02 -5.69047593e-02  1.48591235e-01 -6.06127223e-03
  -3.85148376e-02 -6.48016110e-02  6.15503900e-02  8.01465474e-03
   3.97116467e-02 -4.97368537e-02 -7.06755668e-02  2.04954054e-02
  -2.73853354e-02 -7.24707916e-02 -1.63452014e-01 -5.97978681e-02
  -4.82228287e-02 -6.05859421e-02  7.18623549e-02 -4.41009030e-02
   4.66247462e-02 -8.69821664e-03 -4.31774557e-02 -2.78561041e-02
  -4.33280654e-02  2.77850707e-03 -5.18520661e-02 -3.52262240e-03
  -1.70556698e-02 -1.56792440e-02 -2.07851250e-02 -1.33634349e-02
  -4.44144122e-02 -7.03328997e-02 -1.17844352e-02 -4.84853126e-02
   5.96266240e-02 -5.35275899e-02 -1.03065208e-01 -1.57197732e-02
  -2.89965570e-02 -5.53209111e-02  4.55131428e-03  6.11805078e-03
  -3.26159075e-02 -5.13290204e-02 -4.62263599e-02 -1.87306404e-01
  -2.27980800e-02  4.33017081e-03  4.58543897e-02 -1.13101872e-02
   7.54899085e-02  2.03174483e-02 -6.89990371e-02  1.29667334e-02
   9.62536931e-02  1.59613155e-02  2.67499089e-02  3.25030573e-02
  -4.24898639e-02  2.73739025e-02 -4.72517721e-02  2.93971226e-02
  -1.70714241e-02 -6.41826494e-03 -1.30234035e-02 -1.27565861e-01
   1.02096740e-02  5.85625991e-02  2.03599315e-02 -1.64138041e-02
  -8.07455927e-02 -9.65183824e-02 -5.39831072e-02  1.25544798e-02]
 [-2.08366126e-01  1.19811088e-01  5.49480505e-02  3.84326689e-02
   4.11043316e-02 -5.02693839e-03 -1.50865182e-01 -7.59162083e-02
  -1.17865428e-02 -4.45021316e-02 -1.10445641e-01 -2.06869677e-01
   9.39543825e-03 -5.08636236e-02 -1.77732930e-02  2.06645206e-02
   1.05844773e-01 -3.28286435e-04 -3.13023143e-02  6.89207166e-02
  -2.94012595e-02  1.32680640e-01  1.97881922e-01  1.11217506e-01
  -6.97776442e-03  2.32232176e-02  4.03416948e-03 -3.47598530e-02
  -6.06283844e-02  3.91941033e-02  7.49897510e-02  2.80337911e-02
  -2.31180619e-02 -5.82776815e-02  1.01685468e-02 -5.58115579e-02
  -2.67543402e-02 -5.77434078e-02  5.29652163e-02  4.13351841e-02
   4.24020104e-02 -3.37651223e-02  7.39891306e-02 -7.38171919e-04
  -1.66406587e-01 -5.64704053e-02 -2.49605291e-02  4.35192287e-02
   3.54881808e-02  3.46355066e-02 -1.70939550e-01  1.30370393e-01
  -8.11416470e-03  2.16397289e-02 -2.40795612e-01 -2.83441693e-01
  -1.35750011e-01 -4.30247970e-02 -1.27972886e-01  5.32348976e-02
   5.48979305e-02  3.96214798e-02 -5.28834350e-02  1.16173685e-01
  -5.83918616e-02 -3.60886529e-02 -1.10470429e-02 -1.08949933e-02
   1.53650597e-01  5.16158864e-02 -8.60155374e-02  7.49671012e-02
  -1.69904247e-01  7.84946047e-03 -2.03446764e-02  4.87024263e-02
  -4.29257900e-02 -5.46348616e-02 -6.49928930e-04 -5.92558682e-02
  -8.78380984e-02 -5.59716001e-02  2.30028536e-02 -7.86443129e-02
   2.64378302e-02  3.01921424e-02 -2.24015892e-01  3.16233449e-02
  -1.61825433e-01  7.63268694e-02  6.95043709e-03 -5.23893870e-02
  -5.08795353e-03 -9.81954113e-02  7.43067497e-03  9.12146270e-02
  -3.78067903e-02  1.79942732e-03 -3.35299149e-02 -2.67160442e-02
   6.87119886e-02 -2.49136668e-02 -5.84530085e-02  2.61063185e-02
  -9.42150503e-02 -1.17075168e-01  2.11260561e-02  8.14264342e-02
   3.95009853e-02  1.37650639e-01 -6.54860660e-02 -3.40060815e-02
   1.03184562e-02 -1.32069141e-01 -7.00459033e-02 -4.80920151e-02
  -1.75966918e-02 -6.31483048e-02  3.31073590e-02 -8.29980522e-02
  -1.17342854e-02 -1.53913587e-01 -2.10234113e-02 -6.02302700e-03
   4.87778895e-02 -1.07365273e-01 -8.05048570e-02 -1.76421210e-01]
 [ 9.51448530e-02 -7.34862462e-02 -3.60888578e-02 -1.21005671e-02
   3.37131508e-02 -7.24556446e-02  4.75551002e-02 -2.76803467e-02
  -4.26082648e-02 -4.21899557e-02  7.09416717e-02  1.27475351e-01
  -4.72490638e-02 -5.92582598e-02 -3.41807120e-02  4.94535379e-02
   1.33388415e-01 -3.84985171e-02 -3.63015570e-02  7.38944039e-02
  -3.30074914e-02 -1.60466519e-03 -9.51231122e-02 -1.90567374e-01
   1.39916604e-02 -2.06711274e-02 -1.26936764e-01 -1.00505278e-01
  -1.34467203e-02 -3.57837193e-02  2.14948282e-02  9.11652483e-03
  -1.91726014e-02 -4.76749912e-02 -2.19072569e-02  4.99366112e-02
   2.72550583e-02 -2.14332086e-03 -5.33241918e-03 -2.30002534e-02
  -6.63011372e-02  2.08545253e-02  2.16407292e-02 -6.09101132e-02
   1.38011962e-01  5.02442196e-02  3.49677019e-02  1.10008614e-02
  -6.22083582e-02  2.84769759e-03 -5.95088117e-02  5.25630303e-02
  -5.94211258e-02 -3.65459584e-02 -8.74573439e-02  1.16716474e-01
   8.13003257e-02  3.64138372e-02 -9.52522904e-02 -8.53564292e-02
   3.09648346e-02 -1.73984375e-02  7.70165324e-02  5.86760528e-02
   1.52068418e-02 -1.36236921e-02 -7.89886247e-03  9.05452147e-02
  -4.54146191e-02 -3.53832021e-02 -8.27715024e-02  8.56623501e-02
   1.69394076e-01 -2.00326107e-02 -8.21502656e-02 -3.59215599e-04
  -1.27269253e-02 -3.62904333e-02 -1.98482424e-02 -4.43307348e-02
   8.39053616e-02  1.74632408e-02 -6.07025251e-02 -4.07922566e-02
  -2.52435859e-02 -6.15103543e-02  7.41425762e-03  8.07518885e-03
   8.61188099e-02 -4.04864596e-03 -8.08621645e-02 -5.62901646e-02
  -3.51519138e-02 -6.15732651e-03 -2.09833938e-03  1.26507245e-02
   1.51364626e-02 -4.77564745e-02  2.73637995e-02  7.08201826e-02
  -1.86080225e-02  6.46662712e-02 -1.31359279e-01  1.40084410e-02
  -1.02202930e-01  6.21494055e-02 -6.21174239e-02 -2.45317027e-01
  -5.16573712e-02 -1.32036507e-01 -5.65767696e-04  1.49784498e-02
   2.22188886e-02 -1.33865416e-01  9.65477526e-02 -3.06746848e-02
   1.31531234e-03  4.65648435e-02 -3.83353084e-02 -1.00550033e-01
  -4.87211086e-02 -1.13643080e-01 -3.75135019e-02  4.13833931e-03
  -6.41200766e-02  6.27243295e-02 -3.22862118e-02 -3.06076296e-02]
 [-3.95855680e-02  1.71397850e-02 -8.10532179e-03  3.28182876e-02
   4.61905263e-02 -7.48274336e-03 -3.43173333e-02 -2.81655369e-03
  -1.91614293e-02  4.19536531e-02 -2.57974323e-02 -4.27142493e-02
  -3.97757515e-02 -6.69307262e-02 -5.84430844e-02 -5.26584834e-02
   1.03063904e-01  6.29675761e-03  1.44179398e-02  1.10510573e-01
   7.48906061e-02  2.04038713e-02 -2.06182241e-01  1.04964621e-01
  -2.51125488e-02  6.11562319e-02 -6.82245344e-02  3.41736060e-03
   1.05253406e-01 -5.36011830e-02  2.62838881e-02  4.59416844e-02
  -3.51403421e-03 -1.32905152e-02  2.06551954e-01 -9.49750934e-03
  -5.30573726e-02  1.93577688e-02 -4.58420021e-03 -2.32009254e-02
  -9.27710757e-02 -4.62225825e-03 -1.28534496e-01 -2.93179955e-02
   4.42638546e-02  2.91069672e-02 -2.03094900e-01  4.71722707e-02
  -5.51014990e-02 -2.43738629e-02  1.09280691e-01 -2.02965081e-01
  -2.57272320e-03  2.46087257e-02 -9.72179230e-03  1.29048124e-01
   2.34505739e-02  4.86264452e-02  1.28484324e-01  1.56854894e-02
  -1.43221533e-02 -4.61812057e-02 -5.61337657e-02 -9.39609930e-02
  -6.23141937e-02  6.19027624e-03 -9.16305780e-02  5.49865253e-02
  -9.69592929e-02 -6.25207031e-04  2.20509917e-02 -1.40359297e-01
  -1.02960505e-01 -1.39838774e-02 -3.40861417e-02  1.79749373e-02
  -2.32465025e-02 -3.09525710e-02 -2.90673301e-02 -6.61159754e-02
   1.76014509e-02 -1.93594191e-02 -9.26208217e-03 -9.24923737e-03
  -8.71174783e-02 -4.42274772e-02  1.57416314e-02  2.39742622e-02
  -1.53149858e-01  1.92063048e-01 -1.05707794e-01 -7.49611631e-02
   4.66882251e-02  6.78565586e-03  1.09522128e-02 -9.48557556e-02
   2.05734000e-02 -3.14653181e-02 -1.80481728e-02 -9.26645193e-03
   2.54950430e-02 -7.64984870e-03 -1.23901188e-01  6.47623613e-02
  -1.30763501e-02 -6.05484890e-03  2.29541101e-02  5.41245900e-02
  -1.84571575e-02 -2.51720590e-03  7.24918246e-02 -7.91892782e-02
   2.67088171e-02  2.79400181e-02  1.27837196e-01 -4.39207964e-02
   2.37398595e-03 -2.25741435e-02  4.93202358e-02 -7.45895207e-02
  -4.74064760e-02  1.13779038e-01 -5.06645925e-02 -2.02898425e-03
   4.36532646e-02 -1.59552190e-02 -8.46849233e-02 -9.71595664e-03]
 [ 2.46532306e-01 -4.22360301e-02  4.50072773e-02 -1.36770094e-02
   4.80445027e-02 -2.78360527e-02 -2.96674445e-02 -4.52354252e-02
   9.33031086e-03 -1.56171797e-02  1.78839296e-01 -6.62714243e-03
  -5.92826754e-02  1.23789608e-01 -3.83168086e-03  4.54922877e-02
  -2.27724314e-01 -7.44023323e-02 -6.70822635e-02  1.68331578e-01
  -7.61168078e-02  5.84713556e-02  1.92512468e-01 -2.96203587e-02
   4.09729257e-02 -2.50057434e-03  1.01829022e-01 -3.46548855e-02
   2.13562977e-02 -1.17155360e-02 -1.91528257e-02 -3.37626375e-02
  -2.13380773e-02 -2.47600768e-02 -1.47030592e-01 -3.27242655e-03
   2.96355188e-02 -7.04575107e-02 -7.82520324e-03  5.69459386e-02
  -9.24978778e-02 -2.42007002e-02 -3.41784097e-02 -3.13264914e-02
  -1.97763019e-03  4.51801084e-02 -3.71075980e-02 -8.27657245e-03
  -8.61454085e-02 -5.86622655e-02 -3.69863808e-02 -1.55403093e-01
  -1.68973841e-02 -4.49190922e-02 -1.00432262e-01  3.68584454e-01
   8.28202143e-02 -1.29752979e-02 -7.89421704e-03  6.64300397e-02
   6.24813233e-03 -3.52627672e-02  8.42216797e-03  2.07218844e-02
   1.95308693e-03 -5.72650097e-02 -4.29563150e-02 -2.23175492e-02
  -4.53075469e-02 -1.30639225e-02  5.51702008e-02  1.69886246e-01
  -1.09973229e-01 -3.43331993e-02 -6.48966571e-03 -7.94378743e-02
  -6.33360371e-02  4.00029644e-02 -2.68818680e-02  3.47230630e-03
  -3.19260880e-02 -2.10864265e-02  4.48534936e-02 -3.63202281e-02
   1.61566399e-02 -6.10592170e-03 -1.48488849e-01  1.87283307e-02
  -8.91287774e-02 -6.78976402e-02 -9.37568694e-02  1.86902657e-01
  -1.47236073e-02 -8.62746909e-02  2.97332625e-03 -2.38313153e-02
  -6.59170151e-02 -5.56872487e-02 -2.37380806e-03 -2.05533281e-01
  -2.36324161e-01  5.08279726e-02 -3.95594500e-02 -1.39154941e-02
   3.28389555e-01  1.43875629e-01  1.92283746e-02 -1.97407994e-02
   7.50711337e-02  6.80412650e-02  6.15923433e-03 -3.55455801e-02
   6.10537902e-02 -3.85058159e-03 -2.59428583e-02 -4.36589234e-02
   3.68540101e-02 -6.59155101e-02  6.01693541e-02 -4.31376463e-03
  -7.98631273e-03  1.14716450e-02 -1.77006442e-02 -9.23138205e-03
   5.39307948e-03 -7.29463203e-03 -9.05300528e-02  8.91824290e-02]
 [ 1.48782849e-01 -5.35923205e-02 -7.59853274e-02 -3.85940596e-02
  -3.15634944e-02 -6.14325341e-04  8.32998157e-02  9.32883471e-03
  -2.49080248e-02  2.41857786e-02 -7.44923055e-02  4.97567840e-02
  -2.03547883e-03  4.93783019e-02 -3.75113524e-02 -4.94484454e-02
  -1.10599950e-01  3.08362604e-03  6.10921159e-03  7.55310208e-02
  -3.14096622e-02 -4.14446406e-02 -4.37734909e-02 -1.55976772e-01
   7.50147924e-02 -1.14766294e-02 -1.38149351e-01 -2.05607316e-03
   9.21368040e-03  4.36965786e-02  3.53706032e-02 -4.88059260e-02
  -1.43171465e-02  3.16421203e-02 -1.43193498e-01 -2.17719115e-02
  -5.01330011e-02 -1.28165195e-02 -5.92049770e-03 -3.14165428e-02
   1.24846883e-01 -3.90911810e-02 -4.04952653e-02  7.33871991e-03
   1.41743302e-01  2.60757934e-02 -2.11645626e-02  3.42829502e-03
  -5.53603694e-02 -6.01929016e-02  1.27660811e-01 -7.97114242e-03
   2.29414366e-02 -3.95713933e-02  5.44358082e-02  6.41008466e-02
   1.46805812e-02 -9.83655732e-03  1.63249746e-01  1.21796578e-01
  -4.79550920e-02  2.66486537e-02  1.13417648e-01 -1.03686661e-01
   2.74539758e-02  1.82599574e-02 -1.35915563e-01  1.50028586e-01
  -4.25173296e-03 -3.32479216e-02  9.50133950e-02  2.66281590e-02
   1.51828781e-01 -2.96237767e-02  1.99910626e-02 -1.96239147e-02
  -7.44707212e-02  2.64211767e-03  2.19613481e-02  3.07176337e-02
   2.53373571e-02 -8.58400390e-03 -6.03008643e-02 -2.57192608e-02
  -9.82927904e-03 -4.97555844e-02  2.01018360e-02 -4.00885306e-02
   8.74740407e-02 -1.04056507e-01 -9.37581621e-03  1.08453713e-01
  -5.61824664e-02 -8.01971033e-02  3.94484680e-03  1.47323877e-01
  -1.50011322e-02  3.69887762e-02  6.30735420e-04 -9.83007811e-03
  -2.14446429e-02 -1.03119994e-02  4.25669253e-02 -8.27107504e-02
   1.39702082e-01 -1.66630708e-02 -3.21213230e-02 -5.20038418e-02
   8.77151936e-02 -5.92352040e-02  9.67052653e-02 -2.95000263e-02
  -3.86320576e-02  3.92475389e-02  1.42364010e-01 -7.46493042e-02
  -1.23843234e-02 -4.33680080e-02 -5.36226258e-02 -6.86657876e-02
   2.81834900e-02 -3.03574819e-02  4.44699377e-02 -1.65993776e-02
  -2.58210755e-04  9.94168818e-02  8.78396854e-02  9.58334506e-02]
 [ 1.31406048e-02 -2.13172231e-02  3.05429045e-02  4.31835428e-02
  -2.65037618e-03 -2.25075800e-02  3.62769552e-02 -1.61014572e-02
  -6.69570044e-02  6.60462212e-03 -3.79857309e-02 -1.44097969e-01
   3.52027938e-02  2.10878681e-02 -8.55618436e-03 -2.79073119e-02
  -5.17503247e-02 -9.17451456e-03 -3.11530810e-02 -7.32597113e-02
  -2.64574774e-02 -2.66993754e-02 -3.08522861e-02  3.42248715e-02
   4.56737764e-02 -3.07873785e-02 -1.35515779e-02  3.86257947e-04
   8.09464976e-03 -1.39223319e-02 -4.54190634e-02  1.47419726e-03
   2.72337086e-02 -7.13796765e-02  6.77049309e-02 -9.41243302e-03
  -4.48997729e-02 -6.96912259e-02 -5.50020672e-02 -6.05485588e-02
   7.63342977e-02 -6.99372068e-02  2.19287854e-02 -5.10587133e-02
  -3.28071229e-03 -6.50626794e-02  5.48659824e-02 -2.18876346e-04
   3.16472091e-02 -8.88376981e-02  1.37803063e-01  3.94926593e-02
  -3.01021188e-02 -7.50738680e-02  4.06742617e-02 -3.99603136e-02
   1.05451800e-01  3.51360515e-02  7.32386485e-02  1.18305862e-01
  -3.15434337e-02  2.48612575e-02  1.36497580e-02 -2.95414682e-02
   2.30045058e-02 -6.24435470e-02  3.22544128e-02  4.09071855e-02
   6.44953027e-02 -3.68748582e-03  1.35391233e-02 -1.17352046e-01
  -4.14296351e-02 -1.84632782e-02 -2.83699334e-02 -1.75332148e-02
  -2.08829399e-02 -9.40715075e-02  2.72977613e-02 -4.35399190e-02
  -7.39279091e-02 -6.99155033e-02 -7.79717490e-02  3.11796442e-02
  -6.17070906e-02 -8.82009268e-02 -1.31763024e-02 -4.47143987e-02
   2.05785297e-02 -7.22225383e-02  9.73546784e-03  3.88133414e-02
  -6.90726265e-02 -1.20486893e-01 -8.66299048e-02 -4.88089249e-02
   8.86792876e-03 -7.00162873e-02  1.35742752e-02 -2.48072475e-01
  -1.68972127e-02  2.98217330e-02  2.69374833e-03  3.79631040e-03
  -4.61511724e-02  6.08864613e-03 -6.24571219e-02  3.39067727e-02
   9.67060849e-02  3.98243479e-02  5.67535348e-02  1.85471531e-02
  -5.10944873e-02  1.11534290e-01 -2.29990249e-03 -6.49645627e-02
  -5.74299581e-02 -4.14257869e-02  2.29683146e-02 -1.04922779e-01
  -5.97800277e-02 -7.32031167e-02 -5.55596538e-02  3.44674252e-02
  -4.06758999e-03 -1.31346017e-01 -1.12244058e-02 -1.72709227e-02]
 [-1.79657623e-01  1.45780906e-01  3.17187086e-02 -5.68571873e-02
   3.13232429e-02 -4.52417694e-02 -9.10683200e-02 -7.06680268e-02
   2.21919287e-02 -6.04368523e-02 -2.07950436e-02 -2.24992588e-01
  -1.73460227e-02  6.92683086e-02 -4.51876447e-02  3.42032537e-02
   8.82906914e-02  5.71197346e-02 -2.52872854e-02 -4.82158642e-03
  -2.85624862e-02  8.53522643e-02  1.21787660e-01  1.02834113e-01
  -8.66758749e-02  3.38016264e-02 -5.59010394e-02 -9.90867242e-02
  -5.04464060e-02 -8.75636295e-04 -1.06965370e-01 -5.65053299e-02
   2.14585960e-02  5.44157252e-02 -2.14996673e-02 -1.43956309e-02
   1.14714131e-02 -9.95383263e-02 -1.61867719e-02 -7.12217316e-02
   7.50797167e-02  4.24894392e-02  3.95269021e-02  1.97726637e-02
  -2.24478841e-01 -4.20508273e-02  1.44688204e-01  3.55280228e-02
   2.08132062e-03 -1.07787363e-01 -1.95824966e-01  2.33421758e-01
  -3.30185294e-02  6.22434728e-03 -3.05378079e-01 -2.27491900e-01
  -1.83687117e-02 -3.55459265e-02 -2.13084985e-02 -8.14131126e-02
  -3.43428068e-02  1.39632821e-02  6.28409907e-02  9.61085185e-02
  -5.09409234e-02 -6.04582503e-02 -9.75299533e-03  6.89558685e-03
   9.96743888e-02 -1.80641690e-03 -1.23655960e-01 -1.08543612e-01
  -2.09829375e-01  2.97276322e-02  3.04805813e-03 -1.54739711e-02
  -5.71132116e-02 -2.87562497e-02  4.83890511e-02  3.94167081e-02
  -1.01987958e-01 -4.46328484e-02 -1.82489352e-03  3.84978168e-02
  -2.30089035e-02 -2.33267918e-02 -3.25236879e-02  2.83399448e-02
  -1.77894965e-01 -1.18548147e-01 -9.31865163e-03  7.99856856e-02
  -5.81670851e-02  9.66005772e-03 -3.26433927e-02 -9.31099579e-02
  -4.69930619e-02  1.56177590e-02 -1.17183020e-02 -1.74681976e-01
   8.70294198e-02 -2.16980763e-02 -1.69209260e-02  1.22910114e-02
  -2.07785517e-01  3.95208672e-02 -3.12109981e-02  3.25694382e-02
  -1.16481140e-01  4.95849699e-02 -1.07913213e-02 -3.19519400e-04
   7.96402246e-03  1.29490957e-01 -1.54697835e-01 -3.17006446e-02
  -8.24495498e-03 -2.76883622e-03 -1.11154832e-01 -1.20926216e-01
  -4.17776108e-02 -1.13113336e-01 -2.15184130e-02  4.03800467e-03
  -3.10780387e-02 -9.76436660e-02 -9.75270290e-03 -2.30767891e-01]
 [ 2.82230228e-02 -4.09223922e-02 -6.16517402e-02 -7.49669299e-02
  -4.45007719e-02  3.65439555e-05  2.48394400e-01 -4.68233861e-02
   6.48628846e-02 -8.15415848e-03  1.33335620e-01  1.02358557e-01
   4.25118990e-02 -5.05046770e-02 -4.25359979e-02 -6.03623092e-02
   7.86158144e-02  5.98054901e-02 -5.98658957e-02 -5.85836396e-02
   2.71405801e-02 -4.25417349e-02 -1.34853348e-01 -3.57118785e-01
  -1.04874074e-02  1.10055404e-02 -2.01653600e-01 -7.84424506e-03
  -9.86795872e-04  4.64716740e-03  5.96193038e-02 -4.87371758e-02
   3.25961448e-02  2.61686388e-02  1.91789474e-02  6.27097636e-02
   1.92618612e-02 -2.05266401e-02  1.58573911e-02 -6.05171686e-03
  -5.99869452e-02  2.23096274e-02  9.21815708e-02  3.60787138e-02
   1.35625884e-01  1.39744841e-02  3.06358449e-02 -8.53090826e-03
  -5.25290146e-02  5.10294959e-02  2.01199157e-03 -3.18136811e-03
  -4.57218625e-02 -1.30750267e-02 -3.20053548e-02  1.50004908e-01
   9.69784334e-03 -6.88938573e-02 -3.40832286e-02 -1.79642476e-02
  -8.96086451e-03 -5.02366982e-02  1.30501106e-01  4.94556092e-02
  -6.48604520e-03 -3.84827331e-02 -6.99542835e-02  7.75870010e-02
  -9.35789868e-02 -5.18248416e-02  4.16401625e-02  2.08854437e-01
   1.63478211e-01 -2.48462036e-02 -7.55155683e-02  4.27874662e-02
  -4.96001448e-04  3.83038186e-02  3.05398330e-02 -8.26349333e-02
   5.54998331e-02 -6.14698343e-02 -5.58132716e-02  8.62758141e-03
  -1.08682113e-02 -9.03251693e-02 -2.49184929e-02  3.90119851e-02
  -9.03553516e-03 -6.35312796e-02 -4.32612225e-02 -9.64393169e-02
   6.01021759e-02 -3.98685224e-02  1.00230938e-02  3.58916037e-02
   3.15846950e-02  9.30878893e-03  2.11277194e-02  6.00212403e-02
   2.84639597e-02 -8.35778564e-03 -1.60298765e-01 -1.74142942e-02
  -1.36993676e-01  1.06024910e-02  3.08020553e-03 -1.29820839e-01
  -7.02598393e-02 -3.25943798e-01 -3.73192802e-02 -2.21785177e-02
   1.87520608e-02 -1.05337694e-01  1.58797845e-01 -7.03541115e-02
  -3.20514552e-02  5.16811619e-03 -1.36574311e-02 -5.65539254e-03
  -3.67636723e-03 -1.65672049e-01 -3.77604691e-03  3.60561498e-02
  -3.83117273e-02  7.93222636e-02 -1.46818355e-01 -3.85229588e-02]
 [-8.09465051e-02 -8.44565965e-03 -1.70519913e-03  5.23671694e-02
  -1.76580101e-02 -4.80738701e-03 -9.47948322e-02  3.06192017e-03
  -3.52135710e-02 -5.07680420e-03  1.05716893e-02 -2.18011051e-01
  -5.53803779e-02  4.63420711e-03 -3.26585285e-02 -4.44422923e-02
   3.72947976e-02  3.06771435e-02 -3.44648063e-02  5.88212684e-02
  -3.54549550e-02  4.17434564e-03 -1.56334817e-01  8.46580267e-02
  -6.87597170e-02  3.45546193e-02 -5.27904183e-02  4.19648327e-02
   2.56456174e-02  3.20608541e-02 -9.64703709e-02  3.19905169e-02
  -4.37154584e-02 -7.31692985e-02  8.06052089e-02 -5.92786074e-02
  -2.29577105e-02  4.46312204e-02 -5.29553145e-02  1.75306182e-02
  -2.74702664e-02 -5.11231250e-04  7.52094463e-02  2.87361704e-02
   2.78679579e-02 -3.64435948e-02 -1.16171993e-01 -2.74902992e-02
  -5.83229102e-02 -6.42296001e-02  9.62135047e-02 -1.92612052e-01
  -7.77450064e-03  5.27296541e-03 -1.00936130e-01 -2.27466393e-02
  -2.78812088e-02 -2.73841061e-02  1.09034672e-01  2.36918889e-02
  -1.22388713e-02  4.55592573e-02 -1.54324427e-01 -3.72816212e-02
  -2.36685500e-02 -4.61941920e-02 -4.99274731e-02 -2.71099675e-02
   6.13639923e-03 -3.90608646e-02 -5.01651652e-02 -4.52798828e-02
  -2.55749017e-01 -2.32645757e-02 -5.83015569e-02 -5.85112311e-02
   1.14029022e-02 -2.03846823e-02 -1.82179473e-02 -7.26294331e-03
   8.57233852e-02 -6.51512221e-02 -2.74029784e-02 -6.05310872e-02
   2.65022591e-02 -4.51174527e-02 -5.85097671e-02 -4.81917895e-02
  -9.57846642e-02  1.24087758e-01 -9.04459879e-03  3.77398431e-02
  -9.10512656e-02 -7.67028257e-02  5.92337735e-03 -1.03292152e-01
   4.60149534e-02  5.76700317e-03 -5.70458807e-02  2.88485382e-02
  -4.49136384e-02 -3.09121516e-02 -1.14546150e-01  2.18406017e-03
  -6.76322682e-03  1.00774793e-02  6.47332566e-03  6.17468730e-02
   9.05035064e-03 -6.41301200e-02  1.34406472e-03 -7.40376189e-02
  -4.21267049e-03 -2.48120725e-03 -1.01945378e-01 -4.47162576e-02
  -2.31298935e-02 -8.14752094e-03  4.71625524e-03 -6.24516010e-02
   2.72473935e-02 -5.25775626e-02 -5.95691651e-02 -1.07228560e-02
  -5.93729131e-03 -6.24433607e-02 -3.45603004e-02 -8.75765756e-02]
 [-5.59837446e-02 -5.79250865e-02 -6.43905923e-02 -2.89910473e-02
   4.43136059e-02  1.54961096e-02  1.27027079e-01  2.83006355e-02
   1.76215358e-02 -3.83922718e-02  1.63979396e-01 -8.54057744e-02
  -4.20072721e-03  1.74737543e-01  3.92910279e-02 -5.70819899e-02
  -4.16302308e-02 -2.53767353e-02 -2.36529373e-02 -9.27597191e-03
  -5.21270521e-02  6.70740008e-02 -3.29485536e-02 -1.69297904e-01
   5.47338277e-03  1.05367955e-02 -1.72810294e-02 -1.34951677e-02
  -7.15329126e-02 -2.32218374e-02  1.95530225e-02 -5.88303395e-02
  -2.13939417e-02 -2.53876951e-02 -1.53457578e-02 -1.09127104e-01
  -5.31192869e-03  8.86386782e-02 -3.07503575e-03  2.54648831e-02
  -2.19211265e-01  3.95921282e-02 -2.59287119e-01 -4.55662794e-02
   1.18349008e-01  4.34643924e-02 -1.29781872e-01  5.80781288e-02
  -7.33896643e-02  1.40671162e-02 -1.16903275e-01 -2.16732398e-01
   4.62574586e-02  1.26059782e-02 -2.25238785e-01 -1.02076633e-02
  -5.66190965e-02 -5.92476204e-02 -3.75427380e-02 -5.61741367e-02
   4.22066450e-02  2.10480150e-02 -1.11107774e-01  6.64285431e-03
  -4.27392684e-02  2.31254548e-02 -6.28709272e-02  6.60968423e-02
   5.04911281e-02 -2.11248007e-02  5.68138547e-02 -5.14284149e-02
   1.10252582e-01  3.45158242e-02 -2.55901390e-03 -4.42944318e-02
  -1.67863369e-02 -1.86407343e-02  3.00242472e-02  1.98662020e-02
  -2.31941771e-02  2.83344612e-02  1.16040874e-02 -4.87725921e-02
  -2.02407930e-02  1.14091849e-02 -2.65339643e-01 -3.27639580e-02
  -9.37893242e-02  4.63240175e-03 -3.48578170e-02  6.62875548e-02
  -4.28096317e-02  6.71716556e-02  1.15684001e-02  7.61247352e-02
  -4.91927117e-02 -4.07786556e-02  2.67111640e-02 -2.04672292e-01
  -3.73592861e-02  2.34744232e-02  1.05881542e-01  7.81733841e-02
   7.65219629e-02 -3.13640982e-02 -1.05212867e-01  6.65744469e-02
  -7.07479287e-03 -3.08439210e-02  1.39098158e-02 -5.65312617e-02
  -3.22305895e-02 -1.64519474e-01 -6.42892420e-02  5.74659696e-03
   6.06248416e-02 -4.85428050e-02  5.53278532e-03 -1.38275161e-01
   1.48055097e-02 -1.09814748e-01  4.44214381e-02 -2.94600818e-02
   5.99881588e-03 -5.73579557e-02  1.40831377e-02 -5.30692711e-02]
 [ 2.09398538e-01 -9.45810452e-02 -4.04507406e-02 -2.22948357e-03
   2.26382315e-02  6.44169096e-03  6.58281520e-02  6.58361912e-02
   1.79679319e-02 -2.84448415e-02  3.44446450e-02  1.51584879e-01
   4.65781875e-02  2.36356910e-02 -6.03452399e-02  9.61486809e-03
   2.52227746e-02 -1.27944434e-02 -5.73541177e-03  7.69644976e-02
  -6.09832332e-02 -2.48994231e-01 -7.66969696e-02  7.78137818e-02
   7.47241750e-02 -5.72651103e-02 -9.94934663e-02 -5.25929928e-02
  -3.27445194e-02  3.77430692e-02  1.66410785e-02 -5.22886496e-03
  -4.67924736e-02 -8.28042477e-02 -1.11423694e-02 -4.17943485e-02
  -1.63640585e-02 -3.37862968e-02 -6.26343908e-03 -4.75213639e-02
   6.95585087e-02  1.32851871e-02  4.92197052e-02 -1.63199939e-02
   1.28171846e-01 -3.54075269e-03  5.09364866e-02  3.29744481e-02
   2.44542863e-03 -6.12819903e-02  1.21516243e-01 -1.92704927e-02
   4.96482884e-04 -2.06108717e-03  2.13647082e-01 -1.06806941e-01
  -8.71451348e-02 -3.57003952e-03  5.46659604e-02  2.55705006e-02
  -5.18062077e-02 -3.27549651e-02  3.24644335e-02 -4.00774293e-02
  -5.96874617e-02 -5.04772142e-02 -1.41074851e-01  1.47068053e-02
  -1.84695106e-02  1.69188939e-02  1.57371134e-01  3.56471576e-02
   1.74209490e-01  1.53937694e-02  2.41992585e-02 -2.45586466e-02
   2.77321227e-02 -4.19390947e-02 -1.06833102e-02  2.12054569e-02
   1.56219944e-01  1.51300142e-02 -7.01795444e-02 -5.34045277e-03
   9.40472819e-03 -9.28407311e-02  1.32180244e-01  1.89169645e-02
  -8.57886206e-03 -8.75980705e-02  2.52751950e-02  4.35295478e-02
  -2.18232069e-02 -8.00178945e-02 -2.53901277e-02  3.05700660e-01
  -5.69433458e-02 -4.99359630e-02 -3.01028546e-02  3.35833319e-02
   9.62123927e-03 -4.40447778e-02  1.85962114e-02 -8.26749653e-02
   2.24623699e-02 -1.10863954e-01 -1.07772827e-01  2.99687143e-02
  -2.02447325e-02  2.56781070e-03 -1.13965742e-01 -5.71517497e-02
  -4.35772864e-03  7.19291344e-02  6.79626465e-02 -6.11978509e-02
  -6.89468607e-02  3.26835401e-02 -2.87285913e-02 -4.97395545e-02
  -4.02167290e-02 -2.28850916e-02  3.70317511e-02  4.60980460e-02
  -3.72302206e-03 -1.35243908e-02  9.32274908e-02  9.80235264e-03]
 [ 6.86226413e-03 -3.09011675e-02 -9.43973437e-02 -3.30078006e-02
  -2.68025529e-02 -3.02021950e-02  3.69947702e-02 -1.12951323e-01
  -4.27469313e-02 -1.03607662e-02 -1.12818992e-02 -8.75113234e-02
  -4.98733036e-02  1.77800748e-02 -2.67981607e-02 -4.65130294e-03
  -1.13489227e-02  1.56952422e-02  3.87637839e-02 -8.89075622e-02
  -2.83791851e-02 -5.39954305e-02  7.58748800e-02  1.22578003e-01
   1.85404520e-03 -6.68511465e-02 -2.32603531e-02 -5.48531972e-02
  -1.28490496e-02 -3.01566683e-02  4.37050797e-02  1.51052568e-02
  -3.68421376e-02 -2.73937210e-02  2.10620202e-02  5.67648793e-03
  -6.97353762e-03  5.12558036e-02 -1.62629392e-02 -2.38674274e-03
   6.07956052e-02  3.81602882e-03  2.48208139e-02 -8.16967152e-03
  -4.77243364e-02  2.20368113e-02 -1.16364975e-02  1.99024379e-02
  -6.97172135e-02  1.94607619e-02  1.00388199e-01 -1.93709917e-02
   1.64177548e-02 -5.03870957e-02  3.31553183e-02 -3.72938626e-02
   8.64109676e-03  3.94018702e-02  2.81473305e-02  7.13349879e-02
  -5.58912754e-02 -5.22427820e-02  7.03794211e-02  2.01137606e-02
  -3.97405997e-02 -5.01154177e-02 -5.65859862e-02  1.35015473e-02
   8.17348901e-03 -8.34962912e-03  8.83125737e-02  1.37079716e-01
  -6.84930384e-02 -9.34448764e-02  1.71082597e-02 -1.92784984e-02
   2.76061427e-02  1.72800943e-03 -6.32539913e-02  3.42557617e-02
  -9.35695544e-02 -2.54501775e-02  1.00621637e-05 -7.80481994e-02
  -5.28441481e-02 -1.41824678e-01 -1.88248977e-02  3.04547064e-02
  -2.74260193e-02 -2.47803759e-02  3.54605056e-02  1.12135168e-02
  -4.32950333e-02 -7.58331046e-02 -9.50473398e-02  8.64514709e-03
  -1.20915715e-02  1.87518131e-02 -2.10437030e-02 -5.87045923e-02
   1.12207094e-02 -2.04653572e-02  3.33641209e-02 -4.69244868e-02
  -1.61733497e-02  1.09139737e-02 -1.20742381e-01 -4.47031204e-03
   6.36954755e-02  3.63935754e-02  9.49197486e-02 -3.00376676e-02
  -3.82291116e-02  4.98180219e-04 -1.06457761e-02 -2.92686336e-02
  -1.95466187e-02  2.93380618e-02  4.27567493e-03 -3.09060682e-02
  -2.33283825e-02  2.82015800e-02 -1.97909605e-02 -2.79577300e-02
   3.04844398e-02 -6.04196116e-02  1.47142578e-02 -8.77315626e-02]
 [ 1.85848083e-02  7.41879046e-02  4.22910452e-02  1.43209836e-02
   4.72007617e-02 -2.83099581e-02 -1.31160289e-01 -4.29559760e-02
   3.12520675e-02  2.26027668e-02  2.73580030e-02 -1.43537372e-01
  -5.69357760e-02 -9.55061466e-02  8.82311817e-03 -5.67794926e-02
   1.16909981e-01  2.92432886e-02  5.04583605e-02  2.09490918e-02
  -4.63491715e-02  1.46308124e-01  6.59222826e-02  1.84340030e-02
  -4.78104055e-02 -3.65656707e-03 -5.08765280e-02 -4.32679653e-02
